module.exports = function anonymous(rawInput,isSampleI,temperature
) {

  if (typeof rawInput === 'undefined') rawInput = [];
  if (typeof isSampleI === 'undefined') isSampleI = false;
  if (typeof temperature === 'undefined') temperature = 1;
  var json = {"type":"LSTM","options":{"inputSize":41,"inputRange":41,"hiddenLayers":[20,20],"outputSize":41,"decayRate":0.999,"smoothEps":1e-8,"regc":0.000001,"clipval":5,"maxPredictionLength":100,"dataFormatter":{"values":["Bro, i'm down.","Friends forever!","I miss you","I really like you.","I really miss you","I'm not trying to go","If you come over, I'll think about it","Let's go man!","Netflix and chill?","Nobody's home right now","Sweet dreams!","Tryna chill?","Want to come over?","Want to get food bro?","Yo where you at?","You first!","You have really pretty eyes","You're a cool dude","You're like family to me","You're really cute","You're so cute when you laugh","You're soooo hot","casual","down to do whatever","flirty"],"indexTable":{"B":0,"r":1,"o":2,",":3," ":4,"i":5,"'":6,"m":7,"d":8,"w":9,"n":10,".":11,"F":12,"e":13,"s":14,"f":15,"v":16,"!":17,"I":18,"y":19,"u":20,"a":21,"l":22,"k":23,"t":24,"g":25,"c":26,"h":27,"b":28,"L":29,"N":30,"x":31,"?":32,"S":33,"T":34,"W":35,"Y":36,"p":37,"stop-input":38,"start-output":39,"unrecognized":40},"characterTable":{"0":"B","1":"r","2":"o","3":",","4":" ","5":"i","6":"'","7":"m","8":"d","9":"w","10":"n","11":".","12":"F","13":"e","14":"s","15":"f","16":"v","17":"!","18":"I","19":"y","20":"u","21":"a","22":"l","23":"k","24":"t","25":"g","26":"c","27":"h","28":"b","29":"L","30":"N","31":"x","32":"?","33":"S","34":"T","35":"W","36":"Y","37":"p","38":null,"39":null,"40":null},"characters":["B","r","o",","," ","i","'","m","d","w","n",".","F","e","s","f","v","!","I","y","u","a","l","k","t","g","c","h","b","L","N","x","?","S","T","W","Y","p","stop-input","start-output","unrecognized"],"specialIndexes":[38,39,40]}},"input":{"rows":42,"columns":41,"weights":{"0":0.4781642556190491,"1":-7.561895370483398,"2":0.1014496311545372,"3":-6.827536106109619,"4":7.418093681335449,"5":-6.7514872550964355,"6":-0.1328197419643402,"7":7.604413986206055,"8":7.615943908691406,"9":0.18965685367584229,"10":0.1434011161327362,"11":0.8965817093849182,"12":-3.426736831665039,"13":7.303851127624512,"14":0.3098214864730835,"15":-7.38711404800415,"16":2.8911659717559814,"17":-0.13237476348876953,"18":-0.14799818396568298,"19":5.680113315582275,"20":7.618293762207031,"21":-0.7804677486419678,"22":-0.22328734397888184,"23":-0.20573915541172028,"24":-0.8574063777923584,"25":-0.14518503844738007,"26":5.371584892272949,"27":-7.219631671905518,"28":-0.39327165484428406,"29":7.4274702072143555,"30":7.258839130401611,"31":-1.002994418144226,"32":0.24508127570152283,"33":0.25038132071495056,"34":-0.4665517807006836,"35":-7.42902946472168,"36":7.384659767150879,"37":0.24232247471809387,"38":-7.209299087524414,"39":-7.7012786865234375,"40":-0.2523949146270752,"41":31.171283721923828,"42":-31.18248748779297,"43":31.186004638671875,"44":-31.181140899658203,"45":31.189159393310547,"46":31.174713134765625,"47":31.16344451904297,"48":-31.2138671875,"49":-31.18072509765625,"50":31.176025390625,"51":-31.160797119140625,"52":-31.2098388671875,"53":31.186328887939453,"54":-31.161407470703125,"55":31.211856842041016,"56":31.198265075683594,"57":31.1734619140625,"58":-31.178855895996094,"59":31.15555191040039,"60":-31.17068862915039,"61":31.205772399902344,"62":-31.21263885498047,"63":-31.212650299072266,"64":-31.18179702758789,"65":31.151988983154297,"66":-31.195640563964844,"67":31.169700622558594,"68":31.2154541015625,"69":-30.86931610107422,"70":-31.20580291748047,"71":-31.153717041015625,"72":31.198856353759766,"73":-31.159198760986328,"74":-31.16136932373047,"75":31.195953369140625,"76":31.1868896484375,"77":-31.15404510498047,"78":31.1546630859375,"79":31.176414489746094,"80":31.173709869384766,"81":31.211528778076172,"82":8.026488304138184,"83":-0.38515710830688477,"84":-16.269933700561523,"85":-7.604130744934082,"86":-11.89356803894043,"87":-10.182649612426758,"88":19.101228713989258,"89":6.7122697830200195,"90":5.68302059173584,"91":-0.46512502431869507,"92":10.598563194274902,"93":-8.714579582214355,"94":-3.293950080871582,"95":0.06328681111335754,"96":-8.05257797241211,"97":-0.1000223234295845,"98":-4.5187578201293945,"99":2.226954698562622,"100":-11.315107345581055,"101":-19.602651596069336,"102":4.565024375915527,"103":7.875552654266357,"104":-9.303166389465332,"105":-5.639122486114502,"106":7.479347229003906,"107":11.974562644958496,"108":-3.1246869564056396,"109":11.225103378295898,"110":4.042468070983887,"111":-2.1232783794403076,"112":-11.544114112854004,"113":7.908558368682861,"114":-16.054370880126953,"115":3.304807662963867,"116":11.80587387084961,"117":4.468368053436279,"118":8.834610939025879,"119":-1.0652697086334229,"120":-0.7618975043296814,"121":-8.931086540222168,"122":-6.88856840133667,"123":18.772974014282227,"124":-1.951158046722412,"125":-5.600515842437744,"126":-8.346111297607422,"127":-17.121116638183594,"128":-0.3504449725151062,"129":22.43073844909668,"130":-0.9635970592498779,"131":-4.052349090576172,"132":-9.672731399536133,"133":-14.409396171569824,"134":0.5327625274658203,"135":14.93350887298584,"136":21.045759201049805,"137":-7.857670783996582,"138":-9.200298309326172,"139":21.808910369873047,"140":-19.65019989013672,"141":-11.535154342651367,"142":-6.824907302856445,"143":4.019018650054932,"144":11.952886581420898,"145":4.394658088684082,"146":10.227068901062012,"147":17.468660354614258,"148":11.578903198242188,"149":2.7273478507995605,"150":9.896571159362793,"151":21.699710845947266,"152":7.38775110244751,"153":8.04461669921875,"154":23.688533782958984,"155":-19.98407554626465,"156":9.940791130065918,"157":-0.5194631814956665,"158":4.03969144821167,"159":9.389111518859863,"160":2.8483951091766357,"161":7.304766654968262,"162":-2.989737033843994,"163":-0.12945954501628876,"164":-34.14155960083008,"165":-36.125892639160156,"166":49.87266540527344,"167":-50.48053741455078,"168":50.44117736816406,"169":52.5069580078125,"170":63.01375961303711,"171":6.719973564147949,"172":-50.325233459472656,"173":-61.97699737548828,"174":-53.461669921875,"175":12.727740287780762,"176":-27.164043426513672,"177":46.18918228149414,"178":47.7386474609375,"179":25.37427520751953,"180":45.05478286743164,"181":41.58241271972656,"182":56.85285568237305,"183":19.687355041503906,"184":41.72611618041992,"185":-31.080204010009766,"186":41.8928337097168,"187":52.78508758544922,"188":-44.01586151123047,"189":-47.53589630126953,"190":53.87921905517578,"191":48.76444625854492,"192":59.93327331542969,"193":40.455013275146484,"194":45.67862319946289,"195":62.784210205078125,"196":53.50786590576172,"197":38.1689453125,"198":-45.98906326293945,"199":44.182491302490234,"200":-39.871341705322266,"201":49.70511245727539,"202":52.06621170043945,"203":54.72883605957031,"204":10.592046737670898,"205":5.463266372680664,"206":-0.20781779289245605,"207":-0.5783434510231018,"208":-1.2795970439910889,"209":-6.880099296569824,"210":-0.8163865208625793,"211":5.842495918273926,"212":-0.42200973629951477,"213":-0.5935813188552856,"214":-1.3619393110275269,"215":0.7526313066482544,"216":-6.734600067138672,"217":-2.8509433269500732,"218":-1.1675662994384766,"219":0.49798551201820374,"220":-1.0099952220916748,"221":-7.688100814819336,"222":-5.267856597900391,"223":2.2989001274108887,"224":-6.3958892822265625,"225":1.4980908632278442,"226":0.06071239337325096,"227":-6.756563186645508,"228":-7.5887908935546875,"229":6.740516185760498,"230":3.774686336517334,"231":-6.477649211883545,"232":6.474258899688721,"233":-3.5283141136169434,"234":-6.507530212402344,"235":-6.576801300048828,"236":1.6720616817474365,"237":-1.6563501358032227,"238":1.176826000213623,"239":6.903683662414551,"240":6.538852214813232,"241":-6.612695217132568,"242":-0.7935922145843506,"243":6.2911763191223145,"244":0.594196617603302,"245":-0.47861820459365845,"246":7.392962455749512,"247":24.00737190246582,"248":12.682906150817871,"249":16.514083862304688,"250":-12.33289623260498,"251":26.261587142944336,"252":36.210418701171875,"253":-30.213531494140625,"254":-2.215275526046753,"255":-22.248638153076172,"256":-3.1281754970550537,"257":-18.255525588989258,"258":-0.15533863008022308,"259":-10.067611694335938,"260":-9.822115898132324,"261":-0.5015392303466797,"262":24.0307559967041,"263":-31.521333694458008,"264":-1.3345166444778442,"265":8.18986701965332,"266":-19.750865936279297,"267":15.82613468170166,"268":14.4152250289917,"269":14.452356338500977,"270":34.95456314086914,"271":5.775612831115723,"272":10.42844295501709,"273":15.609928131103516,"274":-4.198070526123047,"275":-21.52300453186035,"276":-13.602231979370117,"277":23.444093704223633,"278":-21.067066192626953,"279":-20.803466796875,"280":15.72319221496582,"281":18.1618709564209,"282":-25.129695892333984,"283":-21.89848518371582,"284":25.08901596069336,"285":21.116069793701172,"286":-8.791545867919922,"287":-4.943183422088623,"288":12.325434684753418,"289":-3.887324571609497,"290":-5.0865159034729,"291":4.842473030090332,"292":12.275851249694824,"293":12.265205383300781,"294":-12.262436866760254,"295":-4.906251430511475,"296":12.318650245666504,"297":-4.774723529815674,"298":-2.350576162338257,"299":12.132622718811035,"300":-8.80975341796875,"301":11.93666934967041,"302":4.900422096252441,"303":5.163302898406982,"304":4.711103916168213,"305":11.933631896972656,"306":-10.185787200927734,"307":-12.116336822509766,"308":-5.092051029205322,"309":4.653628826141357,"310":-12.32480239868164,"311":12.257493019104004,"312":-4.812117099761963,"313":-10.804911613464355,"314":-12.11367416381836,"315":-3.1793506145477295,"316":4.680100440979004,"317":4.8701558113098145,"318":-12.262343406677246,"319":4.622292995452881,"320":3.9969003200531006,"321":12.321654319763184,"322":11.956701278686523,"323":4.053330421447754,"324":4.595427513122559,"325":12.21024227142334,"326":12.265959739685059,"327":4.953986167907715,"328":15.056591033935547,"329":-15.184368133544922,"330":-12.009675979614258,"331":-15.138261795043945,"332":14.16982650756836,"333":-15.157739639282227,"334":15.144084930419922,"335":13.834577560424805,"336":13.498700141906738,"337":-15.119304656982422,"338":15.089229583740234,"339":-14.995698928833008,"340":-15.101343154907227,"341":15.030160903930664,"342":-13.109841346740723,"343":-15.205928802490234,"344":15.144731521606445,"345":-15.022954940795898,"346":-15.096450805664062,"347":-15.045116424560547,"348":15.15245246887207,"349":14.700597763061523,"350":-13.732194900512695,"351":10.667054176330566,"352":15.088933944702148,"353":14.698592185974121,"354":14.660788536071777,"355":-9.744890213012695,"356":14.050003051757812,"357":15.125093460083008,"358":13.593575477600098,"359":15.122514724731445,"360":-13.674718856811523,"361":-15.105072021484375,"362":15.03438949584961,"363":13.414417266845703,"364":15.196046829223633,"365":12.318376541137695,"366":-14.96360969543457,"367":-14.378366470336914,"368":-14.932781219482422,"369":0.3757841885089874,"370":0.6968324184417725,"371":2.186918020248413,"372":-20.06092071533203,"373":4.833584308624268,"374":0.49028080701828003,"375":5.281406402587891,"376":6.508263111114502,"377":5.934615612030029,"378":-4.56909704208374,"379":-4.080235481262207,"380":24.732175827026367,"381":-3.39414644241333,"382":5.983113765716553,"383":6.41657829284668,"384":3.532048463821411,"385":6.78542423248291,"386":4.105313301086426,"387":-2.806401252746582,"388":-5.942319393157959,"389":2.664315700531006,"390":-25.017494201660156,"391":-11.408909797668457,"392":0.710462212562561,"393":-4.657011032104492,"394":-7.343067169189453,"395":3.9449946880340576,"396":0.7625440359115601,"397":-1.0706220865249634,"398":25.186853408813477,"399":9.147234916687012,"400":5.07824182510376,"401":-1.0972568988800049,"402":2.5494537353515625,"403":-3.9648447036743164,"404":-20.08277702331543,"405":24.375572204589844,"406":3.6279656887054443,"407":8.57292366027832,"408":-0.9706958532333374,"409":3.1468775272369385,"410":8.09524917602539,"411":10.664477348327637,"412":0.3039301633834839,"413":5.8597846031188965,"414":-0.4542095363140106,"415":10.208944320678711,"416":4.511873722076416,"417":4.831707000732422,"418":-2.4857137203216553,"419":17.74802017211914,"420":1.6956446170806885,"421":4.3742146492004395,"422":17.53352928161621,"423":-15.799304962158203,"424":8.377120018005371,"425":13.369755744934082,"426":-7.664107322692871,"427":-1.0138192176818848,"428":10.112960815429688,"429":5.357814788818359,"430":3.467019557952881,"431":-6.454134941101074,"432":-6.749783515930176,"433":-12.761748313903809,"434":1.6131702661514282,"435":-6.703796863555908,"436":-10.804908752441406,"437":7.656189441680908,"438":1.1955914497375488,"439":-6.42283821105957,"440":-7.437635898590088,"441":-8.796553611755371,"442":-9.971976280212402,"443":-0.5440466403961182,"444":-4.348822116851807,"445":-2.4958481788635254,"446":-21.56824493408203,"447":-12.666192054748535,"448":11.30134105682373,"449":-1.5393825769424438,"450":1.8207614421844482,"451":8.6162748336792,"452":-8.443211555480957,"453":8.430269241333008,"454":-8.642251968383789,"455":4.116244316101074,"456":-8.560649871826172,"457":8.69365119934082,"458":-8.572303771972656,"459":-8.402628898620605,"460":-8.448702812194824,"461":5.256290912628174,"462":-8.221895217895508,"463":-8.369040489196777,"464":8.372871398925781,"465":8.558645248413086,"466":-8.499807357788086,"467":0.4224720597267151,"468":-8.679840087890625,"469":-6.096194267272949,"470":-8.536110877990723,"471":8.351298332214355,"472":7.754340648651123,"473":-8.216887474060059,"474":-8.601005554199219,"475":8.59715747833252,"476":-8.068618774414062,"477":8.334721565246582,"478":8.488409042358398,"479":-8.190028190612793,"480":8.25595474243164,"481":4.642580986022949,"482":8.543490409851074,"483":-6.038270473480225,"484":-8.3696870803833,"485":8.44754409790039,"486":8.679869651794434,"487":7.6671295166015625,"488":4.362049579620361,"489":8.738473892211914,"490":8.629481315612793,"491":7.7688798904418945,"492":1.1536058187484741,"493":0.9274058938026428,"494":0.974571168422699,"495":-4.080621242523193,"496":3.3766515254974365,"497":2.849654197692871,"498":1.4253671169281006,"499":-2.302170753479004,"500":-0.7495401501655579,"501":2.017702579498291,"502":-4.870024681091309,"503":-2.010375738143921,"504":-1.7651723623275757,"505":-2.7913529872894287,"506":0.25994932651519775,"507":-1.337050199508667,"508":1.117332100868225,"509":-1.2673319578170776,"510":4.999270439147949,"511":-0.5975507497787476,"512":-0.448275625705719,"513":-0.8914452791213989,"514":-5.934628963470459,"515":-1.0356042385101318,"516":3.942185163497925,"517":-1.1445578336715698,"518":3.0960025787353516,"519":-3.793163299560547,"520":-1.3797811269760132,"521":-0.6751529574394226,"522":-1.4922670125961304,"523":3.7055890560150146,"524":-4.298526763916016,"525":-2.6244547367095947,"526":6.443797588348389,"527":-4.0084075927734375,"528":1.1528149843215942,"529":6.325816631317139,"530":-3.198686122894287,"531":3.894545316696167,"532":10.457276344299316,"533":10.5479097366333,"534":-6.075634479522705,"535":3.9226460456848145,"536":-11.776729583740234,"537":6.975043773651123,"538":-8.537466049194336,"539":1.1693720817565918,"540":-0.13251948356628418,"541":3.4670445919036865,"542":-10.934961318969727,"543":-2.299548387527466,"544":9.762887001037598,"545":-0.07315434515476227,"546":2.3724517822265625,"547":10.267892837524414,"548":-5.787222385406494,"549":0.147805854678154,"550":-7.685657501220703,"551":-10.305780410766602,"552":10.239014625549316,"553":2.33630633354187,"554":1.1150354146957397,"555":-6.018770217895508,"556":9.640434265136719,"557":4.601470470428467,"558":-1.9044760465621948,"559":4.791666030883789,"560":7.6307783126831055,"561":-3.7884840965270996,"562":10.955902099609375,"563":9.828791618347168,"564":5.665186405181885,"565":-7.988101005554199,"566":5.961757659912109,"567":-8.853008270263672,"568":-8.59103775024414,"569":0.8718812465667725,"570":7.515843391418457,"571":3.145984649658203,"572":-2.059277057647705,"573":10.503935813903809,"574":-5.251733303070068,"575":-21.843788146972656,"576":-3.9156389236450195,"577":-12.143446922302246,"578":19.809446334838867,"579":-12.481575965881348,"580":-16.88855743408203,"581":-12.35736083984375,"582":-11.948241233825684,"583":-22.840518951416016,"584":-4.7535295486450195,"585":17.697391510009766,"586":4.653292179107666,"587":11.06308650970459,"588":-4.645801544189453,"589":-16.608718872070312,"590":5.759456634521484,"591":-22.8880615234375,"592":-4.64997673034668,"593":17.42108917236328,"594":21.051185607910156,"595":-21.849409103393555,"596":-24.398780822753906,"597":4.513728141784668,"598":-6.040746212005615,"599":-20.07781982421875,"600":6.116177082061768,"601":7.691417694091797,"602":-24.298776626586914,"603":4.7458672523498535,"604":5.997928619384766,"605":11.493162155151367,"606":-9.955577850341797,"607":-11.962179183959961,"608":2.9129955768585205,"609":-17.566946029663086,"610":23.723953247070312,"611":24.73988151550293,"612":-18.982791900634766,"613":-18.324871063232422,"614":24.931503295898438,"615":-24.70532989501953,"616":4.383749008178711,"617":-18.89103889465332,"618":3.7776386737823486,"619":-18.50078582763672,"620":-14.50753402709961,"621":-23.7442626953125,"622":22.39569091796875,"623":1.2251838445663452,"624":7.637968063354492,"625":25.595788955688477,"626":3.6315364837646484,"627":-23.010738372802734,"628":6.594034671783447,"629":-4.965041637420654,"630":9.696939468383789,"631":-5.161089897155762,"632":24.77916717529297,"633":-21.401357650756836,"634":-5.295810222625732,"635":3.6928305625915527,"636":8.367619514465332,"637":-1.6329801082611084,"638":9.13569450378418,"639":-7.7926788330078125,"640":15.470229148864746,"641":-21.820205688476562,"642":2.6849770545959473,"643":-0.6821001768112183,"644":-0.5370361804962158,"645":3.400374174118042,"646":-6.908929347991943,"647":-2.8093903064727783,"648":0.08141452819108963,"649":-3.3257241249084473,"650":-20.17872428894043,"651":-13.589619636535645,"652":-5.8022356033325195,"653":-15.205397605895996,"654":-12.901317596435547,"655":-16.474950790405273,"656":0.7705531716346741,"657":-5.483853340148926,"658":2.10321307182312,"659":-8.291400909423828,"660":5.950141906738281,"661":-6.776279926300049,"662":0.26696598529815674,"663":-10.33626651763916,"664":-7.839005470275879,"665":0.7040005922317505,"666":-6.839959144592285,"667":6.018087863922119,"668":-4.940765380859375,"669":9.865860939025879,"670":5.658290386199951,"671":-7.148067474365234,"672":2.2412450313568115,"673":-7.079563140869141,"674":7.963865280151367,"675":1.0373859405517578,"676":6.401715278625488,"677":-7.042540550231934,"678":1.1952590942382812,"679":0.013767674565315247,"680":0.24549022316932678,"681":-1.5837455987930298,"682":7.675382614135742,"683":-1.3879640102386475,"684":-2.7306573390960693,"685":2.490210771560669,"686":1.651137113571167,"687":-2.6947669982910156,"688":3.6492016315460205,"689":2.1002705097198486,"690":-5.6569414138793945,"691":-3.506396770477295,"692":5.9111151695251465,"693":1.5927351713180542,"694":4.011850357055664,"695":0.44193199276924133,"696":8.628978729248047,"697":16.770755767822266,"698":-7.591300964355469,"699":-14.238165855407715,"700":-3.963857650756836,"701":2.760199546813965,"702":-7.657282829284668,"703":13.613255500793457,"704":4.260785102844238,"705":8.02823257446289,"706":-20.64280128479004,"707":4.562225818634033,"708":-14.954328536987305,"709":-7.3272385597229,"710":7.480682373046875,"711":-11.602519035339355,"712":-17.077566146850586,"713":16.787723541259766,"714":-13.767867088317871,"715":-7.671430587768555,"716":-12.438882827758789,"717":7.622570037841797,"718":14.47938060760498,"719":3.12583327293396,"720":6.788462162017822,"721":13.220130920410156,"722":16.706687927246094,"723":20.19931983947754,"724":-12.213143348693848,"725":16.420162200927734,"726":3.928201198577881,"727":-5.609318256378174,"728":20.39339256286621,"729":0.10116259008646011,"730":-16.76828384399414,"731":12.812628746032715,"732":-5.414026737213135,"733":3.910217046737671,"734":2.242424964904785,"735":-6.998907566070557,"736":-6.846306800842285,"737":-3.5198581218719482,"738":8.000398635864258,"739":9.091933250427246,"740":-9.429076194763184,"741":-7.365218639373779,"742":-9.669902801513672,"743":9.216401100158691,"744":8.726408004760742,"745":-8.5166597366333,"746":-8.888559341430664,"747":-7.761133193969727,"748":-8.431382179260254,"749":-9.423208236694336,"750":8.77939510345459,"751":8.278674125671387,"752":7.885414123535156,"753":-8.226062774658203,"754":8.371357917785645,"755":-8.340561866760254,"756":9.28705883026123,"757":7.781055450439453,"758":-8.868871688842773,"759":8.585249900817871,"760":8.619772911071777,"761":-9.40959358215332,"762":8.554794311523438,"763":-8.358884811401367,"764":8.325353622436523,"765":-8.84356689453125,"766":8.9945068359375,"767":-9.53744125366211,"768":7.845963478088379,"769":8.179454803466797,"770":9.160385131835938,"771":-8.806249618530273,"772":10.046682357788086,"773":9.337027549743652,"774":-8.798648834228516,"775":8.083911895751953,"776":8.476646423339844,"777":8.91287899017334,"778":7.918924331665039,"779":19.099374771118164,"780":30.326810836791992,"781":-52.47565841674805,"782":34.27058792114258,"783":-23.29893684387207,"784":34.5987434387207,"785":36.068138122558594,"786":-37.75938034057617,"787":-57.97832107543945,"788":-35.76245880126953,"789":-45.573699951171875,"790":-24.922151565551758,"791":58.93622970581055,"792":41.53645324707031,"793":33.30767822265625,"794":30.448551177978516,"795":27.740188598632812,"796":-58.94871520996094,"797":42.80809783935547,"798":-21.692535400390625,"799":-36.797203063964844,"800":36.82642364501953,"801":39.65091323852539,"802":-20.18561363220215,"803":43.77328109741211,"804":-27.54151153564453,"805":-11.383628845214844,"806":-39.373722076416016,"807":37.29212188720703,"808":-37.90446853637695,"809":33.795326232910156,"810":49.97275161743164,"811":14.216204643249512,"812":-49.90230178833008,"813":14.770549774169922,"814":26.310436248779297,"815":-65.48857116699219,"816":-18.728439331054688,"817":35.71643829345703,"818":42.74401092529297,"819":-11.66628360748291,"820":8.921606063842773,"821":-3.579977512359619,"822":-4.057177543640137,"823":-6.785107612609863,"824":6.673459053039551,"825":4.544024467468262,"826":13.866069793701172,"827":-8.957880973815918,"828":1.586020827293396,"829":-0.7441761493682861,"830":-2.7819972038269043,"831":-3.6278138160705566,"832":3.268831968307495,"833":9.280561447143555,"834":2.4231362342834473,"835":-5.663888454437256,"836":7.284717082977295,"837":-10.679893493652344,"838":0.5134637355804443,"839":-3.353989601135254,"840":3.9055614471435547,"841":-3.1325716972351074,"842":-3.826690673828125,"843":-8.307244300842285,"844":0.8255378007888794,"845":-2.2290940284729004,"846":14.669808387756348,"847":1.5678666830062866,"848":6.210880756378174,"849":5.336698055267334,"850":0.8405157327651978,"851":4.135242938995361,"852":3.1668319702148438,"853":-4.092341899871826,"854":1.8126530647277832,"855":10.74830150604248,"856":8.118480682373047,"857":-0.5117675065994263,"858":5.4803466796875,"859":5.888777732849121,"860":2.658754587173462,"861":-1.2038909196853638,"862":0.6640166640281677,"863":9.09450912475586,"864":1.046008825302124,"865":10.313804626464844,"866":-2.756035327911377,"867":-0.4003310203552246,"868":-1.2908381223678589,"869":-8.713166236877441,"870":3.3194854259490967,"871":0.8231000304222107,"872":-5.383464813232422,"873":1.0100213289260864,"874":9.845070838928223,"875":12.013898849487305,"876":-2.4671759605407715,"877":6.806254863739014,"878":3.2047343254089355,"879":0.4263564944267273,"880":0.2591419816017151,"881":2.280532121658325,"882":-7.506448268890381,"883":8.287668228149414,"884":8.54883098602295,"885":-5.379734992980957,"886":-1.3505678176879883,"887":2.4447896480560303,"888":0.6306440234184265,"889":1.9523096084594727,"890":3.240694284439087,"891":11.139405250549316,"892":-4.499077320098877,"893":9.988714218139648,"894":-7.97977876663208,"895":-11.77054214477539,"896":2.651344060897827,"897":3.716493844985962,"898":8.020302772521973,"899":-1.8162680864334106,"900":-1.591835618019104,"901":11.459293365478516,"902":-0.48942363262176514,"903":-7.116374492645264,"904":5.334470748901367,"905":-7.384796619415283,"906":6.549646854400635,"907":-7.252374172210693,"908":0.6423052549362183,"909":0.23192185163497925,"910":-5.897934436798096,"911":-7.38926362991333,"912":6.609473705291748,"913":-0.05968404561281204,"914":-7.22024393081665,"915":7.4849700927734375,"916":3.1224076747894287,"917":-3.4424173831939697,"918":4.461621284484863,"919":-0.20330043137073517,"920":-7.261720180511475,"921":-0.04655182734131813,"922":6.936814308166504,"923":-4.651681900024414,"924":-7.074374675750732,"925":0.12186500430107117,"926":0.001364526804536581,"927":-0.2527773082256317,"928":2.910909652709961,"929":6.627946376800537,"930":-6.902859210968018,"931":0.3062683343887329,"932":3.051844358444214,"933":-0.7603422999382019,"934":1.341880202293396,"935":2.4626989364624023,"936":-0.03170356899499893,"937":0.14011964201927185,"938":7.3279900550842285,"939":7.055334568023682,"940":-6.782242298126221,"941":-0.3316648602485657,"942":3.1650550365448,"943":12.982037544250488,"944":-8.710084915161133,"945":17.196041107177734,"946":-1.6678659915924072,"947":0.26172059774398804,"948":-4.808566093444824,"949":2.022352695465088,"950":-15.811013221740723,"951":-11.354546546936035,"952":-4.540443420410156,"953":-6.263082981109619,"954":-2.6741724014282227,"955":-1.1248371601104736,"956":15.240989685058594,"957":4.695364952087402,"958":-11.429980278015137,"959":3.353983163833618,"960":-2.082840919494629,"961":13.80331039428711,"962":9.706934928894043,"963":-1.0289570093154907,"964":-4.385127067565918,"965":9.679129600524902,"966":12.722886085510254,"967":3.00573992729187,"968":4.341737270355225,"969":13.536338806152344,"970":-7.524962902069092,"971":-1.1985036134719849,"972":-3.0380747318267822,"973":-0.6593132615089417,"974":11.14444351196289,"975":11.359573364257812,"976":-22.488739013671875,"977":1.3064346313476562,"978":5.314913272857666,"979":1.9691354036331177,"980":12.720412254333496,"981":-5.714461803436279,"982":-6.177539825439453,"983":13.671627044677734,"984":18.263198852539062,"985":15.232223510742188,"986":-18.145038604736328,"987":15.89022445678711,"988":-16.19333267211914,"989":16.238590240478516,"990":17.398530960083008,"991":-12.852311134338379,"992":19.84548568725586,"993":15.328676223754883,"994":-18.388639450073242,"995":-15.166231155395508,"996":16.188674926757812,"997":-18.51444435119629,"998":-18.166261672973633,"999":12.885096549987793,"1000":-18.647581100463867,"1001":-17.09916877746582,"1002":18.92426109313965,"1003":-15.645456314086914,"1004":-17.780664443969727,"1005":17.1908016204834,"1006":13.02918815612793,"1007":-18.911081314086914,"1008":18.896642684936523,"1009":15.75506591796875,"1010":-14.212684631347656,"1011":-16.838407516479492,"1012":15.945798873901367,"1013":-16.403493881225586,"1014":-18.286291122436523,"1015":14.804943084716797,"1016":-19.946136474609375,"1017":-15.118059158325195,"1018":20.566816329956055,"1019":13.176389694213867,"1020":-16.5361385345459,"1021":-15.96886920928955,"1022":14.77751636505127,"1023":14.553810119628906,"1024":-14.043621063232422,"1025":-9.886102676391602,"1026":4.036107540130615,"1027":21.579206466674805,"1028":-17.10403823852539,"1029":-10.762341499328613,"1030":3.281548261642456,"1031":-12.671978950500488,"1032":-2.2927746772766113,"1033":-22.176843643188477,"1034":12.049917221069336,"1035":16.496246337890625,"1036":-6.334350109100342,"1037":-5.276263236999512,"1038":-6.851242542266846,"1039":18.279903411865234,"1040":5.661855220794678,"1041":-3.666632652282715,"1042":8.694703102111816,"1043":-16.68423080444336,"1044":-6.0887627601623535,"1045":22.207345962524414,"1046":-10.293500900268555,"1047":-17.559782028198242,"1048":15.753172874450684,"1049":-10.161957740783691,"1050":2.4643452167510986,"1051":-1.060349702835083,"1052":9.786364555358887,"1053":-20.89101791381836,"1054":10.279463768005371,"1055":1.3380868434906006,"1056":-10.275633811950684,"1057":15.879561424255371,"1058":17.916276931762695,"1059":-10.305469512939453,"1060":6.5581183433532715,"1061":-9.902399063110352,"1062":-5.580787181854248,"1063":-12.356104850769043,"1064":-14.200974464416504,"1065":-3.015477418899536,"1066":-23.749441146850586,"1067":4.758915901184082,"1068":-32.870365142822266,"1069":33.182762145996094,"1070":-31.74041748046875,"1071":-21.53126335144043,"1072":-20.480703353881836,"1073":26.903736114501953,"1074":0.013463389128446579,"1075":-3.992408275604248,"1076":24.322463989257812,"1077":-7.504459857940674,"1078":-25.955062866210938,"1079":6.1878662109375,"1080":-32.535804748535156,"1081":4.535711288452148,"1082":-28.755678176879883,"1083":22.05489730834961,"1084":-24.985050201416016,"1085":-8.978177070617676,"1086":-1.1235586404800415,"1087":32.82693099975586,"1088":-4.51221227645874,"1089":22.879507064819336,"1090":6.685859203338623,"1091":30.11261558532715,"1092":-23.97602081298828,"1093":7.422220230102539,"1094":-23.289676666259766,"1095":-7.859677314758301,"1096":-6.885416030883789,"1097":5.625152111053467,"1098":-8.910295486450195,"1099":-5.011880397796631,"1100":7.771286964416504,"1101":-22.01637077331543,"1102":-7.94391393661499,"1103":-5.485300540924072,"1104":-21.07112693786621,"1105":-16.059520721435547,"1106":-31.979764938354492,"1107":-1.9441951513290405,"1108":-4.49307918548584,"1109":-8.449590682983398,"1110":-1.1593824625015259,"1111":4.42868709564209,"1112":-5.197743892669678,"1113":5.040780067443848,"1114":6.3732829093933105,"1115":4.466788291931152,"1116":-1.1147966384887695,"1117":5.76000452041626,"1118":-3.5428466796875,"1119":-1.0156768560409546,"1120":2.904038906097412,"1121":-7.510937690734863,"1122":-0.6570830941200256,"1123":-1.208631157875061,"1124":1.673704743385315,"1125":-6.355534553527832,"1126":-3.969360828399658,"1127":4.792999267578125,"1128":2.1971170902252197,"1129":-1.96393620967865,"1130":3.922250270843506,"1131":2.1886825561523438,"1132":7.674025535583496,"1133":1.6027652025222778,"1134":1.2490322589874268,"1135":4.948329448699951,"1136":2.095764636993408,"1137":-1.8403594493865967,"1138":1.153427004814148,"1139":-6.419112205505371,"1140":-0.487906277179718,"1141":7.548067092895508,"1142":-5.239353179931641,"1143":2.1853575706481934,"1144":-1.6698570251464844,"1145":-3.2412431240081787,"1146":-3.9148614406585693,"1147":-3.361628293991089,"1148":5.73103141784668,"1149":-1.460710048675537,"1150":-3.743645191192627,"1151":10.43148136138916,"1152":-0.6731494069099426,"1153":0.7115373611450195,"1154":2.3969132900238037,"1155":6.51447868347168,"1156":3.2735986709594727,"1157":7.96697473526001,"1158":11.087519645690918,"1159":-5.502194404602051,"1160":2.890869379043579,"1161":0.46724602580070496,"1162":-3.6416642665863037,"1163":4.864457607269287,"1164":-6.416093349456787,"1165":-2.5754168033599854,"1166":0.9640581011772156,"1167":-6.589717388153076,"1168":1.6674023866653442,"1169":12.120726585388184,"1170":-3.0776116847991943,"1171":-7.25209379196167,"1172":9.455696105957031,"1173":7.008852481842041,"1174":-12.558450698852539,"1175":4.063519477844238,"1176":0.4360131621360779,"1177":-10.972077369689941,"1178":-7.00205659866333,"1179":-5.448604583740234,"1180":-3.910398006439209,"1181":2.3696107864379883,"1182":4.502939701080322,"1183":-0.4873272776603699,"1184":-4.704559326171875,"1185":-11.719388961791992,"1186":1.3955715894699097,"1187":0.8046572208404541,"1188":-0.8894273042678833,"1189":-23.57685661315918,"1190":5.382908821105957,"1191":23.4101619720459,"1192":-3.196051836013794,"1193":-0.2117689847946167,"1194":-7.675887584686279,"1195":-27.050846099853516,"1196":25.998920440673828,"1197":-26.78502655029297,"1198":-0.10876957327127457,"1199":-0.01949942484498024,"1200":32.54403305053711,"1201":-27.61093521118164,"1202":2.8854756355285645,"1203":1.4736191034317017,"1204":3.4872303009033203,"1205":4.2771992683410645,"1206":29.094379425048828,"1207":0.7476680874824524,"1208":33.972450256347656,"1209":-5.071916580200195,"1210":-21.514917373657227,"1211":4.258026599884033,"1212":26.93404769897461,"1213":-24.40402603149414,"1214":-2.218268871307373,"1215":-17.319747924804688,"1216":-5.909051895141602,"1217":-21.4842586517334,"1218":-0.9335689544677734,"1219":4.2315993309021,"1220":-25.837316513061523,"1221":24.102706909179688,"1222":26.08136749267578,"1223":-32.35577392578125,"1224":-29.158493041992188,"1225":-5.3228759765625,"1226":4.955403804779053,"1227":-29.04178810119629,"1228":-1.6396634578704834,"1229":29.337692260742188,"1230":2.571118116378784,"1231":-31.197696685791016,"1232":31.182689666748047,"1233":8.842207908630371,"1234":4.91817045211792,"1235":-31.209293365478516,"1236":3.4822914600372314,"1237":-3.493364095687866,"1238":-3.243969440460205,"1239":-2.9647715091705322,"1240":-4.051205635070801,"1241":-2.6243269443511963,"1242":5.027529716491699,"1243":3.7339940071105957,"1244":-31.158153533935547,"1245":-2.4963998794555664,"1246":-31.186058044433594,"1247":-2.531266450881958,"1248":3.6382641792297363,"1249":-11.051949501037598,"1250":31.19382095336914,"1251":4.317643642425537,"1252":-15.626907348632812,"1253":-7.224493503570557,"1254":3.5832669734954834,"1255":13.781862258911133,"1256":4.0097575187683105,"1257":13.178441047668457,"1258":4.815309524536133,"1259":-2.6236348152160645,"1260":-10.319034576416016,"1261":2.9754745960235596,"1262":-18.129926681518555,"1263":-2.5809805393218994,"1264":10.04357624053955,"1265":12.302153587341309,"1266":-4.354308128356934,"1267":2.722961187362671,"1268":-3.467763900756836,"1269":16.535051345825195,"1270":7.9064154624938965,"1271":4.540367603302002,"1272":-1.817588210105896,"1273":-3.15681791305542,"1274":-5.9433135986328125,"1275":-5.578306674957275,"1276":-3.1894381046295166,"1277":-5.310262203216553,"1278":5.706875801086426,"1279":5.299127101898193,"1280":-9.272051811218262,"1281":1.9375956058502197,"1282":-8.44236946105957,"1283":-5.860200881958008,"1284":5.261040210723877,"1285":-1.8892544507980347,"1286":-1.9184812307357788,"1287":-5.407260417938232,"1288":6.241579055786133,"1289":-2.030970811843872,"1290":-2.134087085723877,"1291":5.949887275695801,"1292":4.996288776397705,"1293":-5.203524112701416,"1294":-19.008033752441406,"1295":11.639503479003906,"1296":2.3567821979522705,"1297":-6.546557426452637,"1298":-5.498896598815918,"1299":5.428285598754883,"1300":5.340846538543701,"1301":-5.642162322998047,"1302":-19.023967742919922,"1303":-4.563026428222656,"1304":7.379951000213623,"1305":5.050691604614258,"1306":5.478930473327637,"1307":3.1649186611175537,"1308":7.213711261749268,"1309":-1.9044079780578613,"1310":-6.017579078674316,"1311":-17.732009887695312,"1312":55.30144500732422,"1313":-38.65171432495117,"1314":26.365772247314453,"1315":-68.4127197265625,"1316":64.06685638427734,"1317":-30.876300811767578,"1318":61.25747299194336,"1319":-57.322296142578125,"1320":-31.055509567260742,"1321":-31.248477935791016,"1322":-59.46388244628906,"1323":-36.621341705322266,"1324":55.65156936645508,"1325":47.73274612426758,"1326":69.25996398925781,"1327":-61.695186614990234,"1328":63.210330963134766,"1329":-53.09782791137695,"1330":61.2829475402832,"1331":63.655757904052734,"1332":-61.006526947021484,"1333":-71.09478759765625,"1334":67.32776641845703,"1335":48.30821990966797,"1336":47.487770080566406,"1337":31.585628509521484,"1338":58.75570297241211,"1339":-68.0905532836914,"1340":39.93024444580078,"1341":-31.079387664794922,"1342":-17.721391677856445,"1343":29.6329288482666,"1344":58.861751556396484,"1345":-47.036930084228516,"1346":35.960506439208984,"1347":57.57126998901367,"1348":61.99485778808594,"1349":40.0977783203125,"1350":-40.918495178222656,"1351":-34.85424041748047,"1352":-42.04165267944336,"1353":6.912947654724121,"1354":-3.8575258255004883,"1355":-15.648894309997559,"1356":-3.1676971912384033,"1357":19.24397087097168,"1358":-15.203655242919922,"1359":5.834731101989746,"1360":4.309809684753418,"1361":14.458240509033203,"1362":-4.241076469421387,"1363":-12.420699119567871,"1364":6.464936256408691,"1365":37.172550201416016,"1366":16.647315979003906,"1367":26.127918243408203,"1368":-20.083921432495117,"1369":1.484804391860962,"1370":12.042069435119629,"1371":9.191388130187988,"1372":9.787452697753906,"1373":-7.5731201171875,"1374":-6.657264232635498,"1375":-14.484058380126953,"1376":-15.40969467163086,"1377":-4.390547275543213,"1378":-44.107757568359375,"1379":40.811622619628906,"1380":-14.803459167480469,"1381":25.967243194580078,"1382":8.250238418579102,"1383":-9.282369613647461,"1384":-17.65499496459961,"1385":-4.971850872039795,"1386":21.814851760864258,"1387":-3.7578725814819336,"1388":-15.232769012451172,"1389":14.93956184387207,"1390":-15.8109130859375,"1391":-33.33027267456055,"1392":5.876533508300781,"1393":32.6367301940918,"1394":-70.9222183227539,"1395":-66.65721893310547,"1396":-32.763099670410156,"1397":39.43931579589844,"1398":-33.494205474853516,"1399":46.40053939819336,"1400":-57.778812408447266,"1401":48.34648513793945,"1402":12.52725601196289,"1403":57.418758392333984,"1404":58.544097900390625,"1405":-49.597442626953125,"1406":88.65642547607422,"1407":-32.86177062988281,"1408":-33.9326286315918,"1409":47.005130767822266,"1410":-52.17711639404297,"1411":75.77194213867188,"1412":-49.746456146240234,"1413":-38.86723709106445,"1414":70.71167755126953,"1415":-76.5595474243164,"1416":51.268611907958984,"1417":-58.881534576416016,"1418":-65.7185287475586,"1419":44.15020751953125,"1420":-58.369083404541016,"1421":55.54132843017578,"1422":-72.6578369140625,"1423":-55.09213638305664,"1424":-50.027496337890625,"1425":-78.15821075439453,"1426":-42.1715202331543,"1427":96.5513687133789,"1428":49.25589370727539,"1429":-67.30339813232422,"1430":77.86241912841797,"1431":-37.930328369140625,"1432":-46.92300796508789,"1433":-70.48810577392578,"1434":-39.617549896240234,"1435":-20.43943214416504,"1436":21.88288116455078,"1437":-54.483951568603516,"1438":65.41106414794922,"1439":-49.682674407958984,"1440":-0.2940477430820465,"1441":-15.529001235961914,"1442":64.17372131347656,"1443":20.78382110595703,"1444":-8.401731491088867,"1445":22.908363342285156,"1446":-39.17937469482422,"1447":-41.95370101928711,"1448":18.05323028564453,"1449":-66.92501831054688,"1450":-38.092811584472656,"1451":-40.09455490112305,"1452":23.39288330078125,"1453":-56.327880859375,"1454":-6.177115440368652,"1455":41.42130661010742,"1456":60.60742950439453,"1457":-8.721096992492676,"1458":57.97869110107422,"1459":-7.842775344848633,"1460":68.40677642822266,"1461":-36.56761169433594,"1462":-7.390885353088379,"1463":13.088942527770996,"1464":-70.84671020507812,"1465":-8.277322769165039,"1466":7.920026779174805,"1467":-62.104583740234375,"1468":42.802249908447266,"1469":8.099227905273438,"1470":-20.847972869873047,"1471":-5.557591438293457,"1472":-46.52737045288086,"1473":-63.396644592285156,"1474":-62.958702087402344,"1475":-55.66240692138672,"1476":10.781707763671875,"1477":-19.186616897583008,"1478":13.93698787689209,"1479":-13.861637115478516,"1480":-8.914773941040039,"1481":-16.193527221679688,"1482":28.70039176940918,"1483":6.652797698974609,"1484":24.863508224487305,"1485":-10.320053100585938,"1486":2.09057879447937,"1487":-8.22746753692627,"1488":-16.092796325683594,"1489":23.69175910949707,"1490":27.241254806518555,"1491":-31.453977584838867,"1492":-10.157858848571777,"1493":3.953122138977051,"1494":8.453185081481934,"1495":-25.056888580322266,"1496":31.952884674072266,"1497":2.7781896591186523,"1498":17.62372589111328,"1499":14.809865951538086,"1500":-12.13606071472168,"1501":-6.818528175354004,"1502":16.06451416015625,"1503":6.578639507293701,"1504":23.933055877685547,"1505":0.5695193409919739,"1506":7.122392654418945,"1507":6.392731189727783,"1508":7.109562873840332,"1509":13.669146537780762,"1510":-12.27001667022705,"1511":7.765539169311523,"1512":2.850231647491455,"1513":23.682058334350586,"1514":9.948885917663574,"1515":12.445486068725586,"1516":-22.24015235900879,"1517":8.064934730529785,"1518":-8.621094703674316,"1519":8.542926788330078,"1520":8.486388206481934,"1521":-8.576274871826172,"1522":7.625525951385498,"1523":-8.629406929016113,"1524":8.458084106445312,"1525":8.545148849487305,"1526":7.800721168518066,"1527":8.468419075012207,"1528":-8.52242374420166,"1529":-8.507120132446289,"1530":-7.457686901092529,"1531":8.403922080993652,"1532":-8.592153549194336,"1533":-8.609416007995605,"1534":8.592958450317383,"1535":-8.075234413146973,"1536":8.611099243164062,"1537":8.519489288330078,"1538":8.188982963562012,"1539":-8.286585807800293,"1540":-7.982666492462158,"1541":-8.595720291137695,"1542":8.454154968261719,"1543":-8.51587200164795,"1544":7.61041259765625,"1545":-8.607013702392578,"1546":-8.142120361328125,"1547":-8.494976997375488,"1548":-8.634140968322754,"1549":8.605069160461426,"1550":2.6685967445373535,"1551":-2.896455764770508,"1552":8.165812492370605,"1553":-6.293570041656494,"1554":8.543875694274902,"1555":-8.617962837219238,"1556":-8.61658763885498,"1557":-8.611327171325684,"1558":-0.3221134543418884,"1559":-14.44603443145752,"1560":-1.1428594589233398,"1561":0.27264806628227234,"1562":-0.21726365387439728,"1563":-0.08698394149541855,"1564":-0.45624756813049316,"1565":-0.2448274940252304,"1566":-0.15840595960617065,"1567":0.4482898712158203,"1568":0.3303408622741699,"1569":-0.1726164072751999,"1570":0.11367689818143845,"1571":0.6591771841049194,"1572":0.14336441457271576,"1573":0.21851396560668945,"1574":0.00764347892254591,"1575":0.3309425115585327,"1576":-0.04227786138653755,"1577":-0.2599770128726959,"1578":0.05603186786174774,"1579":0.2286481410264969,"1580":0.1081673800945282,"1581":-0.1247781291604042,"1582":-0.21070970594882965,"1583":-0.013613966293632984,"1584":-0.4201599061489105,"1585":0.06364620476961136,"1586":0.10446605831384659,"1587":-0.07417026162147522,"1588":0.08530636131763458,"1589":-0.42010408639907837,"1590":0.3504555821418762,"1591":-0.3353520929813385,"1592":0.17107458412647247,"1593":0.2469087541103363,"1594":5.691412448883057,"1595":-0.13858270645141602,"1596":-0.19329877197742462,"1597":-0.011371947824954987,"1598":-0.08747514337301254,"1599":4.683412551879883,"1600":-12.868924140930176,"1601":3.74296236038208,"1602":-5.324237823486328,"1603":11.929913520812988,"1604":-8.604048728942871,"1605":3.9612009525299072,"1606":-5.010631561279297,"1607":-7.26058292388916,"1608":-5.636044025421143,"1609":-7.135321617126465,"1610":1.449346661567688,"1611":6.1271843910217285,"1612":8.545563697814941,"1613":10.980634689331055,"1614":-3.688642740249634,"1615":-2.1413614749908447,"1616":-4.960389137268066,"1617":4.746967792510986,"1618":5.371129512786865,"1619":8.579381942749023,"1620":0.32793229818344116,"1621":-5.031982898712158,"1622":-3.4286341667175293,"1623":2.8546249866485596,"1624":-11.902778625488281,"1625":7.948165416717529,"1626":4.133539199829102,"1627":-1.2232213020324707,"1628":2.6063904762268066,"1629":-6.103343486785889,"1630":7.12620210647583,"1631":10.822175025939941,"1632":-2.0739972591400146,"1633":0.2885727286338806,"1634":1.2244904041290283,"1635":-5.432367324829102,"1636":8.948663711547852,"1637":-3.338783025741577,"1638":-4.486361980438232,"1639":10.621252059936523,"1640":7.624337196350098,"1641":1.3556513786315918,"1642":-0.8671309351921082,"1643":0.5276029706001282,"1644":5.844681262969971,"1645":2.6659109592437744,"1646":4.945648193359375,"1647":-7.146451473236084,"1648":-6.6379241943359375,"1649":-3.0853683948516846,"1650":-5.596519947052002,"1651":0.6727394461631775,"1652":6.578404903411865,"1653":2.368518114089966,"1654":-0.6487164497375488,"1655":5.9125471115112305,"1656":2.951073169708252,"1657":-5.302829742431641,"1658":4.173976898193359,"1659":-6.819944381713867,"1660":-1.5981189012527466,"1661":0.7067148089408875,"1662":0.7827020883560181,"1663":0.9650030136108398,"1664":6.973515033721924,"1665":3.2211945056915283,"1666":7.248502254486084,"1667":-0.3219481110572815,"1668":0.2732565999031067,"1669":0.25389090180397034,"1670":0.9060536623001099,"1671":7.1480584144592285,"1672":-4.88068962097168,"1673":-7.437632083892822,"1674":-2.366741418838501,"1675":7.305853366851807,"1676":-7.160506725311279,"1677":-1.0026532411575317,"1678":7.073461055755615,"1679":7.548892021179199,"1680":6.709557056427002,"1681":-0.001042678253725171,"1682":-0.007661745883524418,"1683":-0.012306571938097477,"1684":0.015045490115880966,"1685":0.0043848492205142975,"1686":0.0017723022028803825,"1687":0.009361514821648598,"1688":-0.02700194902718067,"1689":0.031199172139167786,"1690":-0.018034279346466064,"1691":0.01831485517323017,"1692":-0.022335564717650414,"1693":-0.0006539860041812062,"1694":-0.008891081437468529,"1695":-0.027899060398340225,"1696":-0.006181342527270317,"1697":-0.017306597903370857,"1698":-0.029895715415477753,"1699":0.005425058770924807,"1700":0.001845846651121974,"1701":0.02029355801641941,"1702":-0.010816875845193863,"1703":-0.007896184921264648,"1704":0.015016978606581688,"1705":-0.016791831701993942,"1706":0.021547339856624603,"1707":-0.00541304238140583,"1708":-0.007010800298303366,"1709":0.018126439303159714,"1710":0.030629657208919525,"1711":0.00021455364185385406,"1712":0.014250856824219227,"1713":0.005557803437113762,"1714":-0.030213356018066406,"1715":0.010878600180149078,"1716":0.014850655570626259,"1717":-0.003733299672603607,"1718":-0.01664864830672741,"1719":-0.018299618735909462,"1720":-0.012557671405375004,"1721":-0.029470741748809814}},"hiddenLayers":[{"inputMatrix":{"rows":20,"columns":41,"weights":{"0":-1.655556321144104,"1":-2.6215603351593018,"2":-3.5329129695892334,"3":-2.923975944519043,"4":-9.383252143859863,"5":-5.677309036254883,"6":4.970547199249268,"7":-2.7092678546905518,"8":-0.13230933248996735,"9":-2.1641488075256348,"10":4.386385440826416,"11":-2.3658180236816406,"12":-2.447469472885132,"13":4.756833553314209,"14":1.4349770545959473,"15":-3.127567768096924,"16":-9.898014068603516,"17":3.8926682472229004,"18":-3.926032066345215,"19":-9.976947784423828,"20":10.032352447509766,"21":-3.1432478427886963,"22":-2.4346930980682373,"23":-1.3730831146240234,"24":1.9943982362747192,"25":0.16006064414978027,"26":-8.959331512451172,"27":2.4273855686187744,"28":-2.3441715240478516,"29":-2.4321391582489014,"30":-2.2383265495300293,"31":1.713887095451355,"32":-5.010191440582275,"33":2.4823594093322754,"34":2.5500259399414062,"35":6.606069087982178,"36":-1.6299065351486206,"37":-2.9428844451904297,"38":3.5168066024780273,"39":3.2584099769592285,"40":-4.241352558135986,"41":-3.6375606060028076,"42":-3.7650365829467773,"43":3.7077980041503906,"44":-3.7203636169433594,"45":3.745697021484375,"46":-3.767867088317871,"47":-3.7417092323303223,"48":3.305285930633545,"49":-2.4983150959014893,"50":-2.392169952392578,"51":2.1067094802856445,"52":3.7292280197143555,"53":-3.6139914989471436,"54":3.1786487102508545,"55":3.6349949836730957,"56":-3.566502571105957,"57":0.0019119626376777887,"58":3.626817464828491,"59":-3.5134694576263428,"60":3.744190216064453,"61":3.7419662475585938,"62":-3.5834004878997803,"63":-2.4407567977905273,"64":3.7042999267578125,"65":-3.716644287109375,"66":-3.4679009914398193,"67":3.446484088897705,"68":1.4687583446502686,"69":-3.68788743019104,"70":3.6564455032348633,"71":3.618745803833008,"72":-3.195136070251465,"73":3.7044172286987305,"74":3.078643560409546,"75":-3.7336783409118652,"76":-3.72491455078125,"77":3.63376522064209,"78":3.668647050857544,"79":-3.6403276920318604,"80":-3.7568511962890625,"81":3.701744556427002,"82":3.0012192726135254,"83":6.2980122566223145,"84":0.8224215507507324,"85":5.013169288635254,"86":-9.802870750427246,"87":6.674413681030273,"88":2.9363903999328613,"89":4.281455039978027,"90":3.914234161376953,"91":-1.1677895784378052,"92":2.278367042541504,"93":-7.411905765533447,"94":7.384975433349609,"95":-0.5260823965072632,"96":-7.913613796234131,"97":2.131786823272705,"98":5.574193477630615,"99":0.28050732612609863,"100":-6.10529899597168,"101":-0.7382214069366455,"102":-5.6840500831604,"103":9.709817886352539,"104":2.5998308658599854,"105":2.6923177242279053,"106":2.9807331562042236,"107":1.0824027061462402,"108":-4.8941755294799805,"109":1.0984197854995728,"110":7.910220146179199,"111":1.634184718132019,"112":2.884366750717163,"113":3.3277804851531982,"114":-2.778726100921631,"115":3.703253746032715,"116":6.816221714019775,"117":7.780871391296387,"118":-4.269317150115967,"119":-2.857347011566162,"120":4.6849493980407715,"121":-2.891904592514038,"122":-7.535968780517578,"123":-2.4188408851623535,"124":10.77315616607666,"125":8.199143409729004,"126":4.998459815979004,"127":-8.424846649169922,"128":-3.555351734161377,"129":0.2963848114013672,"130":-1.9997485876083374,"131":-8.127913475036621,"132":0.1608131229877472,"133":-4.424217700958252,"134":-8.651054382324219,"135":-12.42442512512207,"136":-11.248687744140625,"137":9.865324974060059,"138":11.909693717956543,"139":-11.744156837463379,"140":1.5109096765518188,"141":1.3062660694122314,"142":-8.816137313842773,"143":9.31314468383789,"144":0.6938830018043518,"145":-12.3184175491333,"146":-2.715073347091675,"147":-0.15223582088947296,"148":-1.569522500038147,"149":-4.7126641273498535,"150":9.350757598876953,"151":-9.109881401062012,"152":-1.2034249305725098,"153":3.9613661766052246,"154":-0.6274625658988953,"155":-4.636833190917969,"156":11.126194953918457,"157":3.929185390472412,"158":7.0717597007751465,"159":-7.623956680297852,"160":-9.464912414550781,"161":5.126082897186279,"162":4.949080467224121,"163":5.32882833480835,"164":-0.5226338505744934,"165":-7.46148681640625,"166":-0.7781252264976501,"167":-7.272507667541504,"168":7.471122741699219,"169":-7.440228462219238,"170":1.6850690841674805,"171":6.569172382354736,"172":7.356122016906738,"173":-2.202578067779541,"174":0.3839191496372223,"175":-0.1006268858909607,"176":1.4612998962402344,"177":6.195998191833496,"178":-0.10203869640827179,"179":-7.448246955871582,"180":3.7492337226867676,"181":3.425236225128174,"182":-0.5285252332687378,"183":7.44539737701416,"184":7.158095359802246,"185":0.30906060338020325,"186":2.072892189025879,"187":2.2040395736694336,"188":3.280815601348877,"189":0.0869908556342125,"190":7.394221305847168,"191":-7.0494537353515625,"192":0.5991365909576416,"193":6.258196830749512,"194":5.551303863525391,"195":0.4801422953605652,"196":-1.5353283882141113,"197":-1.9915711879730225,"198":1.0865005254745483,"199":-7.439438819885254,"200":6.272541046142578,"201":-0.34101030230522156,"202":-6.363855838775635,"203":-7.353684902191162,"204":-0.12175154685974121,"205":-0.082786925137043,"206":-6.061413288116455,"207":6.905774116516113,"208":-7.162067890167236,"209":6.793642044067383,"210":-6.3217291831970215,"211":-0.1027885153889656,"212":0.14376644790172577,"213":-7.3409647941589355,"214":-6.345016002655029,"215":5.978616714477539,"216":0.6679903268814087,"217":-7.363582134246826,"218":7.369468688964844,"219":-0.8977406620979309,"220":-3.674222469329834,"221":6.217809200286865,"222":0.09236658364534378,"223":-7.334597587585449,"224":0.3531314432621002,"225":6.308717727661133,"226":-6.009291172027588,"227":-6.9104204177856445,"228":0.13573230803012848,"229":-0.2538423538208008,"230":0.13957633078098297,"231":1.163287878036499,"232":7.334928035736084,"233":-7.382915496826172,"234":0.23866060376167297,"235":1.1028743982315063,"236":2.19404673576355,"237":0.03931485116481781,"238":0.35151752829551697,"239":-0.39760202169418335,"240":-0.7739036679267883,"241":7.312740802764893,"242":7.322545528411865,"243":-7.343160629272461,"244":-0.6227524876594543,"245":2.4306163787841797,"246":-4.375164031982422,"247":-1.9106414318084717,"248":-4.13427734375,"249":-5.529266357421875,"250":2.5144031047821045,"251":-5.225842475891113,"252":5.919929504394531,"253":0.9668607711791992,"254":6.502418518066406,"255":-0.8204342126846313,"256":-0.6450668573379517,"257":4.295511722564697,"258":4.748016834259033,"259":3.8661041259765625,"260":3.5311856269836426,"261":-5.293311595916748,"262":2.7245287895202637,"263":-1.3692833185195923,"264":-3.135873794555664,"265":0.50997394323349,"266":4.165925025939941,"267":-6.075815200805664,"268":0.10126786679029465,"269":5.769674301147461,"270":-4.4173784255981445,"271":-6.356088638305664,"272":1.2772655487060547,"273":-4.865156650543213,"274":5.607666492462158,"275":4.962028503417969,"276":6.1222147941589355,"277":0.6991385817527771,"278":-2.5797533988952637,"279":5.48436164855957,"280":-5.602686882019043,"281":-2.8505988121032715,"282":5.191476345062256,"283":2.5261728763580322,"284":3.317582130432129,"285":-0.32509076595306396,"286":2.066166877746582,"287":6.364837169647217,"288":-8.130960464477539,"289":6.5328755378723145,"290":0.7915195822715759,"291":5.465619087219238,"292":2.9044039249420166,"293":-5.106500625610352,"294":-8.791409492492676,"295":-14.446853637695312,"296":-7.229253768920898,"297":-8.838613510131836,"298":-3.2870829105377197,"299":2.1765551567077637,"300":6.584679126739502,"301":0.857454240322113,"302":-13.355619430541992,"303":-1.0482215881347656,"304":-2.0302464962005615,"305":5.61663818359375,"306":10.23230266571045,"307":0.5760433673858643,"308":4.962780475616455,"309":9.896143913269043,"310":7.227437973022461,"311":16.59446144104004,"312":-3.841885566711426,"313":7.3445611000061035,"314":-10.240886688232422,"315":-4.035638809204102,"316":-3.5332164764404297,"317":3.2683000564575195,"318":6.703161716461182,"319":9.341201782226562,"320":-3.296114683151245,"321":0.8735569715499878,"322":-2.2447032928466797,"323":-1.5247918367385864,"324":8.504262924194336,"325":0.8508855104446411,"326":5.045564651489258,"327":8.169843673706055,"328":5.492962837219238,"329":-2.166628837585449,"330":3.9505562782287598,"331":-3.701446294784546,"332":0.7970015406608582,"333":-2.2405149936676025,"334":1.1993212699890137,"335":-4.270536422729492,"336":0.010171267203986645,"337":-1.777152180671692,"338":7.032725811004639,"339":-5.204751968383789,"340":-6.4865498542785645,"341":1.8166775703430176,"342":2.473755121231079,"343":-5.78278923034668,"344":0.1944245547056198,"345":-5.474430561065674,"346":-4.615975379943848,"347":-4.488341331481934,"348":2.15087890625,"349":-2.826624631881714,"350":-5.275084972381592,"351":-6.903319835662842,"352":2.828479766845703,"353":1.654177188873291,"354":-8.821771621704102,"355":4.583749294281006,"356":-4.15708589553833,"357":-5.068338394165039,"358":-9.6167573928833,"359":-0.09523216634988785,"360":-1.9181517362594604,"361":-5.459104061126709,"362":6.069197177886963,"363":6.175747394561768,"364":2.383532762527466,"365":1.9715615510940552,"366":-4.511234283447266,"367":3.6279845237731934,"368":-7.879520416259766,"369":5.3062639236450195,"370":2.617478132247925,"371":-2.466956615447998,"372":4.846832275390625,"373":-1.7259492874145508,"374":4.808653831481934,"375":1.4672974348068237,"376":-1.7572903633117676,"377":-5.334603309631348,"378":-7.034570217132568,"379":-7.153195858001709,"380":-4.187281608581543,"381":2.5000574588775635,"382":-4.999987602233887,"383":-4.161271095275879,"384":5.955545902252197,"385":5.714807510375977,"386":-4.8867597579956055,"387":4.1271562576293945,"388":-0.4833654761314392,"389":-4.867082595825195,"390":6.835964202880859,"391":1.580849051475525,"392":-6.005825519561768,"393":4.357379913330078,"394":6.802214622497559,"395":1.5181529521942139,"396":-0.8527886867523193,"397":1.7674728631973267,"398":-4.838259696960449,"399":-5.005825996398926,"400":5.773506164550781,"401":-3.483436346054077,"402":-6.875029563903809,"403":5.679719924926758,"404":2.873429775238037,"405":-5.882735729217529,"406":-2.420536994934082,"407":3.0436995029449463,"408":1.979190707206726,"409":-0.367678701877594,"410":22.57271385192871,"411":14.182660102844238,"412":5.133060932159424,"413":-2.2956600189208984,"414":0.3038434386253357,"415":7.408898830413818,"416":16.507749557495117,"417":-4.069033145904541,"418":15.706157684326172,"419":-13.201088905334473,"420":-21.796985626220703,"421":2.4600913524627686,"422":20.92506217956543,"423":10.656440734863281,"424":8.628862380981445,"425":-22.589628219604492,"426":18.189205169677734,"427":-15.408315658569336,"428":-1.9470711946487427,"429":7.61667537689209,"430":-13.104904174804688,"431":4.692357063293457,"432":9.417643547058105,"433":4.724266052246094,"434":7.849530220031738,"435":2.42472243309021,"436":3.2671308517456055,"437":7.755039691925049,"438":14.48147964477539,"439":1.485419511795044,"440":0.4651746451854706,"441":7.2798309326171875,"442":-4.52285099029541,"443":14.816449165344238,"444":-1.1826049089431763,"445":6.482723712921143,"446":21.780529022216797,"447":-6.401902198791504,"448":-1.1084359884262085,"449":10.842427253723145,"450":8.426713943481445,"451":7.094258785247803,"452":0.8403269052505493,"453":13.640116691589355,"454":-13.3666353225708,"455":13.35580825805664,"456":7.024771690368652,"457":6.302029132843018,"458":-9.41046142578125,"459":3.164233446121216,"460":5.431312561035156,"461":-7.814857006072998,"462":8.699593544006348,"463":9.036224365234375,"464":-2.1883656978607178,"465":13.221487045288086,"466":-7.059107780456543,"467":9.327524185180664,"468":-6.267042636871338,"469":7.535956859588623,"470":11.557589530944824,"471":-3.6256766319274902,"472":-13.58871078491211,"473":6.814879894256592,"474":-8.461143493652344,"475":-7.173142433166504,"476":-11.854315757751465,"477":7.381409168243408,"478":-9.373820304870605,"479":6.882658958435059,"480":9.28507137298584,"481":7.804928779602051,"482":-4.559831619262695,"483":10.577645301818848,"484":4.986883163452148,"485":-9.101197242736816,"486":6.153690814971924,"487":9.727877616882324,"488":-0.245825856924057,"489":7.123215198516846,"490":5.273909091949463,"491":13.201457023620605,"492":-0.14036963880062103,"493":7.517669677734375,"494":0.2902282178401947,"495":-0.0606217235326767,"496":0.003479663049802184,"497":7.5334625244140625,"498":5.855916976928711,"499":-2.07265043258667,"500":7.246222019195557,"501":7.30903434753418,"502":-0.388249009847641,"503":0.0033009566832333803,"504":6.9394402503967285,"505":-7.306136608123779,"506":0.9811999797821045,"507":6.667055130004883,"508":0.10904691368341446,"509":-7.226657390594482,"510":4.165292263031006,"511":0.06529554724693298,"512":-7.550138473510742,"513":-0.3169254958629608,"514":1.9090182781219482,"515":-7.39423942565918,"516":-0.0923827588558197,"517":-0.10484404861927032,"518":-7.520391464233398,"519":-1.2320665121078491,"520":5.193521976470947,"521":0.10109980404376984,"522":0.057268138974905014,"523":-5.612919330596924,"524":0.23212555050849915,"525":-5.7005181312561035,"526":-0.021253669634461403,"527":7.538015365600586,"528":-7.418996810913086,"529":-7.416379928588867,"530":7.026525020599365,"531":7.425468444824219,"532":0.05922228842973709,"533":6.226480007171631,"534":-5.841995716094971,"535":-4.965789794921875,"536":-5.4168701171875,"537":-5.492190361022949,"538":-2.1893508434295654,"539":-6.314176559448242,"540":-2.1657776832580566,"541":3.0366318225860596,"542":-0.4871397018432617,"543":10.667242050170898,"544":-5.005411624908447,"545":-6.813713073730469,"546":0.1859666109085083,"547":-10.230132102966309,"548":-8.248169898986816,"549":-7.949468612670898,"550":5.39949369430542,"551":-10.55971622467041,"552":-11.749039649963379,"553":3.0424115657806396,"554":3.408553123474121,"555":-3.9294395446777344,"556":1.3446199893951416,"557":-0.24229606986045837,"558":16.856090545654297,"559":-11.214859962463379,"560":-1.911017894744873,"561":2.382150411605835,"562":4.865354061126709,"563":1.3270961046218872,"564":-2.8286683559417725,"565":-4.879247188568115,"566":3.8883252143859863,"567":1.3489099740982056,"568":5.1826653480529785,"569":3.9189462661743164,"570":0.7641507387161255,"571":-12.537186622619629,"572":-3.694610357284546,"573":-6.708522319793701,"574":10.375679016113281,"575":10.308218002319336,"576":1.6533074378967285,"577":11.74581241607666,"578":-5.044815540313721,"579":10.615467071533203,"580":1.3912304639816284,"581":-4.951733112335205,"582":5.44885778427124,"583":12.35677433013916,"584":4.577928066253662,"585":-6.4883503913879395,"586":7.408864974975586,"587":-14.487205505371094,"588":-0.13565321266651154,"589":12.795642852783203,"590":-12.522397994995117,"591":-2.9438247680664062,"592":11.486678123474121,"593":-0.9885164499282837,"594":-6.465742111206055,"595":1.2740522623062134,"596":2.6944632530212402,"597":-12.27347183227539,"598":3.7330427169799805,"599":2.094980239868164,"600":-6.843488693237305,"601":12.720648765563965,"602":-1.3905826807022095,"603":-14.280911445617676,"604":-12.482181549072266,"605":-12.500039100646973,"606":-7.099617004394531,"607":-1.627878189086914,"608":6.097242832183838,"609":-1.1450936794281006,"610":-12.180777549743652,"611":-7.982251167297363,"612":11.054944038391113,"613":5.2955498695373535,"614":-6.654498100280762,"615":-4.153007984161377,"616":4.347599029541016,"617":-8.770784378051758,"618":11.708333015441895,"619":-7.9244232177734375,"620":-0.384035587310791,"621":-3.4702908992767334,"622":11.256606101989746,"623":4.202512741088867,"624":-3.361445903778076,"625":4.474935054779053,"626":-6.444521903991699,"627":-6.7915496826171875,"628":3.8259406089782715,"629":-12.303814888000488,"630":-6.299426555633545,"631":-6.568212032318115,"632":4.534363746643066,"633":-9.154610633850098,"634":-2.126434803009033,"635":6.735365390777588,"636":10.869736671447754,"637":-3.0501649379730225,"638":9.499378204345703,"639":-2.183424234390259,"640":12.961675643920898,"641":-6.118260860443115,"642":-2.095412492752075,"643":3.1028661727905273,"644":-14.417510986328125,"645":-3.2443904876708984,"646":3.076594829559326,"647":-10.598377227783203,"648":6.900104522705078,"649":3.14789080619812,"650":-4.208673477172852,"651":-1.820953607559204,"652":-7.431769847869873,"653":-10.987178802490234,"654":-10.85291862487793,"655":-9.000000953674316,"656":8.490028381347656,"657":-7.042243480682373,"658":4.056255340576172,"659":-4.480258464813232,"660":6.396286964416504,"661":-7.253317356109619,"662":0.3084694743156433,"663":-11.352535247802734,"664":-9.327192306518555,"665":-14.146418571472168,"666":-9.314455032348633,"667":1.4643672704696655,"668":7.179717063903809,"669":7.857766628265381,"670":7.150733470916748,"671":-5.954432487487793,"672":3.531782388687134,"673":-6.3343658447265625,"674":4.10628604888916,"675":6.090392112731934,"676":6.586843967437744,"677":3.1326582431793213,"678":-5.299839496612549,"679":-0.5504826903343201,"680":-0.27526044845581055,"681":-7.554409980773926,"682":9.914262771606445,"683":4.448859691619873,"684":4.973416328430176,"685":-0.208481103181839,"686":-7.978269100189209,"687":10.28754711151123,"688":5.677762031555176,"689":-5.548034191131592,"690":-3.679293394088745,"691":-3.458489179611206,"692":-13.620940208435059,"693":11.068194389343262,"694":-4.466407775878906,"695":-0.9988577365875244,"696":7.358691692352295,"697":14.315873146057129,"698":7.135257244110107,"699":-1.7788279056549072,"700":6.82475471496582,"701":-4.992951393127441,"702":7.039381980895996,"703":7.609519958496094,"704":-0.4762731194496155,"705":-6.1505045890808105,"706":6.63507604598999,"707":12.972248077392578,"708":-0.6863289475440979,"709":5.802112579345703,"710":-6.805178165435791,"711":6.4391326904296875,"712":-0.30842670798301697,"713":-7.485166549682617,"714":-10.822342872619629,"715":6.765928268432617,"716":-0.5965748429298401,"717":6.426477909088135,"718":-7.034597873687744,"719":-9.054192543029785,"720":-14.355086326599121,"721":11.705413818359375,"722":0.1482774317264557,"723":-14.13979434967041,"724":7.3402533531188965,"725":2.2128779888153076,"726":-14.313196182250977,"727":-13.698088645935059,"728":-6.554287910461426,"729":-13.7965087890625,"730":-6.507165908813477,"731":0.7187796831130981,"732":0.8108310103416443,"733":-6.777003288269043,"734":-6.547029972076416,"735":5.774275302886963,"736":0.9391436576843262,"737":-0.07984871417284012,"738":-0.3474414646625519,"739":7.508382797241211,"740":-7.005270481109619,"741":-0.3760046064853668,"742":0.484249472618103,"743":7.4686479568481445,"744":7.420537948608398,"745":-7.265174865722656,"746":-2.608278274536133,"747":1.339699625968933,"748":-7.193019866943359,"749":0.1904127299785614,"750":7.084272384643555,"751":1.9280104637145996,"752":4.694372653961182,"753":0.8060342073440552,"754":5.975494861602783,"755":-7.257206916809082,"756":7.222346782684326,"757":0.6333785653114319,"758":-7.54047966003418,"759":-0.8189308643341064,"760":5.89177131652832,"761":0.844362199306488,"762":-0.13175588846206665,"763":-2.66520094871521,"764":5.439489364624023,"765":-7.2453694343566895,"766":7.260525703430176,"767":0.4465268552303314,"768":4.684449672698975,"769":6.801117897033691,"770":0.8684635758399963,"771":-7.185328960418701,"772":-0.13513635098934174,"773":7.453435897827148,"774":1.1422045230865479,"775":-2.6374216079711914,"776":6.6408772468566895,"777":7.472837448120117,"778":-3.1747779846191406,"779":-2.8761284351348877,"780":9.676655769348145,"781":0.347668319940567,"782":9.63577651977539,"783":-8.348246574401855,"784":7.584683418273926,"785":-2.969529151916504,"786":-5.7138671875,"787":-1.8940682411193848,"788":3.1773629188537598,"789":5.165939807891846,"790":3.0552210807800293,"791":-1.314879298210144,"792":-2.9982564449310303,"793":-6.415587425231934,"794":1.5531584024429321,"795":5.026113510131836,"796":-7.247585773468018,"797":-5.376315116882324,"798":2.9675538539886475,"799":2.666720390319824,"800":9.172792434692383,"801":2.3899717330932617,"802":5.061975955963135,"803":9.43935489654541,"804":6.169467926025391,"805":-2.750088691711426,"806":6.6782026290893555,"807":1.0815415382385254,"808":-8.870462417602539,"809":4.122115135192871,"810":7.903501987457275,"811":3.240400791168213,"812":-6.549693584442139,"813":9.372024536132812,"814":-3.096499443054199,"815":-6.032744407653809,"816":2.106679916381836,"817":3.9189469814300537,"818":-1.5317695140838623,"819":-7.211632251739502}},"inputHidden":{"rows":20,"columns":20,"weights":{"0":2.904655694961548,"1":-3.6539390087127686,"2":-4.188083171844482,"3":3.670332193374634,"4":-0.8255943655967712,"5":-3.6346020698547363,"6":-6.109436988830566,"7":0.08468297868967056,"8":-3.4127371311187744,"9":0.7149861454963684,"10":-2.4612977504730225,"11":3.7109756469726562,"12":-3.9765865802764893,"13":1.7937899827957153,"14":4.200246334075928,"15":-5.499840259552002,"16":2.876983880996704,"17":3.222109794616699,"18":7.193985462188721,"19":-0.8497974872589111,"20":3.6350772380828857,"21":-3.7536826133728027,"22":-3.746189594268799,"23":3.7547216415405273,"24":-1.657715916633606,"25":-3.7684950828552246,"26":-3.7025952339172363,"27":3.7535934448242188,"28":-3.790919303894043,"29":3.774021625518799,"30":3.6930465698242188,"31":3.734889030456543,"32":-3.782550811767578,"33":-0.014866745099425316,"34":3.774012565612793,"35":-3.699629306793213,"36":3.745494842529297,"37":3.772022247314453,"38":3.72257661819458,"39":3.720463275909424,"40":-5.465493679046631,"41":0.3124248683452606,"42":-1.1516088247299194,"43":0.4540751874446869,"44":3.5399703979492188,"45":-0.005521930288523436,"46":-1.2473127841949463,"47":1.3548249006271362,"48":-0.465640127658844,"49":-6.500256538391113,"50":1.382378339767456,"51":-5.718260765075684,"52":-0.21335101127624512,"53":6.924649238586426,"54":-2.3143649101257324,"55":5.802824974060059,"56":-2.232137441635132,"57":0.6654035449028015,"58":0.9822627305984497,"59":2.091864585876465,"60":2.4718077182769775,"61":3.064979076385498,"62":12.30805492401123,"63":-2.5749475955963135,"64":-1.0088742971420288,"65":3.058647632598877,"66":1.934856653213501,"67":-5.67852783203125,"68":6.3940629959106445,"69":6.887678623199463,"70":-1.5928504467010498,"71":-2.2530672550201416,"72":13.072417259216309,"73":-3.037187099456787,"74":-2.533081293106079,"75":-8.693291664123535,"76":-2.6142354011535645,"77":-12.676803588867188,"78":-11.668060302734375,"79":-11.642311096191406,"80":-0.5059500932693481,"81":3.4372737407684326,"82":3.3386378288269043,"83":-3.4265825748443604,"84":-2.039313793182373,"85":3.3629395961761475,"86":3.160914659500122,"87":-2.6095356941223145,"88":3.3629050254821777,"89":-3.4544782638549805,"90":-0.3542019724845886,"91":-3.4272074699401855,"92":3.3860621452331543,"93":-2.2794127464294434,"94":-3.0193233489990234,"95":0.9764481782913208,"96":-1.4921725988388062,"97":-3.321223735809326,"98":-2.881063461303711,"99":-3.254807472229004,"100":3.7187042236328125,"101":-3.7479681968688965,"102":-3.6372087001800537,"103":3.7551374435424805,"104":5.065030097961426,"105":-3.7613730430603027,"106":-1.3414146900177002,"107":6.277991771697998,"108":-3.370593309402466,"109":4.822403430938721,"110":7.647329330444336,"111":3.760944366455078,"112":-4.054967403411865,"113":-0.36131682991981506,"114":4.146795272827148,"115":-0.920415461063385,"116":4.078720569610596,"117":3.3287599086761475,"118":2.3998024463653564,"119":3.815021514892578,"120":5.70317268371582,"121":-3.558835029602051,"122":0.30343443155288696,"123":3.521787166595459,"124":-4.160650253295898,"125":-3.51119065284729,"126":-5.3801798820495605,"127":2.6094882488250732,"128":-0.24858248233795166,"129":-3.334031105041504,"130":2.843904495239258,"131":3.5570969581604004,"132":-6.474155426025391,"133":-1.9808043241500854,"134":6.6087846755981445,"135":-9.989707946777344,"136":6.447875499725342,"137":-0.06493426114320755,"138":10.396700859069824,"139":-3.918048858642578,"140":-2.2160942554473877,"141":2.271273136138916,"142":9.66384220123291,"143":-9.924843788146973,"144":-1.8234741687774658,"145":-2.259772777557373,"146":2.6294643878936768,"147":-9.89501953125,"148":2.656404495239258,"149":2.4407966136932373,"150":-1.7052574157714844,"151":-9.427881240844727,"152":9.865726470947266,"153":-9.793758392333984,"154":-0.4093325734138489,"155":-0.5958223938941956,"156":-4.44160270690918,"157":-9.933913230895996,"158":-9.968093872070312,"159":-9.981735229492188,"160":2.1573774814605713,"161":7.307926654815674,"162":-0.2628491520881653,"163":-3.354360818862915,"164":-0.7935051918029785,"165":7.223818778991699,"166":6.383350372314453,"167":-6.686959266662598,"168":3.298579692840576,"169":-6.874863147735596,"170":1.4119071960449219,"171":0.493378609418869,"172":6.703683376312256,"173":-4.4622979164123535,"174":0.38133227825164795,"175":-0.16076244413852692,"176":-6.569873809814453,"177":-6.718923091888428,"178":-6.568109512329102,"179":-6.61958122253418,"180":-3.7004952430725098,"181":3.757457971572876,"182":3.7808921337127686,"183":-3.743586540222168,"184":4.5279669761657715,"185":3.739574432373047,"186":7.4683837890625,"187":-0.00029366923263296485,"188":3.7837142944335938,"189":-0.047603800892829895,"190":0.05779484286904335,"191":-3.769500732421875,"192":3.7882895469665527,"193":0.4717669188976288,"194":-3.7570509910583496,"195":7.512390613555908,"196":-3.7532503604888916,"197":-3.765209436416626,"198":-7.477210521697998,"199":-0.13313184678554535,"200":7.098400115966797,"201":4.002727508544922,"202":-2.7310235500335693,"203":3.6514954566955566,"204":-13.513583183288574,"205":3.9484872817993164,"206":6.052753448486328,"207":6.875486850738525,"208":0.22365841269493103,"209":3.371088743209839,"210":1.6618907451629639,"211":-3.816509962081909,"212":3.7033863067626953,"213":7.861371040344238,"214":3.541504144668579,"215":-9.702143669128418,"216":1.721191644668579,"217":-3.736003875732422,"218":-4.040739059448242,"219":-4.230660915374756,"220":1.135630488395691,"221":-5.874975681304932,"222":-3.5520973205566406,"223":3.658355712890625,"224":3.2364606857299805,"225":-5.827190399169922,"226":-2.5518970489501953,"227":5.706704139709473,"228":-3.6592135429382324,"229":4.943382740020752,"230":5.557769775390625,"231":5.768254280090332,"232":-3.7184243202209473,"233":0.009048688225448132,"234":3.599195718765259,"235":0.6525673270225525,"236":1.0424412488937378,"237":3.5767502784729004,"238":2.269169807434082,"239":3.9993858337402344,"240":0.5013443231582642,"241":3.7698240280151367,"242":7.544042587280273,"243":-7.299325466156006,"244":-1.3656357526779175,"245":3.7893896102905273,"246":3.742133140563965,"247":-6.701403617858887,"248":7.431615829467773,"249":-1.69049870967865,"250":-3.4273202419281006,"251":-3.7645111083984375,"252":7.190789699554443,"253":-7.605619430541992,"254":-3.669063091278076,"255":-0.26943239569664,"256":-3.4611964225769043,"257":-7.469022750854492,"258":-6.542566299438477,"259":-7.676358222961426,"260":-0.11603888869285583,"261":-2.483060121536255,"262":4.338833808898926,"263":-7.27114725112915,"264":-13.992019653320312,"265":-2.5409343242645264,"266":2.9026472568511963,"267":-1.2782541513442993,"268":6.791368007659912,"269":2.074507236480713,"270":-1.420035481452942,"271":-3.488051176071167,"272":4.46855354309082,"273":1.2670416831970215,"274":-4.4350786209106445,"275":0.18936069309711456,"276":2.335587978363037,"277":-7.593738555908203,"278":-2.2270090579986572,"279":1.2923641204833984,"280":-15.742982864379883,"281":-3.8829336166381836,"282":0.5429240465164185,"283":-6.253997802734375,"284":-3.4942331314086914,"285":-4.216915607452393,"286":1.218733310699463,"287":5.586697101593018,"288":-4.325793266296387,"289":-0.5645378232002258,"290":-2.1294939517974854,"291":-10.240511894226074,"292":0.5418506860733032,"293":15.399541854858398,"294":-10.7125883102417,"295":2.033709764480591,"296":1.0176663398742676,"297":4.786950588226318,"298":0.25737443566322327,"299":7.46337890625,"300":3.4101297855377197,"301":-2.3321220874786377,"302":-3.9216229915618896,"303":3.754096031188965,"304":-0.6471996307373047,"305":-2.231987237930298,"306":-1.0785325765609741,"307":3.4228549003601074,"308":-3.7230796813964844,"309":3.6113290786743164,"310":0.35326650738716125,"311":4.792423725128174,"312":-3.8461265563964844,"313":-0.10756617784500122,"314":3.893543243408203,"315":-3.6246631145477295,"316":3.650963068008423,"317":3.682892084121704,"318":3.8010778427124023,"319":3.542762041091919,"320":1.3646470308303833,"321":7.486223220825195,"322":-0.13938170671463013,"323":-3.693453788757324,"324":-8.520840644836426,"325":7.474602699279785,"326":6.021126747131348,"327":-7.265410900115967,"328":3.6413815021514893,"329":-7.493124008178711,"330":-4.609370708465576,"331":3.4035329818725586,"332":0.020769724622368813,"333":-9.456876754760742,"334":-3.6899731159210205,"335":-0.9801909923553467,"336":3.3708724975585938,"337":-7.437801361083984,"338":-4.0605573654174805,"339":-7.415922164916992,"340":-8.62034797668457,"341":4.6079840660095215,"342":4.529699325561523,"343":-3.7723569869995117,"344":-6.538737773895264,"345":4.684300422668457,"346":5.563080310821533,"347":-3.134382963180542,"348":2.2181477546691895,"349":-0.3387826085090637,"350":-7.154318809509277,"351":-3.0300655364990234,"352":6.995121955871582,"353":2.2853691577911377,"354":-5.008842945098877,"355":5.134530067443848,"356":-6.16411828994751,"357":-4.353647708892822,"358":-7.695432662963867,"359":-4.176965236663818,"360":-6.885546684265137,"361":3.7633168697357178,"362":7.319192409515381,"363":-7.516607284545898,"364":-3.87545108795166,"365":3.749239921569824,"366":0.13832296431064606,"367":-7.017554759979248,"368":3.761631965637207,"369":-6.420233726501465,"370":-6.814428329467773,"371":-3.7532358169555664,"372":0.021189067512750626,"373":2.051435947418213,"374":0.04304206371307373,"375":6.7188005447387695,"376":-3.546351671218872,"377":-7.543527603149414,"378":0.20849427580833435,"379":-7.664342880249023,"380":-7.257560729980469,"381":3.319319486618042,"382":-3.246091842651367,"383":2.953486204147339,"384":-1.6452840566635132,"385":3.2432026863098145,"386":2.250352382659912,"387":-2.7417333126068115,"388":3.222071409225464,"389":-9.562714576721191,"390":-1.7141194343566895,"391":-3.322972059249878,"392":3.456170082092285,"393":8.665950775146484,"394":-2.6371097564697266,"395":7.664464950561523,"396":-2.5718047618865967,"397":-2.764302968978882,"398":-2.9314353466033936,"399":-8.752761840820312}},"inputBias":{"rows":20,"columns":1,"weights":{"0":-2.7023940086364746,"1":-3.4946775436401367,"2":2.1819608211517334,"3":0.9140103459358215,"4":6.526002883911133,"5":-3.159026622772217,"6":-2.3870856761932373,"7":0.019560467451810837,"8":1.9825834035873413,"9":3.1596155166625977,"10":2.246349573135376,"11":-1.8638172149658203,"12":3.500776529312134,"13":0.8998814821243286,"14":1.1820714473724365,"15":-3.4279966354370117,"16":1.9308981895446777,"17":3.5677731037139893,"18":1.0017919540405273,"19":1.2166898250579834}},"forgetMatrix":{"rows":20,"columns":41,"weights":{"0":3.317507743835449,"1":-5.546592712402344,"2":-2.107799530029297,"3":1.656232476234436,"4":4.057654857635498,"5":-6.118555068969727,"6":0.021654389798641205,"7":1.2454005479812622,"8":-3.612914562225342,"9":-1.6212106943130493,"10":-2.6098451614379883,"11":0.02610728144645691,"12":0.4212247431278229,"13":2.264495372772217,"14":-3.245854377746582,"15":-2.5446882247924805,"16":-3.5594725608825684,"17":-1.4871094226837158,"18":1.540822148323059,"19":-1.6961206197738647,"20":5.609494209289551,"21":3.5112617015838623,"22":-4.397711277008057,"23":0.5305154919624329,"24":2.0069873332977295,"25":1.298307180404663,"26":4.245177268981934,"27":4.983642578125,"28":-0.2510725259780884,"29":-2.1243574619293213,"30":-2.6552488803863525,"31":3.5115432739257812,"32":-3.2269179821014404,"33":0.3270013630390167,"34":0.8690215349197388,"35":-6.525503635406494,"36":-0.369165301322937,"37":4.168552398681641,"38":-3.8778438568115234,"39":-4.255162715911865,"40":4.436861991882324,"41":-2.007692337036133,"42":0.06406821310520172,"43":1.932159423828125,"44":-3.386585235595703,"45":3.8752050399780273,"46":0.15952523052692413,"47":-2.8425066471099854,"48":1.9529502391815186,"49":3.074167013168335,"50":3.79766845703125,"51":-1.2051432132720947,"52":7.247997283935547,"53":1.0675402879714966,"54":2.638739824295044,"55":3.7512893676757812,"56":-2.1890110969543457,"57":0.8294450640678406,"58":2.093623399734497,"59":-0.8253896236419678,"60":6.948400974273682,"61":-0.1177188828587532,"62":-3.2178022861480713,"63":3.1803722381591797,"64":2.675865411758423,"65":-6.988302707672119,"66":-3.4641122817993164,"67":2.257525682449341,"68":1.2311385869979858,"69":-1.8289134502410889,"70":3.3397042751312256,"71":4.067873477935791,"72":-3.3761680126190186,"73":3.7230091094970703,"74":0.8598446846008301,"75":-7.139752388000488,"76":-3.09905743598938,"77":2.71675968170166,"78":-0.23200508952140808,"79":1.5093371868133545,"80":-3.0386340618133545,"81":3.1503565311431885,"82":-1.709689736366272,"83":4.916507720947266,"84":-9.721412658691406,"85":-5.923929214477539,"86":-4.352351188659668,"87":1.544219970703125,"88":4.141760349273682,"89":-5.680894374847412,"90":-0.4565542936325073,"91":2.069021224975586,"92":-5.432262897491455,"93":-6.173160552978516,"94":1.4869298934936523,"95":-1.941598892211914,"96":-1.6183258295059204,"97":2.1173923015594482,"98":1.5954769849777222,"99":1.1282790899276733,"100":-8.825998306274414,"101":-6.316026210784912,"102":-1.835294485092163,"103":7.9441070556640625,"104":3.6333885192871094,"105":8.018571853637695,"106":2.9561567306518555,"107":6.898442268371582,"108":2.413604974746704,"109":-4.089264869689941,"110":9.943845748901367,"111":8.72126293182373,"112":10.333048820495605,"113":5.260959625244141,"114":-5.354894638061523,"115":-4.749866962432861,"116":1.6908272504806519,"117":8.466411590576172,"118":-1.6263270378112793,"119":-8.833002090454102,"120":0.01840054616332054,"121":5.532658100128174,"122":-7.728017807006836,"123":0.038373373448848724,"124":3.873621940612793,"125":-1.707253098487854,"126":4.396946430206299,"127":-4.97115421295166,"128":5.2388458251953125,"129":-0.10366015136241913,"130":-0.36849716305732727,"131":1.9580740928649902,"132":5.2181196212768555,"133":-2.4186525344848633,"134":-2.3908653259277344,"135":1.2186212539672852,"136":-4.636849403381348,"137":-3.684926986694336,"138":4.527821063995361,"139":-5.0986528396606445,"140":-1.043845772743225,"141":2.621208906173706,"142":-2.814161539077759,"143":-4.021163463592529,"144":0.5088106393814087,"145":2.2977545261383057,"146":-1.9335079193115234,"147":0.3954176902770996,"148":4.845044136047363,"149":-4.1707682609558105,"150":-3.2694528102874756,"151":0.5972799062728882,"152":-4.072503566741943,"153":-4.974613189697266,"154":-0.27368298172950745,"155":-1.7472292184829712,"156":-0.6166994571685791,"157":2.6663124561309814,"158":1.6848433017730713,"159":-3.5693445205688477,"160":-4.740908622741699,"161":1.2875202894210815,"162":2.516288995742798,"163":-2.154750347137451,"164":-6.5749711990356445,"165":6.520787715911865,"166":6.229320049285889,"167":3.024580478668213,"168":-5.028730869293213,"169":6.4967217445373535,"170":1.2430877685546875,"171":-2.407001495361328,"172":-6.247671127319336,"173":5.0348219871521,"174":2.1540257930755615,"175":-2.9882092475891113,"176":-5.322936534881592,"177":-4.749113082885742,"178":-4.3984270095825195,"179":7.394891738891602,"180":5.855719089508057,"181":-6.254851341247559,"182":0.42744380235671997,"183":-0.24938464164733887,"184":3.2521026134490967,"185":1.1811012029647827,"186":6.205345153808594,"187":3.683440685272217,"188":3.2307870388031006,"189":4.780842304229736,"190":-6.904321193695068,"191":3.846477508544922,"192":-6.191510200500488,"193":-5.242887496948242,"194":4.936954975128174,"195":5.4374847412109375,"196":5.4089741706848145,"197":-6.68448543548584,"198":4.009942054748535,"199":5.50566291809082,"200":-6.323610305786133,"201":5.981886863708496,"202":7.24713134765625,"203":-2.139368772506714,"204":-4.189022064208984,"205":-3.0762438774108887,"206":-3.7637875080108643,"207":2.9975967407226562,"208":-3.375824213027954,"209":3.5577070713043213,"210":-3.7306275367736816,"211":-2.9574451446533203,"212":2.950202465057373,"213":-1.827569603919983,"214":-0.8050228357315063,"215":1.241163730621338,"216":3.643845558166504,"217":-2.583331346511841,"218":3.088578701019287,"219":1.712439775466919,"220":0.32709968090057373,"221":2.872215747833252,"222":3.1603047847747803,"223":-3.142298936843872,"224":3.289503574371338,"225":3.713839530944824,"226":-2.9672467708587646,"227":-1.0070714950561523,"228":3.365126371383667,"229":-3.339353084564209,"230":-2.7059011459350586,"231":2.7006094455718994,"232":2.621521472930908,"233":-3.0860774517059326,"234":3.2081727981567383,"235":2.852675676345825,"236":0.0836108848452568,"237":2.7773385047912598,"238":3.0675387382507324,"239":-3.5478577613830566,"240":-3.7129065990448,"241":2.6488161087036133,"242":2.787752628326416,"243":-2.0598158836364746,"244":-3.6318130493164062,"245":3.2112321853637695,"246":2.373844861984253,"247":-6.448531150817871,"248":4.4264750480651855,"249":-0.9933965802192688,"250":3.8264360427856445,"251":-0.821147084236145,"252":-6.416851043701172,"253":-1.502609372138977,"254":-7.976878643035889,"255":-2.240595817565918,"256":-2.23968768119812,"257":-0.3886248767375946,"258":-5.505344867706299,"259":0.38779404759407043,"260":2.334071159362793,"261":2.4650216102600098,"262":-0.07377324253320694,"263":-0.2196555733680725,"264":1.5151687860488892,"265":3.068025588989258,"266":1.6784639358520508,"267":1.8297839164733887,"268":-1.1017553806304932,"269":-2.462717056274414,"270":1.0927822589874268,"271":3.564556837081909,"272":3.2582123279571533,"273":5.066614627838135,"274":-7.322293281555176,"275":-1.8396328687667847,"276":-3.4270553588867188,"277":0.6781534552574158,"278":2.70202374458313,"279":-3.6807167530059814,"280":0.7857879996299744,"281":-2.5070908069610596,"282":-3.037365198135376,"283":1.955925464630127,"284":-0.7614547610282898,"285":-2.974332809448242,"286":5.195555686950684,"287":8.590129852294922,"288":-3.0570735931396484,"289":4.011728763580322,"290":1.2013181447982788,"291":5.693302631378174,"292":2.434601068496704,"293":1.9641880989074707,"294":-1.9781008958816528,"295":0.08459107577800751,"296":-8.192991256713867,"297":5.329470157623291,"298":-1.0717774629592896,"299":1.9186058044433594,"300":6.497884750366211,"301":-5.296243190765381,"302":-6.996912479400635,"303":6.746855735778809,"304":-9.567617416381836,"305":2.682382345199585,"306":0.30548250675201416,"307":-4.5163774490356445,"308":-4.318568229675293,"309":1.3350430727005005,"310":-8.198531150817871,"311":1.9085075855255127,"312":-1.4053525924682617,"313":-4.444057464599609,"314":-2.1735825538635254,"315":-4.532338619232178,"316":-7.839826583862305,"317":-4.037289619445801,"318":0.5378580689430237,"319":-0.8181895017623901,"320":-0.34224116802215576,"321":1.3062896728515625,"322":1.9965324401855469,"323":6.385073184967041,"324":6.03165340423584,"325":-5.951251029968262,"326":1.9478158950805664,"327":3.5071566104888916,"328":0.7723641395568848,"329":1.4447617530822754,"330":0.23645901679992676,"331":-0.19926199316978455,"332":-1.3786007165908813,"333":1.6520582437515259,"334":-1.4841266870498657,"335":-0.5619338750839233,"336":0.7955958843231201,"337":0.2592499256134033,"338":0.8930945992469788,"339":-1.1988649368286133,"340":-0.18547631800174713,"341":-1.5492885112762451,"342":1.321024775505066,"343":-0.5302944183349609,"344":-2.0582828521728516,"345":-0.9103348255157471,"346":0.13205866515636444,"347":-0.07556239515542984,"348":-1.362538456916809,"349":0.42609405517578125,"350":-0.21219134330749512,"351":-0.8602432012557983,"352":-0.06742779165506363,"353":0.428741991519928,"354":-1.3827474117279053,"355":-0.09899680316448212,"356":-0.842616617679596,"357":-0.42979365587234497,"358":-0.7736318111419678,"359":-1.4145493507385254,"360":-0.0009866629261523485,"361":-0.2855253219604492,"362":1.2223749160766602,"363":1.0283985137939453,"364":-0.4196666479110718,"365":0.11681005358695984,"366":0.316286563873291,"367":0.9524059295654297,"368":0.22646187245845795,"369":2.494612455368042,"370":4.198383331298828,"371":-3.4788753986358643,"372":2.7487435340881348,"373":-4.275219917297363,"374":3.3293874263763428,"375":4.624061584472656,"376":-4.219979286193848,"377":1.690427303314209,"378":0.16326592862606049,"379":-0.6445273756980896,"380":-3.487583637237549,"381":3.3942182064056396,"382":-1.5296114683151245,"383":-1.9829003810882568,"384":-0.8277127742767334,"385":-0.36825674772262573,"386":-2.5974268913269043,"387":2.9520843029022217,"388":-5.222127437591553,"389":-3.287132501602173,"390":1.5930767059326172,"391":2.8615777492523193,"392":-2.404543876647949,"393":3.302337408065796,"394":-0.10828625410795212,"395":-3.2734644412994385,"396":-3.876053810119629,"397":4.282724380493164,"398":-2.7054929733276367,"399":1.881760597229004,"400":1.6851261854171753,"401":-2.8249709606170654,"402":-1.7409725189208984,"403":2.790717840194702,"404":4.024754524230957,"405":-2.209033489227295,"406":-1.739648699760437,"407":2.8678221702575684,"408":4.335836887359619,"409":-4.267630100250244,"410":2.211813449859619,"411":-4.387296199798584,"412":3.1894960403442383,"413":-2.9523086547851562,"414":-3.251812219619751,"415":-3.5537197589874268,"416":8.046783447265625,"417":1.702357530593872,"418":9.082816123962402,"419":-2.0941762924194336,"420":0.059127844870090485,"421":-1.6177845001220703,"422":-3.5964670181274414,"423":5.912162780761719,"424":8.112096786499023,"425":-9.621200561523438,"426":-4.007504940032959,"427":1.6515203714370728,"428":3.2572624683380127,"429":-6.423678874969482,"430":9.943670272827148,"431":0.2791324853897095,"432":4.913865566253662,"433":5.315334320068359,"434":-4.975668907165527,"435":-1.9144911766052246,"436":3.6907169818878174,"437":1.4207448959350586,"438":7.128332138061523,"439":-0.35997486114501953,"440":1.3649028539657593,"441":1.1442208290100098,"442":2.4592113494873047,"443":5.825560569763184,"444":-4.983606338500977,"445":1.5030421018600464,"446":0.2375447154045105,"447":6.564216613769531,"448":3.067857503890991,"449":4.445492744445801,"450":-5.415037155151367,"451":-7.991466045379639,"452":2.9528725147247314,"453":-4.023357391357422,"454":3.6118369102478027,"455":7.482366561889648,"456":3.3180954456329346,"457":-8.568896293640137,"458":6.4411845207214355,"459":4.8337554931640625,"460":7.559283256530762,"461":7.556765556335449,"462":8.10928726196289,"463":5.266598224639893,"464":-5.283662796020508,"465":-4.939017295837402,"466":6.560739994049072,"467":-6.192049503326416,"468":8.679564476013184,"469":-7.944459915161133,"470":-4.229455471038818,"471":9.359376907348633,"472":4.520381927490234,"473":-6.214389324188232,"474":-5.696321487426758,"475":-8.479497909545898,"476":-6.941786289215088,"477":-7.000641822814941,"478":6.053881645202637,"479":3.4221627712249756,"480":7.782509803771973,"481":7.3454694747924805,"482":-7.980198383331299,"483":-4.0166916847229,"484":7.417546272277832,"485":-8.307798385620117,"486":-8.336380958557129,"487":-5.062471389770508,"488":-4.418846607208252,"489":5.001984119415283,"490":3.669731855392456,"491":-5.48735237121582,"492":10.854881286621094,"493":-0.31379878520965576,"494":5.501319885253906,"495":-0.23702922463417053,"496":4.742702484130859,"497":11.432291030883789,"498":9.698383331298828,"499":-6.503523826599121,"500":1.6768691539764404,"501":-3.5115063190460205,"502":-8.118888854980469,"503":-6.9317626953125,"504":9.895275115966797,"505":-8.505331993103027,"506":2.30875563621521,"507":-7.339768886566162,"508":1.2287273406982422,"509":-11.099230766296387,"510":10.55710506439209,"511":1.2356064319610596,"512":-7.099205493927002,"513":-4.289130687713623,"514":-0.8281503319740295,"515":-9.762409210205078,"516":8.978453636169434,"517":-5.0997419357299805,"518":5.3519134521484375,"519":-3.1411006450653076,"520":1.475165605545044,"521":-2.459869146347046,"522":-6.474476337432861,"523":3.0978176593780518,"524":-0.22353173792362213,"525":-1.5999698638916016,"526":6.77464485168457,"527":11.625077247619629,"528":5.822880744934082,"529":2.1898601055145264,"530":8.199028968811035,"531":10.157894134521484,"532":5.163151741027832,"533":-12.9829683303833,"534":11.5350341796875,"535":-1.3996708393096924,"536":15.09228801727295,"537":-8.218153953552246,"538":-5.430336952209473,"539":-9.637402534484863,"540":15.238804817199707,"541":15.30820369720459,"542":6.6448750495910645,"543":10.820650100708008,"544":8.107702255249023,"545":-9.073236465454102,"546":6.1965718269348145,"547":-9.307074546813965,"548":13.85145378112793,"549":-0.36455023288726807,"550":2.3913896083831787,"551":-2.9372732639312744,"552":-4.985990047454834,"553":10.424129486083984,"554":6.950170040130615,"555":0.24395328760147095,"556":8.371976852416992,"557":-10.690632820129395,"558":4.257011890411377,"559":-17.215118408203125,"560":8.54990005493164,"561":-14.811498641967773,"562":-14.397894859313965,"563":9.50093936920166,"564":-11.314952850341797,"565":-1.9073865413665771,"566":7.989655017852783,"567":-10.542165756225586,"568":-15.707738876342773,"569":-10.336101531982422,"570":-4.706402778625488,"571":-6.06303596496582,"572":-14.8390474319458,"573":-10.758975982666016,"574":9.095459938049316,"575":-11.516319274902344,"576":-10.976229667663574,"577":7.168551445007324,"578":-9.254847526550293,"579":9.050951957702637,"580":5.472851753234863,"581":8.025355339050293,"582":10.182160377502441,"583":11.483054161071777,"584":9.420942306518555,"585":-6.8141045570373535,"586":10.794662475585938,"587":10.242330551147461,"588":-9.510056495666504,"589":6.471649646759033,"590":-11.050214767456055,"591":-6.316990375518799,"592":7.334762096405029,"593":-9.35915756225586,"594":7.558425426483154,"595":9.045114517211914,"596":-10.76630687713623,"597":-10.536107063293457,"598":6.373117923736572,"599":9.47138500213623,"600":-7.5030646324157715,"601":7.7733154296875,"602":9.750709533691406,"603":-7.034415245056152,"604":-10.661356925964355,"605":-12.836352348327637,"606":-9.557231903076172,"607":10.538966178894043,"608":7.788087844848633,"609":-7.796104431152344,"610":-7.464337348937988,"611":-9.898491859436035,"612":5.564927577972412,"613":10.321218490600586,"614":-8.578163146972656,"615":5.150320053100586,"616":-10.177497863769531,"617":6.275061130523682,"618":1.2359764575958252,"619":16.0689640045166,"620":-0.6098315715789795,"621":-11.066265106201172,"622":1.679672360420227,"623":-1.1444523334503174,"624":-10.652609825134277,"625":5.29386043548584,"626":14.591480255126953,"627":-6.217518329620361,"628":8.922075271606445,"629":6.206715106964111,"630":-9.354703903198242,"631":-4.300345420837402,"632":-12.05026626586914,"633":5.927928924560547,"634":13.535192489624023,"635":10.023621559143066,"636":-13.530625343322754,"637":-12.74271011352539,"638":-6.238241672515869,"639":-8.294147491455078,"640":-14.448626518249512,"641":-2.039954900741577,"642":8.667652130126953,"643":-11.733039855957031,"644":-2.0588431358337402,"645":-2.6211845874786377,"646":-4.996503829956055,"647":6.429598331451416,"648":3.8727359771728516,"649":-7.66419792175293,"650":-13.42304801940918,"651":14.997276306152344,"652":13.84256649017334,"653":-15.633079528808594,"654":-15.541671752929688,"655":15.597007751464844,"656":6.855625152587891,"657":9.521102905273438,"658":4.029057502746582,"659":7.787827491760254,"660":4.098405838012695,"661":9.519472122192383,"662":8.425393104553223,"663":-5.5384202003479,"664":-4.2095818519592285,"665":-6.417706489562988,"666":-7.07618522644043,"667":-8.833677291870117,"668":7.617521286010742,"669":4.548887729644775,"670":5.695686340332031,"671":-7.051152229309082,"672":-7.544765472412109,"673":-8.794461250305176,"674":7.910085201263428,"675":3.7987852096557617,"676":-9.603201866149902,"677":-5.993741035461426,"678":5.41807746887207,"679":4.090853214263916,"680":8.468823432922363,"681":-5.645890712738037,"682":5.825178146362305,"683":-6.89907169342041,"684":8.034439086914062,"685":-7.783235549926758,"686":4.580463409423828,"687":5.077603816986084,"688":4.322582721710205,"689":-7.250032901763916,"690":-3.1319525241851807,"691":8.7004976272583,"692":-6.895024299621582,"693":4.653722286224365,"694":-4.974179267883301,"695":8.36758804321289,"696":6.086115837097168,"697":2.863616943359375,"698":3.769442558288574,"699":-3.238049030303955,"700":3.275371551513672,"701":-3.548419713973999,"702":3.697612762451172,"703":3.3061091899871826,"704":-2.7727229595184326,"705":0.9809532165527344,"706":0.5014457702636719,"707":-2.1069705486297607,"708":-3.473315954208374,"709":3.184748888015747,"710":-3.2335965633392334,"711":-2.7488787174224854,"712":2.044149875640869,"713":0.184522807598114,"714":-3.329906940460205,"715":2.998138189315796,"716":-3.291694164276123,"717":-3.7504920959472656,"718":3.0858302116394043,"719":2.102170705795288,"720":-3.118515968322754,"721":3.41442608833313,"722":2.714407205581665,"723":-1.7410777807235718,"724":-2.5108096599578857,"725":3.2043776512145996,"726":-2.9238014221191406,"727":-2.115766763687134,"728":1.691017746925354,"729":-3.232152223587036,"730":-2.50105619430542,"731":3.4712507724761963,"732":3.5673489570617676,"733":-2.690453290939331,"734":-3.3543920516967773,"735":3.1525816917419434,"736":3.7068982124328613,"737":-3.063819408416748,"738":11.297314643859863,"739":-6.886949062347412,"740":0.16313087940216064,"741":-6.381707668304443,"742":-1.0186628103256226,"743":-5.918388366699219,"744":10.961490631103516,"745":-8.800137519836426,"746":-1.1888235807418823,"747":-10.75236701965332,"748":-4.14805793762207,"749":-10.66450023651123,"750":0.6058291792869568,"751":10.786301612854004,"752":7.397388935089111,"753":-11.72298526763916,"754":7.314980506896973,"755":-12.129133224487305,"756":6.722905158996582,"757":2.953289747238159,"758":-5.516531944274902,"759":-2.0791983604431152,"760":1.384076476097107,"761":3.1463778018951416,"762":11.359487533569336,"763":3.3783059120178223,"764":10.057040214538574,"765":-4.10338020324707,"766":1.3781025409698486,"767":-2.7911205291748047,"768":-4.751683235168457,"769":11.019072532653809,"770":1.4328973293304443,"771":-10.64260482788086,"772":10.452727317810059,"773":12.26030445098877,"774":10.707274436950684,"775":8.496411323547363,"776":-1.9597747325897217,"777":-7.962402820587158,"778":-0.40872886776924133,"779":-3.744725227355957,"780":2.9075167179107666,"781":-6.381650447845459,"782":-6.979179859161377,"783":-8.407705307006836,"784":-2.4076852798461914,"785":2.110908031463623,"786":-4.948531627655029,"787":2.8410184383392334,"788":2.814237356185913,"789":-0.3127385675907135,"790":-4.846407413482666,"791":-6.60623025894165,"792":-4.893255710601807,"793":1.7356353998184204,"794":3.3907272815704346,"795":-3.5021040439605713,"796":3.5113587379455566,"797":-3.6147453784942627,"798":-6.900199890136719,"799":4.1940460205078125,"800":3.3987982273101807,"801":-6.224784851074219,"802":0.21795032918453217,"803":3.1309332847595215,"804":6.9413604736328125,"805":0.7637596726417542,"806":5.891427993774414,"807":2.0768632888793945,"808":4.392799377441406,"809":-3.1585400104522705,"810":3.0253372192382812,"811":-6.778885841369629,"812":-1.9366202354431152,"813":6.622345447540283,"814":6.983721733093262,"815":-1.168215274810791,"816":-6.281145095825195,"817":8.194036483764648,"818":4.384967803955078,"819":-6.835887432098389}},"forgetHidden":{"rows":20,"columns":20,"weights":{"0":5.810029029846191,"1":-2.4838411808013916,"2":-4.679455757141113,"3":2.5155835151672363,"4":-2.435581922531128,"5":-2.2084527015686035,"6":-4.071768283843994,"7":-0.5744288563728333,"8":-2.5286030769348145,"9":-0.8604673147201538,"10":2.4620842933654785,"11":2.5551888942718506,"12":-4.210837364196777,"13":-4.157214164733887,"14":2.05216646194458,"15":-5.913961410522461,"16":4.340195655822754,"17":-0.9753801822662354,"18":-1.1612319946289062,"19":-2.592503070831299,"20":2.5967860221862793,"21":0.18285363912582397,"22":-3.3335137367248535,"23":3.6139514446258545,"24":-4.135488510131836,"25":0.20927460491657257,"26":0.7769280076026917,"27":3.2653446197509766,"28":-3.6050686836242676,"29":3.6166439056396484,"30":-0.8580458760261536,"31":-0.1763628125190735,"32":-3.6050047874450684,"33":0.05171852558851242,"34":7.265905857086182,"35":0.7780675888061523,"36":3.1292340755462646,"37":3.50779390335083,"38":3.3773446083068848,"39":3.211125135421753,"40":-2.5911269187927246,"41":3.3644962310791016,"42":0.22932888567447662,"43":-4.243279933929443,"44":0.4296414256095886,"45":1.0393611192703247,"46":-3.0610511302948,"47":-5.346293926239014,"48":7.353193283081055,"49":-1.0601673126220703,"50":-3.610812187194824,"51":-3.035263776779175,"52":0.8214737772941589,"53":-3.674816846847534,"54":-4.170763969421387,"55":-2.1364455223083496,"56":-1.5190184116363525,"57":-0.21153555810451508,"58":-2.4089860916137695,"59":-2.0773990154266357,"60":-0.25344914197921753,"61":1.0065807104110718,"62":4.459405422210693,"63":-4.645149230957031,"64":3.6892249584198,"65":0.7643219828605652,"66":0.47126227617263794,"67":-4.320818901062012,"68":4.650649070739746,"69":-4.784843444824219,"70":3.5453248023986816,"71":-1.0167316198349,"72":5.031059741973877,"73":-3.619636297225952,"74":-1.8451911211013794,"75":0.3871647119522095,"76":-0.8869722485542297,"77":-4.6320977210998535,"78":-4.410516262054443,"79":-4.011661529541016,"80":1.3056014776229858,"81":-1.221441388130188,"82":-5.323544979095459,"83":0.9388244152069092,"84":5.582406997680664,"85":-1.26031494140625,"86":-1.4152263402938843,"87":-5.326325416564941,"88":-0.3382932245731354,"89":-2.2845396995544434,"90":4.920458793640137,"91":0.7486768960952759,"92":1.7335851192474365,"93":2.774942398071289,"94":3.8462719917297363,"95":2.358978509902954,"96":0.7259396910667419,"97":-3.3576135635375977,"98":-3.620297908782959,"99":-2.456446409225464,"100":2.878908157348633,"101":-3.743199586868286,"102":-3.6033883094787598,"103":3.709568500518799,"104":1.319943904876709,"105":-3.69248366355896,"106":-3.442134141921997,"107":3.5752382278442383,"108":-3.677398204803467,"109":3.721076011657715,"110":3.3949525356292725,"111":3.73380970954895,"112":-3.7480740547180176,"113":1.3189759254455566,"114":3.659649133682251,"115":-3.3238706588745117,"116":3.41507887840271,"117":3.6979737281799316,"118":3.6085784435272217,"119":3.5844478607177734,"120":1.0339335203170776,"121":-2.9591987133026123,"122":-2.2838943004608154,"123":2.861823081970215,"124":0.2152574360370636,"125":-2.8954224586486816,"126":-2.121009588241577,"127":5.608405113220215,"128":-2.802222490310669,