module.exports = function anonymous(rawInput,isSampleI,temperature
) {

  if (typeof rawInput === 'undefined') rawInput = [];
  if (typeof isSampleI === 'undefined') isSampleI = false;
  if (typeof temperature === 'undefined') temperature = 1;
  var json = {"type":"LSTM","options":{"inputSize":38,"inputRange":38,"hiddenLayers":[20,20],"outputSize":38,"decayRate":0.999,"smoothEps":1e-8,"regc":0.000001,"clipval":5,"maxPredictionLength":100,"dataFormatter":{"values":["Friends forever!","I miss you","I really like you.","If you come over, I'll think about it","Nobody's home right now","Sweet dreams!","Tryna chill?","Want to come over?","Want to get food bro?","Yo where you at?","You first!","You have really pretty eyes","You're a cool dude","You're like family to me","You're really cute","You're soooo hot","casual","flirty"],"indexTable":{"F":0,"r":1,"i":2,"e":3,"n":4,"d":5,"s":6," ":7,"f":8,"o":9,"v":10,"!":11,"I":12,"m":13,"y":14,"u":15,"a":16,"l":17,"k":18,".":19,"c":20,",":21,"'":22,"t":23,"h":24,"b":25,"N":26,"g":27,"w":28,"S":29,"T":30,"?":31,"W":32,"Y":33,"p":34,"stop-input":35,"start-output":36,"unrecognized":37},"characterTable":{"0":"F","1":"r","2":"i","3":"e","4":"n","5":"d","6":"s","7":" ","8":"f","9":"o","10":"v","11":"!","12":"I","13":"m","14":"y","15":"u","16":"a","17":"l","18":"k","19":".","20":"c","21":",","22":"'","23":"t","24":"h","25":"b","26":"N","27":"g","28":"w","29":"S","30":"T","31":"?","32":"W","33":"Y","34":"p","35":null,"36":null,"37":null},"characters":["F","r","i","e","n","d","s"," ","f","o","v","!","I","m","y","u","a","l","k",".","c",",","'","t","h","b","N","g","w","S","T","?","W","Y","p","stop-input","start-output","unrecognized"],"specialIndexes":[35,36,37]}},"input":{"rows":39,"columns":38,"weights":{"0":-2.5163280963897705,"1":-0.9816909432411194,"2":0.10618426650762558,"3":2.5410995483398438,"4":-0.02282826602458954,"5":1.05802583694458,"6":0.5794968605041504,"7":1.5330755710601807,"8":1.2757288217544556,"9":0.32911109924316406,"10":-2.0118625164031982,"11":-0.7540256381034851,"12":-0.10434699058532715,"13":-0.018038561567664146,"14":-2.130481719970703,"15":-0.8394789099693298,"16":-1.6435009241104126,"17":-0.8956429362297058,"18":-4.0437445640563965,"19":-3.164807081222534,"20":-0.6115522980690002,"21":0.22281982004642487,"22":-2.64774751663208,"23":1.1959620714187622,"24":0.906500518321991,"25":1.743327021598816,"26":2.445789098739624,"27":0.10869872570037842,"28":2.4115588665008545,"29":-1.0063834190368652,"30":2.0812594890594482,"31":-0.7790988683700562,"32":-0.8891962170600891,"33":1.515453577041626,"34":0.5858707427978516,"35":-1.0175459384918213,"36":-0.03527652099728584,"37":0.6376782059669495,"38":-7.009872913360596,"39":5.3204545974731445,"40":3.9635508060455322,"41":2.6425278186798096,"42":1.0655786991119385,"43":-1.2288844585418701,"44":1.626563549041748,"45":2.1586673259735107,"46":-1.8308430910110474,"47":-0.6673120260238647,"48":-5.710422039031982,"49":-1.9874621629714966,"50":-3.3732073307037354,"51":-5.851769924163818,"52":9.103804588317871,"53":-5.619081974029541,"54":-7.786317825317383,"55":-8.47784423828125,"56":2.9840803146362305,"57":-0.19071988761425018,"58":-11.034381866455078,"59":-3.983494520187378,"60":-5.901913642883301,"61":7.726627349853516,"62":-0.03841177001595497,"63":11.256171226501465,"64":-4.1562418937683105,"65":-3.291055202484131,"66":2.065835952758789,"67":-8.78869915008545,"68":14.476430892944336,"69":-9.496283531188965,"70":-3.3423876762390137,"71":7.102875709533691,"72":8.35216999053955,"73":2.9093246459960938,"74":8.86648178100586,"75":-0.8604854941368103,"76":3.5163180828094482,"77":1.9925568103790283,"78":-0.1178419291973114,"79":3.2911953926086426,"80":-0.3649951219558716,"81":1.0339610576629639,"82":1.1703734397888184,"83":0.4114396572113037,"84":-1.2514517307281494,"85":0.6735804677009583,"86":-1.7574437856674194,"87":-0.5727599263191223,"88":1.2165563106536865,"89":1.512814998626709,"90":-2.861006259918213,"91":-1.2338473796844482,"92":-1.2424708604812622,"93":-0.5262088179588318,"94":-2.6031315326690674,"95":-2.2411282062530518,"96":-0.47093772888183594,"97":-2.0091285705566406,"98":-2.048388957977295,"99":2.454569101333618,"100":-0.774387538433075,"101":0.21409431099891663,"102":0.6395605802536011,"103":-2.844879627227783,"104":1.6972712278366089,"105":0.13397839665412903,"106":0.3641372621059418,"107":-0.40648549795150757,"108":-2.278531789779663,"109":-0.25654569268226624,"110":0.2120753973722458,"111":-0.930005669593811,"112":-2.386904001235962,"113":-0.7149447202682495,"114":2.2387309074401855,"115":-0.17049695551395416,"116":0.2916155457496643,"117":3.3414745330810547,"118":1.043248176574707,"119":2.0993802547454834,"120":1.5446327924728394,"121":-0.11133012175559998,"122":0.266307532787323,"123":-0.047403328120708466,"124":-1.8565049171447754,"125":-1.0945987701416016,"126":1.9607067108154297,"127":-0.5477985143661499,"128":-1.94867742061615,"129":-0.6608358025550842,"130":-1.14145028591156,"131":-0.5286661982536316,"132":-2.6840884685516357,"133":-0.16782593727111816,"134":-1.0360745191574097,"135":-3.4718780517578125,"136":0.04177698865532875,"137":-0.4248811900615692,"138":-0.37923747301101685,"139":-0.8897188305854797,"140":1.0441654920578003,"141":-1.6117419004440308,"142":0.538374125957489,"143":0.8999015092849731,"144":-0.20761534571647644,"145":-1.4808887243270874,"146":-2.66941499710083,"147":1.7961857318878174,"148":-1.3097057342529297,"149":-1.0815902948379517,"150":0.28270405530929565,"151":0.03034057654440403,"152":-2.044154405593872,"153":-0.5841953754425049,"154":0.25990238785743713,"155":4.379800796508789,"156":-0.41521960496902466,"157":-0.22382356226444244,"158":2.063499927520752,"159":2.603926420211792,"160":0.3685477375984192,"161":0.39009544253349304,"162":-2.8363544940948486,"163":-1.3092379570007324,"164":-0.9951472878456116,"165":-0.7036194205284119,"166":0.7006900310516357,"167":0.44287630915641785,"168":0.3003893196582794,"169":-1.6955000162124634,"170":-0.3718796670436859,"171":-3.398813009262085,"172":-0.08352154493331909,"173":3.78975510597229,"174":-2.581590175628662,"175":3.865691900253296,"176":1.2064578533172607,"177":2.4919867515563965,"178":-1.5344353914260864,"179":1.0140011310577393,"180":-3.4488933086395264,"181":-1.8229256868362427,"182":2.899672508239746,"183":-1.9616390466690063,"184":-1.4353481531143188,"185":5.900413990020752,"186":-1.4095286130905151,"187":-0.8137235641479492,"188":-0.9164631962776184,"189":-2.7686455249786377,"190":8.547367095947266,"191":1.6425580978393555,"192":-0.38760867714881897,"193":0.40093833208084106,"194":2.0456740856170654,"195":2.384648323059082,"196":3.771033763885498,"197":-2.9333627223968506,"198":-2.280069589614868,"199":-4.825984477996826,"200":0.17620787024497986,"201":4.307749271392822,"202":2.8568572998046875,"203":-0.28963175415992737,"204":-7.176868438720703,"205":2.646409034729004,"206":-2.381178617477417,"207":-2.6535909175872803,"208":-8.259628295898438,"209":-4.104020118713379,"210":5.452409744262695,"211":1.3233715295791626,"212":-1.904866099357605,"213":-4.858515739440918,"214":-3.5815489292144775,"215":-4.107054233551025,"216":5.070804595947266,"217":-4.744300365447998,"218":0.32998597621917725,"219":0.937666654586792,"220":-7.966545104980469,"221":-1.9834212064743042,"222":-4.777835845947266,"223":1.507253646850586,"224":-3.921023368835449,"225":-3.2013163566589355,"226":0.3311866521835327,"227":-3.2798399925231934,"228":5.708168029785156,"229":-3.4830212593078613,"230":2.5552515983581543,"231":-1.2660506963729858,"232":-8.163018226623535,"233":-1.6408133506774902,"234":-4.909431457519531,"235":2.997498035430908,"236":1.1728442907333374,"237":-4.1360931396484375,"238":1.7246203422546387,"239":-4.231245517730713,"240":-4.161628246307373,"241":-9.252177238464355,"242":-2.017038106918335,"243":-3.043729305267334,"244":3.7485175132751465,"245":3.1556427478790283,"246":-8.344050407409668,"247":6.679980754852295,"248":11.258527755737305,"249":2.7322745323181152,"250":-2.216376543045044,"251":-0.3338510990142822,"252":4.361269474029541,"253":-6.787264823913574,"254":-4.724278450012207,"255":1.4027127027511597,"256":5.308350563049316,"257":0.006324676796793938,"258":-4.169886112213135,"259":-1.3655579090118408,"260":-3.101661205291748,"261":-5.098374366760254,"262":3.6900107860565186,"263":-0.7015860676765442,"264":-6.078410625457764,"265":1.1921466588974,"266":1.3161107301712036,"267":1.1616789102554321,"268":-3.790454626083374,"269":0.4426041841506958,"270":1.9225066900253296,"271":-1.4214218854904175,"272":1.8918581008911133,"273":1.2835400104522705,"274":0.6483725309371948,"275":2.273540735244751,"276":-0.10508447140455246,"277":-0.31037503480911255,"278":0.10723360627889633,"279":1.2628637552261353,"280":-0.3679375648498535,"281":2.9694437980651855,"282":2.431339740753174,"283":5.409183502197266,"284":0.6453266739845276,"285":-0.4422576427459717,"286":2.700584650039673,"287":0.6186179518699646,"288":1.4409252405166626,"289":-1.1007438898086548,"290":1.0429707765579224,"291":-5.170454978942871,"292":2.156541585922241,"293":2.80792498588562,"294":-0.8793235421180725,"295":4.503467082977295,"296":-4.7332940101623535,"297":2.1580088138580322,"298":-0.6295682191848755,"299":1.290802240371704,"300":-1.585298776626587,"301":-3.1634645462036133,"302":-5.331015110015869,"303":4.4543070793151855,"304":-1.1401327848434448,"305":2.2488608360290527,"306":-1.1900432109832764,"307":-1.0578492879867554,"308":-0.592277467250824,"309":-0.6197265386581421,"310":-2.119906425476074,"311":-4.735457897186279,"312":-0.9859179854393005,"313":0.8289663195610046,"314":-2.32528018951416,"315":0.6253988742828369,"316":-1.8084880113601685,"317":-0.5427350997924805,"318":-2.4657154083251953,"319":-1.0990099906921387,"320":-0.6258592009544373,"321":5.232632637023926,"322":-1.1946685314178467,"323":-1.5890190601348877,"324":-1.2440019845962524,"325":2.6365420818328857,"326":-1.0200821161270142,"327":1.6850767135620117,"328":0.6066700220108032,"329":2.1704044342041016,"330":3.7645881175994873,"331":3.68289852142334,"332":0.8403223156929016,"333":-0.6662857532501221,"334":0.6870495676994324,"335":3.446201801300049,"336":-0.35883066058158875,"337":-0.9475141763687134,"338":-0.8283880949020386,"339":1.021636962890625,"340":1.3047165870666504,"341":-2.0075066089630127,"342":1.0834132432937622,"343":-2.091845750808716,"344":2.5892765522003174,"345":3.333104372024536,"346":-3.348053216934204,"347":2.5732836723327637,"348":-2.260236978530884,"349":2.4908390045166016,"350":3.067866802215576,"351":3.415623188018799,"352":-2.083282709121704,"353":-3.8963825702667236,"354":1.8865203857421875,"355":0.7093002796173096,"356":1.068353295326233,"357":-3.5640692710876465,"358":0.8191487193107605,"359":-0.6243638396263123,"360":1.0072271823883057,"361":2.2785589694976807,"362":-0.36558571457862854,"363":-2.684185028076172,"364":-3.305292844772339,"365":2.3534650802612305,"366":-2.026298999786377,"367":1.0832467079162598,"368":1.2531673908233643,"369":-1.4183416366577148,"370":1.2751479148864746,"371":1.0046906471252441,"372":-0.4539129137992859,"373":-5.207065105438232,"374":-1.600678563117981,"375":-3.3007888793945312,"376":1.5069959163665771,"377":2.795257091522217,"378":-2.893387794494629,"379":-0.5059083104133606,"380":-2.9782917499542236,"381":-1.69878351688385,"382":-1.0974727869033813,"383":-2.247469186782837,"384":3.0346696376800537,"385":0.7181811332702637,"386":-1.0330016613006592,"387":2.930553913116455,"388":0.6894787549972534,"389":0.14628493785858154,"390":3.5862362384796143,"391":0.321828693151474,"392":1.647963047027588,"393":-0.709264874458313,"394":1.6989495754241943,"395":-2.744636058807373,"396":-0.1950685977935791,"397":1.3591442108154297,"398":2.052302837371826,"399":-1.8166899681091309,"400":1.9242881536483765,"401":-2.0302741527557373,"402":0.1842857003211975,"403":-0.07236496359109879,"404":-0.9952172040939331,"405":0.35395026206970215,"406":1.1828540563583374,"407":-1.5753737688064575,"408":1.6887197494506836,"409":0.30493929982185364,"410":-1.662475824356079,"411":1.0978981256484985,"412":0.18939092755317688,"413":-0.14053761959075928,"414":5.624650478363037,"415":-0.3239348828792572,"416":-2.7102725505828857,"417":-0.15838944911956787,"418":-5.035829544067383,"419":1.0651084184646606,"420":2.00773549079895,"421":-10.591684341430664,"422":1.9568307399749756,"423":-5.758760452270508,"424":2.072490930557251,"425":6.339481353759766,"426":3.445143461227417,"427":-0.1629536896944046,"428":4.793727874755859,"429":1.5047576427459717,"430":-2.496398687362671,"431":-0.47596555948257446,"432":10.501047134399414,"433":-1.3817884922027588,"434":-1.8284015655517578,"435":0.13028264045715332,"436":4.810442924499512,"437":4.7024126052856445,"438":2.039571762084961,"439":-0.8927562236785889,"440":1.612073302268982,"441":-3.42181134223938,"442":3.6624033451080322,"443":-4.139982223510742,"444":0.6819537878036499,"445":0.1130608320236206,"446":2.0121915340423584,"447":-5.481624126434326,"448":3.1633803844451904,"449":2.2024874687194824,"450":2.128618001937866,"451":6.950199604034424,"452":0.2524830996990204,"453":-4.1541242599487305,"454":-5.163604259490967,"455":-0.6891596913337708,"456":3.2174384593963623,"457":-5.311399936676025,"458":-2.536651134490967,"459":-0.604861855506897,"460":1.7924854755401611,"461":-8.557821273803711,"462":-3.3556065559387207,"463":0.28616875410079956,"464":1.731328010559082,"465":4.1445631980896,"466":3.518319845199585,"467":3.5940301418304443,"468":-4.213959217071533,"469":1.4796380996704102,"470":7.012753009796143,"471":-1.9119973182678223,"472":4.977860927581787,"473":4.819521427154541,"474":-0.9504934549331665,"475":4.0276079177856445,"476":3.1345057487487793,"477":8.395071983337402,"478":1.6917481422424316,"479":-0.6755589246749878,"480":5.447786808013916,"481":-1.4128048419952393,"482":-7.559370994567871,"483":3.154686212539673,"484":-3.722815990447998,"485":1.2236812114715576,"486":-0.35023772716522217,"487":-5.957269668579102,"488":9.807546615600586,"489":-0.7831005454063416,"490":-0.46757033467292786,"491":1.8793087005615234,"492":4.788229942321777,"493":1.2761377096176147,"494":-0.8324416279792786,"495":-2.9197802543640137,"496":-9.108186721801758,"497":-4.103450775146484,"498":0.22411614656448364,"499":-8.384122848510742,"500":-3.8661062717437744,"501":0.6138085126876831,"502":-2.653350353240967,"503":2.9330193996429443,"504":4.479977130889893,"505":11.629828453063965,"506":-0.26360249519348145,"507":3.5171890258789062,"508":-1.21170175075531,"509":0.9549440145492554,"510":2.2537994384765625,"511":8.012211799621582,"512":3.7948951721191406,"513":-0.5145007967948914,"514":5.247950553894043,"515":4.7600836753845215,"516":12.001032829284668,"517":-3.0402534008026123,"518":1.0141600370407104,"519":-0.09351260960102081,"520":-1.7068395614624023,"521":3.3840553760528564,"522":2.1746678352355957,"523":-1.2779749631881714,"524":-1.1873472929000854,"525":3.9753260612487793,"526":9.668787956237793,"527":-1.059373140335083,"528":-0.8499106168746948,"529":0.9504051208496094,"530":-0.4726071357727051,"531":-4.216526985168457,"532":4.063494682312012,"533":1.1377900838851929,"534":-0.14445999264717102,"535":2.3058760166168213,"536":2.875901222229004,"537":-0.1416756510734558,"538":3.2056760787963867,"539":1.8359535932540894,"540":0.6177187561988831,"541":0.8822387456893921,"542":-3.9012539386749268,"543":-1.2524445056915283,"544":3.051799774169922,"545":-2.189042329788208,"546":-3.45601749420166,"547":-2.7138731479644775,"548":-3.173840045928955,"549":-3.0892460346221924,"550":-1.4453903436660767,"551":-1.0488972663879395,"552":-0.05499383434653282,"553":-5.133715629577637,"554":0.20641183853149414,"555":-0.5614725351333618,"556":-1.3966985940933228,"557":-1.1790655851364136,"558":-1.3313595056533813,"559":-5.161892890930176,"560":0.013421257957816124,"561":5.1942901611328125,"562":-0.4850471615791321,"563":-0.3606652021408081,"564":-3.378363609313965,"565":1.8031582832336426,"566":1.5128968954086304,"567":-3.190654754638672,"568":-0.4996863603591919,"569":0.7089259624481201,"570":0.2619398534297943,"571":0.06913217902183533,"572":3.8613975048065186,"573":-2.472853183746338,"574":2.9579708576202393,"575":2.3130385875701904,"576":2.7738776206970215,"577":-3.756592035293579,"578":0.1742994785308838,"579":-0.009323338977992535,"580":2.3182811737060547,"581":-1.2087410688400269,"582":2.5706140995025635,"583":-1.9008983373641968,"584":1.5867807865142822,"585":-3.1178314685821533,"586":-2.9480183124542236,"587":-4.032413959503174,"588":2.2281320095062256,"589":-0.874251663684845,"590":-4.692188739776611,"591":-2.016758680343628,"592":-1.4576926231384277,"593":-1.6959329843521118,"594":-2.123230218887329,"595":3.6831605434417725,"596":-1.1130750179290771,"597":-3.6074728965759277,"598":-0.9583549499511719,"599":-0.2909434139728546,"600":2.282083749771118,"601":-3.1423096656799316,"602":-0.25492650270462036,"603":1.216793417930603,"604":1.8081477880477905,"605":-2.072990894317627,"606":3.1513586044311523,"607":0.23114967346191406,"608":0.9526646733283997,"609":-1.0010255575180054,"610":0.7004719972610474,"611":-0.2951601445674896,"612":-0.7945950627326965,"613":3.0960500240325928,"614":-0.8893540501594543,"615":-0.6852210164070129,"616":0.6526773571968079,"617":-0.8381023406982422,"618":-3.3230702877044678,"619":-1.7881132364273071,"620":4.380876064300537,"621":-0.9605627655982971,"622":-2.741098642349243,"623":0.4590016007423401,"624":-0.4818784296512604,"625":-0.23812703788280487,"626":-3.1422648429870605,"627":-1.277767539024353,"628":0.5402548909187317,"629":-1.9460991621017456,"630":-0.240420863032341,"631":0.809131920337677,"632":-1.8771992921829224,"633":0.44828659296035767,"634":3.179129123687744,"635":-1.4111019372940063,"636":1.7779854536056519,"637":-1.4206584692001343,"638":-1.3192676305770874,"639":0.54609614610672,"640":-0.23221665620803833,"641":-0.12103864550590515,"642":-3.061154842376709,"643":0.3643079996109009,"644":2.7443830966949463,"645":0.7986482977867126,"646":-0.7920714020729065,"647":-0.5304510593414307,"648":-1.0522891283035278,"649":1.1905533075332642,"650":-1.1771268844604492,"651":-1.5881785154342651,"652":-0.07345341145992279,"653":-1.8385926485061646,"654":0.07545636594295502,"655":2.904362201690674,"656":3.755049705505371,"657":-0.057497840374708176,"658":2.238129138946533,"659":-3.573899745941162,"660":-2.067258834838867,"661":-5.786011695861816,"662":-0.20831912755966187,"663":0.5218577980995178,"664":-0.2977105379104614,"665":1.1635793447494507,"666":2.468283176422119,"667":-0.25739753246307373,"668":-5.0796966552734375,"669":-0.014442537911236286,"670":-1.7594115734100342,"671":2.765944004058838,"672":2.248145580291748,"673":0.049192238599061966,"674":-0.5515631437301636,"675":-4.480973243713379,"676":1.1428436040878296,"677":0.5173932313919067,"678":0.3036055862903595,"679":-2.805363655090332,"680":1.9750375747680664,"681":1.7139281034469604,"682":2.2548649311065674,"683":-1.439213514328003,"684":-1.6639556884765625,"685":-1.506592035293579,"686":-1.4767513275146484,"687":1.7863516807556152,"688":-1.2561659812927246,"689":-4.165224075317383,"690":-0.47138211131095886,"691":-0.3252317011356354,"692":-0.5190705060958862,"693":0.619212806224823,"694":-0.06732746213674545,"695":-1.6020557880401611,"696":-2.644592046737671,"697":1.8438364267349243,"698":4.5957722663879395,"699":1.1177829504013062,"700":-0.498497873544693,"701":0.030267586931586266,"702":2.572359561920166,"703":0.6334607005119324,"704":-2.9055557250976562,"705":0.9217421412467957,"706":-0.632289469242096,"707":3.3294312953948975,"708":0.8502598404884338,"709":2.034506320953369,"710":-3.2043020725250244,"711":0.9223399758338928,"712":-1.7909468412399292,"713":-0.4425773620605469,"714":5.614632606506348,"715":0.6305406093597412,"716":2.816836357116699,"717":1.403041958808899,"718":-0.4280201494693756,"719":1.3999357223510742,"720":1.5066337585449219,"721":-0.5545215010643005,"722":4.645142555236816,"723":-3.840148687362671,"724":0.30143192410469055,"725":5.2253828048706055,"726":4.9990339279174805,"727":-6.493671417236328,"728":0.8134568929672241,"729":-2.44370698928833,"730":-6.638508319854736,"731":8.707894325256348,"732":2.748570203781128,"733":-1.2432786226272583,"734":0.25081175565719604,"735":9.464902877807617,"736":0.2523862421512604,"737":-3.8586490154266357,"738":4.866151809692383,"739":-5.02283239364624,"740":6.518844127655029,"741":-5.672478675842285,"742":-4.954128742218018,"743":4.657597541809082,"744":2.748706102371216,"745":1.7501599788665771,"746":-3.8853230476379395,"747":-1.0990504026412964,"748":-5.50848913192749,"749":-7.4148149490356445,"750":6.8743062019348145,"751":5.35830020904541,"752":-6.7464704513549805,"753":-2.327401638031006,"754":3.9336466789245605,"755":-3.884589433670044,"756":-1.5888164043426514,"757":-3.110006093978882,"758":6.643758773803711,"759":-0.030601801350712776,"760":-3.4379236698150635,"761":-5.1975178718566895,"762":-15.782144546508789,"763":-11.51684284210205,"764":-3.883704423904419,"765":-2.026540756225586,"766":-9.01659870147705,"767":0.7140781283378601,"768":1.2628110647201538,"769":7.382175922393799,"770":7.7182512283325195,"771":0.3189070224761963,"772":-14.85791015625,"773":6.3844218254089355,"774":23.933576583862305,"775":0.22089309990406036,"776":8.631961822509766,"777":7.079660892486572,"778":-1.4027037620544434,"779":2.7761120796203613,"780":-5.167691230773926,"781":-1.827009677886963,"782":-2.714416742324829,"783":4.087262153625488,"784":0.5305250883102417,"785":9.117415428161621,"786":4.548272609710693,"787":7.294023513793945,"788":-3.187371015548706,"789":0.17229124903678894,"790":5.782763957977295,"791":0.0814313143491745,"792":15.574353218078613,"793":1.3027856349945068,"794":3.2530064582824707,"795":0.9496908783912659,"796":1.1799362897872925,"797":-8.238701820373535,"798":0.031405746936798096,"799":-0.2204984575510025,"800":-1.8905055522918701,"801":-2.0002589225769043,"802":-1.2466336488723755,"803":0.22423145174980164,"804":-0.7151629328727722,"805":0.2686106860637665,"806":-0.4602743089199066,"807":0.493455708026886,"808":-5.522378444671631,"809":2.3669424057006836,"810":-1.3168178796768188,"811":3.7858808040618896,"812":0.10143165290355682,"813":2.852043628692627,"814":1.6980631351470947,"815":3.208329916000366,"816":-0.922426700592041,"817":1.4239234924316406,"818":4.750627040863037,"819":-1.4067484140396118,"820":1.8279242515563965,"821":4.293900489807129,"822":1.5938514471054077,"823":-2.302685022354126,"824":-1.7270865440368652,"825":2.3192365169525146,"826":-0.5543362498283386,"827":5.471363544464111,"828":-0.4349706470966339,"829":2.8792006969451904,"830":-2.3027710914611816,"831":-4.435831069946289,"832":-2.115633249282837,"833":0.9528140425682068,"834":-2.857403039932251,"835":0.07745610922574997,"836":9.037849426269531,"837":-4.890927314758301,"838":0.11721733212471008,"839":-19.40499496459961,"840":-7.082616329193115,"841":-8.458587646484375,"842":-0.3632825016975403,"843":-9.529553413391113,"844":-2.892125129699707,"845":-0.06132785603404045,"846":6.909219264984131,"847":9.408590316772461,"848":14.37263011932373,"849":4.562619209289551,"850":-7.862955570220947,"851":-12.102140426635742,"852":3.6872262954711914,"853":4.566690444946289,"854":2.2212328910827637,"855":-1.6400824785232544,"856":3.4006621837615967,"857":6.086054801940918,"858":5.722647666931152,"859":-11.43027400970459,"860":-17.53984832763672,"861":-2.680722236633301,"862":5.484795093536377,"863":3.9055004119873047,"864":12.076900482177734,"865":-1.2875858545303345,"866":-5.356194019317627,"867":-6.870464324951172,"868":7.941145420074463,"869":0.9875527620315552,"870":3.075727939605713,"871":-3.5683701038360596,"872":8.548382759094238,"873":7.5134196281433105,"874":0.7683623433113098,"875":0.4512927830219269,"876":2.7145345211029053,"877":-1.7612775564193726,"878":8.19882583618164,"879":3.338197708129883,"880":9.35827922821045,"881":6.145711898803711,"882":0.008191743865609169,"883":-2.8766391277313232,"884":5.024139881134033,"885":3.2666068077087402,"886":0.08385609090328217,"887":-2.8491172790527344,"888":1.4108896255493164,"889":2.1288933753967285,"890":0.5164456963539124,"891":-0.27452149987220764,"892":-4.54966402053833,"893":-6.56810998916626,"894":10.775940895080566,"895":-1.2090116739273071,"896":4.464882850646973,"897":-3.8298020362854004,"898":2.7089521884918213,"899":-2.645810604095459,"900":2.687967538833618,"901":0.5537871718406677,"902":7.318181991577148,"903":1.2764055728912354,"904":-2.953468084335327,"905":0.88727867603302,"906":3.083233118057251,"907":4.219183921813965,"908":1.2417347431182861,"909":-2.5180182456970215,"910":-5.435025215148926,"911":4.436023712158203,"912":-0.7391146421432495,"913":-2.911879301071167,"914":2.18945050239563,"915":-1.2276279926300049,"916":0.4543461203575134,"917":-3.0672101974487305,"918":-0.10612386465072632,"919":1.985371708869934,"920":-1.0302140712738037,"921":-0.6665792465209961,"922":4.940067291259766,"923":-1.1853362321853638,"924":-2.8214111328125,"925":-0.3719010651111603,"926":1.5929176807403564,"927":-1.7530577182769775,"928":3.4963479042053223,"929":-0.7093643546104431,"930":0.031078331172466278,"931":1.6195653676986694,"932":6.0487260818481445,"933":2.751283645629883,"934":-0.8785396218299866,"935":-0.4892566204071045,"936":-0.3865753710269928,"937":-1.0109097957611084,"938":-2.53706431388855,"939":4.22304105758667,"940":-2.9820590019226074,"941":-3.141846179962158,"942":-1.0304845571517944,"943":-3.258237838745117,"944":2.3507473468780518,"945":0.9287523627281189,"946":3.833880662918091,"947":0.4746147692203522,"948":-1.156340479850769,"949":-0.7729004621505737,"950":-2.7781171798706055,"951":7.096926689147949,"952":3.0251710414886475,"953":-1.4727296829223633,"954":5.5247111320495605,"955":5.119441032409668,"956":3.1360385417938232,"957":-3.178968667984009,"958":9.279853820800781,"959":-0.43263715505599976,"960":-2.70292329788208,"961":0.18943633139133453,"962":7.3013596534729,"963":-0.6234284043312073,"964":1.726548671722412,"965":1.1050220727920532,"966":-2.54491925239563,"967":-3.1008479595184326,"968":0.26219040155410767,"969":0.30288293957710266,"970":-3.122892141342163,"971":-4.51935338973999,"972":0.7223048806190491,"973":-0.5675753951072693,"974":-2.800602912902832,"975":3.4997377395629883,"976":3.7214694023132324,"977":-5.257020473480225,"978":2.3506569862365723,"979":-2.449474811553955,"980":-0.9542728066444397,"981":-0.7129645943641663,"982":-4.222259044647217,"983":2.900925636291504,"984":-1.6599938869476318,"985":0.9928693771362305,"986":2.0000667572021484,"987":1.044515609741211,"988":0.8676283955574036,"989":-3.85259747505188,"990":-3.4949588775634766,"991":-8.954641342163086,"992":2.646897554397583,"993":-7.020943641662598,"994":-1.3757461309432983,"995":-1.8288809061050415,"996":-3.9480814933776855,"997":-8.18474292755127,"998":-0.38150936365127563,"999":0.8135160803794861,"1000":-6.578057289123535,"1001":5.895515441894531,"1002":1.0362770557403564,"1003":-1.2931104898452759,"1004":-6.775900363922119,"1005":2.258718490600586,"1006":-0.11474955081939697,"1007":2.9137470722198486,"1008":6.4568376541137695,"1009":10.545666694641113,"1010":2.896296501159668,"1011":-2.7901270389556885,"1012":-0.7550868391990662,"1013":-6.66663122177124,"1014":3.2787437438964844,"1015":7.5984416007995605,"1016":-3.8609910011291504,"1017":-1.305580735206604,"1018":-4.758164405822754,"1019":4.701394081115723,"1020":3.2498674392700195,"1021":9.206151008605957,"1022":0.5389358997344971,"1023":1.8719875812530518,"1024":0.3492768108844757,"1025":4.93946647644043,"1026":11.707817077636719,"1027":4.462405204772949,"1028":2.5693986415863037,"1029":18.99070167541504,"1030":-9.26541805267334,"1031":0.0387350395321846,"1032":-0.5368305444717407,"1033":4.075869560241699,"1034":-4.036187171936035,"1035":6.52078104019165,"1036":-8.450453758239746,"1037":6.409985542297363,"1038":12.720049858093262,"1039":13.613232612609863,"1040":-2.478158712387085,"1041":18.287872314453125,"1042":2.211448907852173,"1043":-1.55436110496521,"1044":-8.645559310913086,"1045":-2.0714447498321533,"1046":0.1892690807580948,"1047":-7.768061637878418,"1048":7.8125481605529785,"1049":2.772077798843384,"1050":5.133107662200928,"1051":-2.8155157566070557,"1052":-8.755242347717285,"1053":-10.602482795715332,"1054":4.770501613616943,"1055":12.289515495300293,"1056":-7.238525867462158,"1057":-4.0931220054626465,"1058":-5.946953773498535,"1059":-3.372525691986084,"1060":-7.347343921661377,"1061":-9.009918212890625,"1062":-6.911768436431885,"1063":-7.074579238891602,"1064":1.6849572658538818,"1065":-3.880402088165283,"1066":-1.5812280178070068,"1067":-7.537688255310059,"1068":-4.478755474090576,"1069":1.0868381261825562,"1070":-5.969311714172363,"1071":0.5743562579154968,"1072":-5.259213447570801,"1073":8.418050765991211,"1074":4.074175834655762,"1075":4.976898670196533,"1076":-5.578235626220703,"1077":0.49853232502937317,"1078":9.670123100280762,"1079":2.704350233078003,"1080":-2.819984197616577,"1081":1.0347875356674194,"1082":-3.410597324371338,"1083":-3.543530225753784,"1084":-0.6791307926177979,"1085":-1.5439971685409546,"1086":-1.2299381494522095,"1087":-4.181399345397949,"1088":9.563892364501953,"1089":10.804715156555176,"1090":-3.0399317741394043,"1091":-2.208653688430786,"1092":3.361572504043579,"1093":4.517068386077881,"1094":1.9205479621887207,"1095":0.8899515867233276,"1096":0.5921016931533813,"1097":-19.037723541259766,"1098":-6.188529968261719,"1099":8.862299919128418,"1100":1.281434416770935,"1101":-11.629851341247559,"1102":-5.604551792144775,"1103":1.8116331100463867,"1104":-2.4717965126037598,"1105":-2.724672794342041,"1106":-3.8865299224853516,"1107":6.2903852462768555,"1108":-6.226786136627197,"1109":5.291796684265137,"1110":5.660739421844482,"1111":-9.196703910827637,"1112":-7.159148693084717,"1113":-7.1509318351745605,"1114":1.8394638299942017,"1115":-7.309779167175293,"1116":-10.956432342529297,"1117":-5.157741546630859,"1118":1.0957884788513184,"1119":1.7332167625427246,"1120":-9.642352104187012,"1121":-1.7106014490127563,"1122":-0.7104113698005676,"1123":-5.278140068054199,"1124":-5.265740871429443,"1125":2.83085036277771,"1126":-4.102975368499756,"1127":4.049190044403076,"1128":6.1838836669921875,"1129":-0.23001156747341156,"1130":0.9052913784980774,"1131":-8.063667297363281,"1132":6.216628074645996,"1133":-2.4065566062927246,"1134":-2.6376829147338867,"1135":3.332622528076172,"1136":-3.4678637981414795,"1137":2.785346508026123,"1138":-4.032179355621338,"1139":10.3132963180542,"1140":-4.082979202270508,"1141":-5.253246784210205,"1142":11.55275821685791,"1143":0.8418678045272827,"1144":10.021455764770508,"1145":10.77537727355957,"1146":7.733504772186279,"1147":-8.006796836853027,"1148":4.9030866622924805,"1149":2.962383508682251,"1150":6.467662811279297,"1151":-0.6247501969337463,"1152":-6.158564567565918,"1153":-10.401273727416992,"1154":-0.8914207816123962,"1155":-5.931487083435059,"1156":-2.270612955093384,"1157":-0.43509405851364136,"1158":1.012695074081421,"1159":-4.335301876068115,"1160":-9.066330909729004,"1161":-1.964156150817871,"1162":0.8278060555458069,"1163":-6.936985015869141,"1164":-3.5283336639404297,"1165":9.339706420898438,"1166":5.049386978149414,"1167":-18.998931884765625,"1168":8.34865665435791,"1169":-7.314700603485107,"1170":5.464484214782715,"1171":-7.042896270751953,"1172":-4.254283905029297,"1173":0.9640967845916748,"1174":4.00410795211792,"1175":-4.361090183258057,"1176":5.77392053604126,"1177":-5.167743682861328,"1178":-8.827767372131348,"1179":-5.65947961807251,"1180":11.959059715270996,"1181":2.959078550338745,"1182":2.972611665725708,"1183":-2.5744948387145996,"1184":9.097774505615234,"1185":2.2379119396209717,"1186":-5.814287185668945,"1187":-6.037085056304932,"1188":-0.6310919523239136,"1189":-3.484440803527832,"1190":8.657305717468262,"1191":8.053990364074707,"1192":-5.449592590332031,"1193":-3.946955442428589,"1194":-6.887190818786621,"1195":-3.043739080429077,"1196":1.1862164735794067,"1197":-8.524908065795898,"1198":-5.978536128997803,"1199":2.317974090576172,"1200":-12.292671203613281,"1201":13.540472984313965,"1202":0.9587318301200867,"1203":6.248696327209473,"1204":0.10276192426681519,"1205":-5.222698211669922,"1206":3.609813928604126,"1207":-13.135443687438965,"1208":15.520296096801758,"1209":-11.058972358703613,"1210":4.827960968017578,"1211":9.904603958129883,"1212":13.89773941040039,"1213":-1.2662615776062012,"1214":-1.1190533638000488,"1215":3.5742645263671875,"1216":0.4607323706150055,"1217":-4.799093723297119,"1218":-0.9358891248703003,"1219":1.4331847429275513,"1220":0.040912508964538574,"1221":-1.9089338779449463,"1222":-0.09518086910247803,"1223":2.564859390258789,"1224":-1.7693945169448853,"1225":2.324572801589966,"1226":-0.15107983350753784,"1227":-0.7329188585281372,"1228":0.43108224868774414,"1229":4.375456809997559,"1230":-2.7165770530700684,"1231":1.9540488719940186,"1232":2.210031032562256,"1233":5.533185005187988,"1234":-2.7031569480895996,"1235":4.25962495803833,"1236":4.2185139656066895,"1237":1.8529952764511108,"1238":0.9812416434288025,"1239":-1.0009880065917969,"1240":3.027791976928711,"1241":-7.260350704193115,"1242":3.5427730083465576,"1243":4.846074104309082,"1244":-3.738875389099121,"1245":11.056889533996582,"1246":-7.7800092697143555,"1247":3.376235008239746,"1248":-1.1589186191558838,"1249":3.811631679534912,"1250":-2.2818567752838135,"1251":-0.7450848817825317,"1252":-14.849689483642578,"1253":8.922060012817383,"1254":-1.4216294288635254,"1255":4.991894721984863,"1256":-2.0416791439056396,"1257":-3.5852346420288086,"1258":7.478999137878418,"1259":0.8477944731712341,"1260":5.162349224090576,"1261":0.6330556273460388,"1262":2.1910994052886963,"1263":-3.508047580718994,"1264":-4.011776924133301,"1265":4.90922737121582,"1266":-5.825619220733643,"1267":5.243856906890869,"1268":-0.42562928795814514,"1269":10.308223724365234,"1270":9.942811012268066,"1271":12.91080379486084,"1272":4.335509300231934,"1273":-4.525326728820801,"1274":10.570685386657715,"1275":6.79229211807251,"1276":-0.9805912971496582,"1277":-0.09031571447849274,"1278":1.07754385471344,"1279":-2.4716362953186035,"1280":5.903136253356934,"1281":9.504785537719727,"1282":0.6051509380340576,"1283":2.4289398193359375,"1284":-2.1801486015319824,"1285":-0.8508511781692505,"1286":2.266486406326294,"1287":6.606924533843994,"1288":-2.078066110610962,"1289":-4.1294732093811035,"1290":3.536508083343506,"1291":6.189512252807617,"1292":5.54904842376709,"1293":-1.3002467155456543,"1294":-0.4305161237716675,"1295":1.2251399755477905,"1296":1.4008783102035522,"1297":-0.7564730048179626,"1298":-0.14970292150974274,"1299":0.4039818048477173,"1300":1.9262075424194336,"1301":3.0854032039642334,"1302":1.8565974235534668,"1303":1.1925832033157349,"1304":2.3716533184051514,"1305":3.553642511367798,"1306":-3.1796584129333496,"1307":-3.2014174461364746,"1308":1.7648539543151855,"1309":1.6207449436187744,"1310":0.34421372413635254,"1311":-2.27864933013916,"1312":6.491869926452637,"1313":4.0018815994262695,"1314":3.4015140533447266,"1315":-5.666325092315674,"1316":-1.8014779090881348,"1317":-2.1348392963409424,"1318":-0.43850958347320557,"1319":-2.581166982650757,"1320":3.7511894702911377,"1321":-2.984722137451172,"1322":-5.791358470916748,"1323":-2.1242618560791016,"1324":0.9120786190032959,"1325":2.466398000717163,"1326":-0.5888320803642273,"1327":-1.6464474201202393,"1328":0.1371862292289734,"1329":1.4281048774719238,"1330":0.7131869196891785,"1331":8.463204383850098,"1332":6.2920355796813965,"1333":-3.063817024230957,"1334":8.784647941589355,"1335":3.87933087348938,"1336":12.670236587524414,"1337":-4.033020496368408,"1338":0.04920473322272301,"1339":-0.505280077457428,"1340":-11.589213371276855,"1341":-2.050626516342163,"1342":6.107405185699463,"1343":5.030604362487793,"1344":-7.644639015197754,"1345":3.9667770862579346,"1346":-8.812167167663574,"1347":-9.016831398010254,"1348":-0.750171959400177,"1349":-17.324655532836914,"1350":-2.9860012531280518,"1351":-0.1891927868127823,"1352":-5.246102809906006,"1353":7.083166599273682,"1354":-2.5091910362243652,"1355":5.462843894958496,"1356":11.582880020141602,"1357":0.11221537739038467,"1358":6.045464038848877,"1359":0.4725341498851776,"1360":7.676466464996338,"1361":-2.6394386291503906,"1362":-6.0543622970581055,"1363":6.386604309082031,"1364":-1.6091084480285645,"1365":-7.8415374755859375,"1366":0.8628408312797546,"1367":8.76520824432373,"1368":-2.6684212684631348,"1369":0.7281485199928284,"1370":0.025714928284287453,"1371":-3.65696382522583,"1372":-0.49608325958251953,"1373":-0.6284144520759583,"1374":-2.984894275665283,"1375":-4.457672595977783,"1376":-1.085846185684204,"1377":-1.7204416990280151,"1378":-1.3146681785583496,"1379":-0.6300015449523926,"1380":-1.6251386404037476,"1381":-1.043702483177185,"1382":-2.1742842197418213,"1383":-2.3634233474731445,"1384":-1.0267024040222168,"1385":2.0494496822357178,"1386":1.4598993062973022,"1387":4.0590643882751465,"1388":-4.451220989227295,"1389":4.991916179656982,"1390":-0.8251331448554993,"1391":0.016905341297388077,"1392":1.5716729164123535,"1393":-0.5684378743171692,"1394":-1.8079274892807007,"1395":1.677377462387085,"1396":-2.941865921020508,"1397":-0.3523140847682953,"1398":0.41626060009002686,"1399":2.668015480041504,"1400":-0.07023518532514572,"1401":1.9363453388214111,"1402":1.1407932043075562,"1403":2.712204694747925,"1404":1.6389371156692505,"1405":0.2986443340778351,"1406":0.45582470297813416,"1407":0.2939196825027466,"1408":-0.15699443221092224,"1409":-0.22483080625534058,"1410":0.19578950107097626,"1411":0.1742016077041626,"1412":1.2445616722106934,"1413":-0.5271316766738892,"1414":2.343632936477661,"1415":-1.308947205543518,"1416":-1.8639914989471436,"1417":-2.01520037651062,"1418":0.9012752175331116,"1419":1.6953800916671753,"1420":-1.7515993118286133,"1421":-1.1929185390472412,"1422":-1.591914176940918,"1423":0.6332034468650818,"1424":-1.487362265586853,"1425":-4.844225883483887,"1426":-0.6803116202354431,"1427":-2.204261064529419,"1428":-2.0263540744781494,"1429":3.0013482570648193,"1430":-0.11943898350000381,"1431":1.509293794631958,"1432":1.450689435005188,"1433":-0.8343586325645447,"1434":3.8417136669158936,"1435":-0.04848446696996689,"1436":-0.9562874436378479,"1437":-0.36261680722236633,"1438":-1.3275022506713867,"1439":0.8214747309684753,"1440":0.5894741415977478,"1441":-2.4409990310668945,"1442":-0.7391473650932312,"1443":0.03607271611690521,"1444":-0.0058503830805420876,"1445":-0.05357873812317848,"1446":0.05786257982254028,"1447":-0.000008171463377948385,"1448":0.05093010514974594,"1449":-0.046118102967739105,"1450":-0.04423888772726059,"1451":-0.03807438164949417,"1452":-0.024845033884048462,"1453":0.0578247606754303,"1454":0.05736050754785538,"1455":0.03454606235027313,"1456":0.022204307839274406,"1457":0.004775951616466045,"1458":0.0442810021340847,"1459":0.03267647325992584,"1460":-0.0505424328148365,"1461":0.024511903524398804,"1462":-0.05498848482966423,"1463":0.05065353959798813,"1464":-0.01054328866302967,"1465":-0.037320129573345184,"1466":-0.03108237311244011,"1467":0.05367902293801308,"1468":-0.006154147908091545,"1469":-0.016673995181918144,"1470":-0.004168811719864607,"1471":-0.014376817271113396,"1472":-0.0499313548207283,"1473":0.02155025489628315,"1474":-0.0470009371638298,"1475":-0.007564985193312168,"1476":-0.0049902210012078285,"1477":-0.040789466351270676,"1478":-0.05730190500617027,"1479":-0.019409289583563805,"1480":-0.026782875880599022,"1481":-0.019408926367759705}},"hiddenLayers":[{"inputMatrix":{"rows":20,"columns":38,"weights":{"0":0.352531373500824,"1":0.599741518497467,"2":-1.5769201517105103,"3":0.6608720421791077,"4":-0.5262147188186646,"5":-0.0161352027207613,"6":-0.23730319738388062,"7":-2.3204948902130127,"8":-2.0870258808135986,"9":1.5248017311096191,"10":-1.1956051588058472,"11":-0.42594781517982483,"12":-1.7477089166641235,"13":2.6449060440063477,"14":1.4238108396530151,"15":3.481519937515259,"16":0.0947493240237236,"17":1.4678966999053955,"18":0.544481635093689,"19":0.08512046188116074,"20":-0.8631693124771118,"21":1.928960919380188,"22":1.7586839199066162,"23":1.4380199909210205,"24":2.419764995574951,"25":1.1953147649765015,"26":-0.7397127747535706,"27":2.2276740074157715,"28":-1.249791145324707,"29":1.8955124616622925,"30":-0.0468362532556057,"31":0.964658796787262,"32":-0.6385640501976013,"33":-0.6748864650726318,"34":-3.131974697113037,"35":-0.2971469759941101,"36":0.7523201107978821,"37":-1.3921749591827393,"38":-1.9094455242156982,"39":0.9732228517532349,"40":-1.9418452978134155,"41":-0.6352010369300842,"42":2.739016056060791,"43":-1.4553300142288208,"44":-0.3417258560657501,"45":0.1304265856742859,"46":-0.8798996210098267,"47":3.9822402000427246,"48":3.1660234928131104,"49":4.810237884521484,"50":2.191730260848999,"51":-0.23510317504405975,"52":-0.5437444448471069,"53":-0.5562606453895569,"54":1.7217391729354858,"55":1.5985801219940186,"56":0.39922651648521423,"57":-0.8362988233566284,"58":1.0178558826446533,"59":2.2485766410827637,"60":0.6895649433135986,"61":0.244723379611969,"62":-2.0571086406707764,"63":0.3788782060146332,"64":3.3128490447998047,"65":3.8488457202911377,"66":-1.1631255149841309,"67":-0.3940770924091339,"68":-2.4403250217437744,"69":0.5135719776153564,"70":1.6442333459854126,"71":-1.2328864336013794,"72":0.011773020029067993,"73":1.8116416931152344,"74":0.13804666697978973,"75":-1.0939744710922241,"76":0.9974608421325684,"77":-0.7091336250305176,"78":-0.1790332794189453,"79":-0.7763684391975403,"80":0.1666192263364792,"81":-3.5936005115509033,"82":-0.2658592462539673,"83":0.7803296446800232,"84":0.355433851480484,"85":3.050302267074585,"86":1.5745524168014526,"87":2.635071277618408,"88":0.10794375091791153,"89":2.0270726680755615,"90":2.0825769901275635,"91":2.7295846939086914,"92":0.2720663845539093,"93":0.00749843567609787,"94":3.4978315830230713,"95":0.7833555936813354,"96":1.7584024667739868,"97":0.2750905156135559,"98":2.84719181060791,"99":-1.7492127418518066,"100":1.8244234323501587,"101":-0.24175375699996948,"102":-1.4790785312652588,"103":-0.27817264199256897,"104":0.4980016052722931,"105":2.401395082473755,"106":0.2819119989871979,"107":0.03881088271737099,"108":4.201958179473877,"109":-0.2448267787694931,"110":-1.2020705938339233,"111":0.4192885756492615,"112":-0.012599579989910126,"113":0.08446655422449112,"114":1.4664465188980103,"115":-2.031712293624878,"116":-0.15091989934444427,"117":0.2126162201166153,"118":-0.4635615348815918,"119":-0.49875369668006897,"120":-0.6431431770324707,"121":1.2475217580795288,"122":-0.9008617401123047,"123":1.119438648223877,"124":0.9695755839347839,"125":0.7310477495193481,"126":1.1844731569290161,"127":3.1713194847106934,"128":-0.7508325576782227,"129":-0.9873329401016235,"130":2.533108949661255,"131":0.49067792296409607,"132":-0.37511226534843445,"133":-1.1553797721862793,"134":2.481804847717285,"135":2.07694411277771,"136":-0.43749189376831055,"137":-0.34317445755004883,"138":-2.371131420135498,"139":0.9220399856567383,"140":1.7916253805160522,"141":1.1411551237106323,"142":1.356346845626831,"143":2.7862966060638428,"144":-2.748126745223999,"145":-0.8790928721427917,"146":1.7993311882019043,"147":-1.0462536811828613,"148":0.9763065576553345,"149":-1.7209268808364868,"150":-0.27848851680755615,"151":1.6482038497924805,"152":0.006882394663989544,"153":0.804804265499115,"154":-1.368955373764038,"155":2.633457660675049,"156":-4.563189506530762,"157":-0.7394139170646667,"158":-3.098172903060913,"159":0.6324459314346313,"160":-0.5734777450561523,"161":1.143550157546997,"162":-1.0270428657531738,"163":-0.2739395797252655,"164":-2.184100389480591,"165":-1.7902040481567383,"166":0.8952619433403015,"167":-0.15664026141166687,"168":1.2040411233901978,"169":0.6628581881523132,"170":1.4879305362701416,"171":1.5142472982406616,"172":-1.8348777294158936,"173":0.3881117105484009,"174":-0.054025597870349884,"175":1.8904519081115723,"176":1.5073565244674683,"177":0.03832428902387619,"178":-2.0620453357696533,"179":1.7582335472106934,"180":-1.1476722955703735,"181":-0.436335951089859,"182":0.9262470006942749,"183":0.568350613117218,"184":-0.511323869228363,"185":-1.7140918970108032,"186":-0.8787351250648499,"187":3.149165630340576,"188":1.6820240020751953,"189":-2.9280409812927246,"190":-0.8827942609786987,"191":0.642202615737915,"192":3.4750301837921143,"193":-2.693966865539551,"194":1.7799409627914429,"195":1.8735495805740356,"196":1.5789941549301147,"197":-0.17003770172595978,"198":4.050338268280029,"199":-1.9974902868270874,"200":0.15681688487529755,"201":-0.008625641465187073,"202":1.0035717487335205,"203":-0.9719192981719971,"204":0.49444320797920227,"205":-0.037742484360933304,"206":-3.7738544940948486,"207":0.4388495087623596,"208":0.9961907267570496,"209":1.4254151582717896,"210":0.07108407467603683,"211":-0.5434182286262512,"212":-1.5388675928115845,"213":-2.5199174880981445,"214":1.5371102094650269,"215":-2.6395108699798584,"216":-0.06156942620873451,"217":-1.6212540864944458,"218":-1.231105923652649,"219":1.9261045455932617,"220":-0.7969974279403687,"221":2.3178532123565674,"222":-0.07958921045064926,"223":0.41859278082847595,"224":0.5080029368400574,"225":-1.3833916187286377,"226":-2.585357904434204,"227":1.8310506343841553,"228":2.131875991821289,"229":-0.4666966199874878,"230":2.4639925956726074,"231":0.8019978404045105,"232":-0.7067400813102722,"233":-2.9979195594787598,"234":0.6525430679321289,"235":1.4874213933944702,"236":1.1013351678848267,"237":1.840137004852295,"238":-0.09777200222015381,"239":-0.6034135818481445,"240":-2.319948196411133,"241":1.699511170387268,"242":1.8400452136993408,"243":1.6553877592086792,"244":1.3373122215270996,"245":0.43362724781036377,"246":2.591505765914917,"247":1.1567589044570923,"248":0.24630427360534668,"249":1.7825698852539062,"250":2.0589652061462402,"251":-1.0915359258651733,"252":2.9764866828918457,"253":-3.539716958999634,"254":-2.4825615882873535,"255":1.934145450592041,"256":-0.11304761469364166,"257":0.9597668051719666,"258":-0.6967222094535828,"259":0.5380188822746277,"260":1.2781206369400024,"261":0.5901926159858704,"262":-1.255216121673584,"263":-0.5591174960136414,"264":-0.8346731662750244,"265":1.5978646278381348,"266":-2.1144917011260986,"267":0.9278119802474976,"268":-0.20052266120910645,"269":-1.2597639560699463,"270":-0.6287868022918701,"271":-0.1700160652399063,"272":-1.0479599237442017,"273":0.9153432846069336,"274":-0.39007869362831116,"275":-0.6892510652542114,"276":2.2502171993255615,"277":-0.8462494611740112,"278":-1.9547717571258545,"279":-2.510779857635498,"280":2.1113827228546143,"281":-1.3689870834350586,"282":0.30015113949775696,"283":0.5346820950508118,"284":1.8179835081100464,"285":0.1330375373363495,"286":-1.1740775108337402,"287":-0.05772439390420914,"288":-0.58648681640625,"289":1.3434841632843018,"290":-0.5815770626068115,"291":2.2208354473114014,"292":-1.557301640510559,"293":1.0742149353027344,"294":-3.095886707305908,"295":-1.556380033493042,"296":2.389998197555542,"297":-0.5623908638954163,"298":0.573062539100647,"299":-0.057030294090509415,"300":1.1717756986618042,"301":1.5427361726760864,"302":-0.21975357830524445,"303":-2.364649534225464,"304":3.100313186645508,"305":0.8411307334899902,"306":-2.481196403503418,"307":-0.7221821546554565,"308":-2.438724994659424,"309":-2.3954150676727295,"310":-1.943969488143921,"311":-1.3067008256912231,"312":-5.3965067863464355,"313":0.8194385766983032,"314":0.8476271033287048,"315":1.8330450057983398,"316":-2.3133435249328613,"317":3.008470058441162,"318":0.32499048113822937,"319":1.4819161891937256,"320":0.3777630031108856,"321":-0.08222955465316772,"322":0.7442556023597717,"323":2.3209359645843506,"324":-1.8034677505493164,"325":2.2546229362487793,"326":0.5631342530250549,"327":-1.375306248664856,"328":1.2221466302871704,"329":-0.49824628233909607,"330":-1.672817349433899,"331":2.94158673286438,"332":-0.770000696182251,"333":1.250880479812622,"334":-2.5044524669647217,"335":1.0059479475021362,"336":2.650608539581299,"337":1.230375051498413,"338":-1.7316296100616455,"339":2.021820306777954,"340":1.6957160234451294,"341":-1.006564736366272,"342":-1.252490520477295,"343":0.14488919079303741,"344":-1.3022176027297974,"345":-0.39722615480422974,"346":-1.12821364402771,"347":-1.8130178451538086,"348":-0.5538959503173828,"349":-1.026759147644043,"350":-1.0264410972595215,"351":3.1588313579559326,"352":-1.7033945322036743,"353":0.34292641282081604,"354":-2.1087889671325684,"355":1.9838310480117798,"356":1.7385368347167969,"357":1.7840635776519775,"358":-0.7900969982147217,"359":1.6397533416748047,"360":1.403896450996399,"361":0.6177567839622498,"362":-1.9155348539352417,"363":1.2960317134857178,"364":0.8613276481628418,"365":0.8935708403587341,"366":1.7968977689743042,"367":-0.2199774980545044,"368":0.31347742676734924,"369":1.1628892421722412,"370":1.2044752836227417,"371":1.404628038406372,"372":-0.6957024931907654,"373":1.1940964460372925,"374":2.0081424713134766,"375":-0.07525389641523361,"376":-0.7794960141181946,"377":-0.13291729986667633,"378":1.1449922323226929,"379":-0.13955703377723694,"380":0.22513404488563538,"381":-2.744436740875244,"382":0.019579757004976273,"383":0.28933247923851013,"384":0.8507242202758789,"385":0.04544708505272865,"386":-1.783125877380371,"387":-2.9596304893493652,"388":-1.8823180198669434,"389":1.1854090690612793,"390":-1.0803087949752808,"391":-1.7294654846191406,"392":-1.6898707151412964,"393":0.8759595155715942,"394":2.1998281478881836,"395":5.932729721069336,"396":0.18125122785568237,"397":-0.7751162052154541,"398":2.104276180267334,"399":1.5669865608215332,"400":-2.2094173431396484,"401":0.6382235884666443,"402":0.4003128111362457,"403":0.1689542829990387,"404":1.6721681356430054,"405":-0.20166707038879395,"406":-1.373443841934204,"407":-0.2839949131011963,"408":-1.9300118684768677,"409":3.4088187217712402,"410":-1.0565757751464844,"411":1.6840028762817383,"412":2.0823676586151123,"413":-1.123655915260315,"414":-3.701303243637085,"415":0.1069352924823761,"416":0.3023543655872345,"417":1.594982385635376,"418":1.243405818939209,"419":-0.87694251537323,"420":-0.7327319979667664,"421":-1.085600733757019,"422":0.3001450300216675,"423":-1.0345348119735718,"424":0.10823379456996918,"425":1.131105899810791,"426":-0.9330729842185974,"427":-2.098741054534912,"428":2.748556613922119,"429":2.9546635150909424,"430":-1.6370829343795776,"431":0.36607781052589417,"432":1.3030030727386475,"433":2.7635581493377686,"434":1.984021544456482,"435":0.8719474077224731,"436":-1.0124175548553467,"437":-0.6442382335662842,"438":0.6721796989440918,"439":0.10587047040462494,"440":2.2868738174438477,"441":-2.631572961807251,"442":0.4519384205341339,"443":-3.2697336673736572,"444":-1.2888137102127075,"445":-0.11235053092241287,"446":-0.21894939243793488,"447":3.962784767150879,"448":-1.6632434129714966,"449":-0.44980302453041077,"450":2.03737735748291,"451":-0.5969908833503723,"452":-2.162740707397461,"453":-1.056760549545288,"454":-1.4012424945831299,"455":0.6129215955734253,"456":1.0794297456741333,"457":-2.0626890659332275,"458":-1.1990728378295898,"459":-1.924912452697754,"460":-0.6538997292518616,"461":-1.9331945180892944,"462":-2.7233073711395264,"463":-1.5465492010116577,"464":-2.4716432094573975,"465":1.1428290605545044,"466":-0.20123052597045898,"467":-0.6719266176223755,"468":0.5600155591964722,"469":0.2681193947792053,"470":-2.2584903240203857,"471":1.364324688911438,"472":1.0768316984176636,"473":2.8819375038146973,"474":-2.0702879428863525,"475":2.109496593475342,"476":3.3866751194000244,"477":4.624781131744385,"478":-0.6497844457626343,"479":-0.06745147705078125,"480":-1.0534913539886475,"481":-2.2783405780792236,"482":1.1587342023849487,"483":1.9780666828155518,"484":-2.3545422554016113,"485":0.26634681224823,"486":-0.12841500341892242,"487":-0.2058337926864624,"488":0.18941539525985718,"489":-0.9609282612800598,"490":-0.6090366244316101,"491":2.598170757293701,"492":0.8457196354866028,"493":1.8899325132369995,"494":0.9151740074157715,"495":-0.7840083241462708,"496":-0.7818729877471924,"497":-2.4825735092163086,"498":0.32235291600227356,"499":-1.4408973455429077,"500":0.18964315950870514,"501":1.902347207069397,"502":-1.8858271837234497,"503":-0.5362862944602966,"504":3.463536500930786,"505":3.57200288772583,"506":-0.5749486684799194,"507":1.9608960151672363,"508":2.9670302867889404,"509":-0.5417767763137817,"510":0.1914624720811844,"511":1.367093563079834,"512":0.4788964092731476,"513":-0.230438232421875,"514":2.8239095211029053,"515":-0.08395356684923172,"516":1.6638363599777222,"517":-2.445211410522461,"518":-0.7573043704032898,"519":-2.279726028442383,"520":-0.3974243104457855,"521":0.13699764013290405,"522":0.9334099888801575,"523":1.5264328718185425,"524":-2.7816848754882812,"525":3.5602080821990967,"526":0.49875974655151367,"527":-0.6205044984817505,"528":0.3828594982624054,"529":-1.6970288753509521,"530":-0.6837577223777771,"531":0.8372465372085571,"532":1.2165350914001465,"533":-1.5360027551651,"534":-0.2920342683792114,"535":-2.1035735607147217,"536":1.5880470275878906,"537":-2.151094913482666,"538":0.5484439730644226,"539":2.841336965560913,"540":-0.34336814284324646,"541":-1.0063130855560303,"542":1.384688377380371,"543":1.8237770795822144,"544":1.4555492401123047,"545":3.58034086227417,"546":1.497832179069519,"547":-0.9592214226722717,"548":2.404467821121216,"549":0.027325600385665894,"550":0.09311132878065109,"551":1.076836347579956,"552":2.490196943283081,"553":1.3252309560775757,"554":2.9107508659362793,"555":-2.3821394443511963,"556":-1.0151735544204712,"557":-0.8104810118675232,"558":2.0212326049804688,"559":2.9240505695343018,"560":0.6475871801376343,"561":3.536553382873535,"562":-2.198103666305542,"563":-0.46901047229766846,"564":0.06748981773853302,"565":0.3089562654495239,"566":1.515944242477417,"567":-1.342191457748413,"568":-1.8787214756011963,"569":0.6058976054191589,"570":-0.7179635167121887,"571":-1.870408296585083,"572":0.5708168745040894,"573":-0.3423653244972229,"574":-0.15140807628631592,"575":-0.7300903797149658,"576":0.5880526304244995,"577":3.0739550590515137,"578":0.04003117233514786,"579":-1.3615775108337402,"580":1.5229781866073608,"581":1.0523655414581299,"582":-1.432261347770691,"583":0.9620957970619202,"584":5.395040988922119,"585":2.1132664680480957,"586":0.47599709033966064,"587":0.4932469129562378,"588":2.0114054679870605,"589":2.8559892177581787,"590":1.4791511297225952,"591":-0.8418440818786621,"592":0.7618210315704346,"593":0.5314438939094543,"594":0.7710325717926025,"595":-2.308628797531128,"596":0.7340860366821289,"597":-0.05041880160570145,"598":-1.1861629486083984,"599":2.7147421836853027,"600":1.1682958602905273,"601":-0.04515835642814636,"602":0.4533940851688385,"603":0.11913227289915085,"604":1.149806261062622,"605":1.6056807041168213,"606":-3.9852988719940186,"607":1.2408288717269897,"608":-0.881684422492981,"609":-1.1347228288650513,"610":0.08784361928701401,"611":-0.988081693649292,"612":0.8233320116996765,"613":1.8764989376068115,"614":-0.3754085600376129,"615":4.303417205810547,"616":1.062351107597351,"617":2.459341526031494,"618":0.9455693364143372,"619":-0.10855379700660706,"620":0.5482955574989319,"621":-0.16766412556171417,"622":3.6141536235809326,"623":0.9578724503517151,"624":4.048833847045898,"625":-1.084654688835144,"626":0.6920716166496277,"627":-0.360449880361557,"628":3.0668489933013916,"629":-0.8809494376182556,"630":2.0930521488189697,"631":0.059969447553157806,"632":0.8604236245155334,"633":-0.1979939043521881,"634":-0.1907339096069336,"635":0.14896585047245026,"636":0.643091082572937,"637":1.078348994255066,"638":-3.5329439640045166,"639":-0.990694522857666,"640":-0.23989412188529968,"641":0.08312245458364487,"642":-0.470660924911499,"643":-0.33631667494773865,"644":-2.376286029815674,"645":-2.34553861618042,"646":2.78999662399292,"647":-0.5760034918785095,"648":0.4664349853992462,"649":0.9508424401283264,"650":0.7894551157951355,"651":2.2336297035217285,"652":1.6286816596984863,"653":0.651455819606781,"654":1.676018476486206,"655":-0.7123152613639832,"656":-3.3218271732330322,"657":-1.8836480379104614,"658":0.4073391258716583,"659":-0.04456813633441925,"660":-0.8583465814590454,"661":4.495824813842773,"662":0.6827887892723083,"663":-1.3174999952316284,"664":-2.4793505668640137,"665":-1.0386892557144165,"666":0.5097547769546509,"667":-1.4580003023147583,"668":0.1880439966917038,"669":0.632645845413208,"670":0.3589237630367279,"671":-2.240074634552002,"672":-0.010381484404206276,"673":-0.5692980885505676,"674":1.2489076852798462,"675":2.880582571029663,"676":-1.5391099452972412,"677":-3.035000801086426,"678":-1.0671145915985107,"679":1.780401349067688,"680":-2.55897855758667,"681":-2.0508995056152344,"682":-2.7770516872406006,"683":1.635200023651123,"684":-1.9234660863876343,"685":-0.7099772095680237,"686":-1.1095256805419922,"687":1.5138157606124878,"688":1.1268601417541504,"689":-3.9113268852233887,"690":-1.372650384902954,"691":0.041394151747226715,"692":1.7940592765808105,"693":1.3385343551635742,"694":-0.17077746987342834,"695":-3.2775933742523193,"696":-2.1475155353546143,"697":0.546384334564209,"698":2.18537974357605,"699":-1.5861239433288574,"700":-1.453041434288025,"701":2.231710195541382,"702":0.783074140548706,"703":1.6914033889770508,"704":1.3810433149337769,"705":4.614067077636719,"706":-0.6934311985969543,"707":1.3112049102783203,"708":0.15029563009738922,"709":-0.6774378418922424,"710":1.19218111038208,"711":2.0036556720733643,"712":-0.8228656649589539,"713":-3.6346330642700195,"714":1.8584214448928833,"715":-0.5902029275894165,"716":-0.9031655192375183,"717":2.292872905731201,"718":0.1568605601787567,"719":0.48804935812950134,"720":-1.8065975904464722,"721":1.1915385723114014,"722":-1.40590238571167,"723":1.6586155891418457,"724":2.3782856464385986,"725":1.744634747505188,"726":1.5077885389328003,"727":-0.21062907576560974,"728":1.5620741844177246,"729":0.8544417023658752,"730":0.458458811044693,"731":1.052650809288025,"732":1.081961750984192,"733":0.027674894779920578,"734":-0.13616880774497986,"735":1.281356930732727,"736":2.1265933513641357,"737":-0.36744362115859985,"738":-1.5448708534240723,"739":-1.297677755355835,"740":2.118868827819824,"741":-1.140886664390564,"742":-3.4526848793029785,"743":-4.715149879455566,"744":0.5054988265037537,"745":-0.13256940245628357,"746":-0.32750749588012695,"747":1.3200509548187256,"748":-0.42157280445098877,"749":-2.172858476638794,"750":2.9538321495056152,"751":1.2391811609268188,"752":2.0569164752960205,"753":-1.0097869634628296,"754":1.0989934206008911,"755":0.5962528586387634,"756":1.6863523721694946,"757":-1.5764492750167847,"758":-0.8529039621353149,"759":-0.5310160517692566}},"inputHidden":{"rows":20,"columns":20,"weights":{"0":0.3185500502586365,"1":-0.3195283114910126,"2":-1.2338347434997559,"3":1.4570727348327637,"4":-0.33440956473350525,"5":-0.5907799601554871,"6":-1.5707638263702393,"7":0.06788401305675507,"8":0.18518729507923126,"9":-1.5634791851043701,"10":-0.7291275262832642,"11":0.9871099591255188,"12":0.6508370041847229,"13":1.6220500469207764,"14":2.0140092372894287,"15":1.1195205450057983,"16":2.5414154529571533,"17":2.4520044326782227,"18":-0.049333397299051285,"19":-2.183619260787964,"20":0.51963210105896,"21":2.002488374710083,"22":5.894028186798096,"23":-0.0258561410009861,"24":-3.363921880722046,"25":-0.30024465918540955,"26":-1.0535261631011963,"27":-0.8369789719581604,"28":-2.8936235904693604,"29":-3.5622646808624268,"30":1.5576266050338745,"31":-1.3630180358886719,"32":-1.3373340368270874,"33":2.23014760017395,"34":0.4930219352245331,"35":-1.0286272764205933,"36":-0.6580761671066284,"37":-0.509061872959137,"38":0.7117726802825928,"39":2.2030677795410156,"40":-1.4573465585708618,"41":-1.2872588634490967,"42":0.5095836520195007,"43":-1.5762288570404053,"44":2.085480213165283,"45":-2.111453056335449,"46":1.2640440464019775,"47":-0.6958097815513611,"48":0.7469396591186523,"49":1.2769548892974854,"50":1.160706639289856,"51":-0.11475866287946701,"52":-0.0682331994175911,"53":0.22092285752296448,"54":-0.2754945755004883,"55":0.46359673142433167,"56":-0.9253969788551331,"57":-1.939042568206787,"58":1.641340970993042,"59":-0.02893265336751938,"60":-2.0348727703094482,"61":-0.7995526194572449,"62":1.5219528675079346,"63":-0.17700929939746857,"64":-1.8921884298324585,"65":-2.802476167678833,"66":-1.216054916381836,"67":-3.8756678104400635,"68":-1.8058140277862549,"69":-0.773828387260437,"70":-0.7945847511291504,"71":-0.6399286985397339,"72":-0.40660208463668823,"73":-0.13454222679138184,"74":-1.8725851774215698,"75":0.14507506787776947,"76":1.6029088497161865,"77":3.012838840484619,"78":-3.033933162689209,"79":-2.698077440261841,"80":2.90878963470459,"81":0.42345181107521057,"82":-2.996443033218384,"83":-1.067887783050537,"84":2.4929189682006836,"85":0.9730992913246155,"86":0.04832327365875244,"87":1.5563781261444092,"88":1.7998161315917969,"89":-0.45065146684646606,"90":-1.469186544418335,"91":1.3595458269119263,"92":-0.8181382417678833,"93":-4.444246768951416,"94":-2.868828296661377,"95":-0.2401738166809082,"96":-1.13550865650177,"97":-2.5239181518554688,"98":0.19031569361686707,"99":5.264153003692627,"100":3.680495500564575,"101":0.571387767791748,"102":2.1293845176696777,"103":0.9315733909606934,"104":-3.283609628677368,"105":-1.1932190656661987,"106":0.1643969714641571,"107":-0.740869402885437,"108":-0.3483237028121948,"109":-3.1574482917785645,"110":-3.6358799934387207,"111":-3.6687099933624268,"112":-3.5089375972747803,"113":4.079381465911865,"114":2.7246086597442627,"115":-0.7823236584663391,"116":-1.7382075786590576,"117":2.2475154399871826,"118":3.175112247467041,"119":0.03635668754577637,"120":-1.042420744895935,"121":-2.6610536575317383,"122":0.24476975202560425,"123":2.620211362838745,"124":0.6678754091262817,"125":2.15842604637146,"126":1.838866114616394,"127":-1.668385624885559,"128":0.6580504775047302,"129":0.14492100477218628,"130":0.10423749685287476,"131":-2.7879509925842285,"132":-0.4892902970314026,"133":2.0114688873291016,"134":-0.13529621064662933,"135":-0.4109112322330475,"136":-1.0873981714248657,"137":0.8099187016487122,"138":-1.1563695669174194,"139":-1.4477779865264893,"140":1.0171562433242798,"141":0.22368313372135162,"142":-1.1269805431365967,"143":-1.6575357913970947,"144":0.2118576318025589,"145":0.5734424591064453,"146":0.9777690768241882,"147":2.092458724975586,"148":0.3558647334575653,"149":-1.4192765951156616,"150":-1.8252958059310913,"151":-0.26156556606292725,"152":0.907346785068512,"153":-1.73578679561615,"154":2.2210144996643066,"155":2.107693672180176,"156":0.46369051933288574,"157":0.5195831656455994,"158":1.5961867570877075,"159":2.0309932231903076,"160":-0.5744389891624451,"161":-2.9960265159606934,"162":-2.858095169067383,"163":0.20151841640472412,"164":1.8786946535110474,"165":2.097498655319214,"166":1.9098925590515137,"167":2.200578212738037,"168":1.49022376537323,"169":-1.7056224346160889,"170":2.7766611576080322,"171":0.771298348903656,"172":-1.0047786235809326,"173":-3.0756311416625977,"174":-3.709489583969116,"175":-3.465014696121216,"176":-0.36942774057388306,"177":-1.1223922967910767,"178":-2.386249303817749,"179":1.2442959547042847,"180":-0.897702157497406,"181":1.1003493070602417,"182":0.5653022527694702,"183":-1.144931674003601,"184":0.6546542048454285,"185":0.27878913283348083,"186":-0.38155096769332886,"187":-0.24791906774044037,"188":-0.7829587459564209,"189":-0.4373193383216858,"190":-1.822396159172058,"191":-0.823621392250061,"192":-1.574375867843628,"193":-0.8254209160804749,"194":0.5910468697547913,"195":-0.32258427143096924,"196":0.24441242218017578,"197":0.4864824414253235,"198":0.989438533782959,"199":2.380875587463379,"200":-3.4961228370666504,"201":-3.7955715656280518,"202":0.2102580964565277,"203":-2.269775152206421,"204":1.615867257118225,"205":-0.16857969760894775,"206":3.285062551498413,"207":-0.5061618089675903,"208":1.0524587631225586,"209":2.6388866901397705,"210":-3.8168540000915527,"211":0.2120385766029358,"212":-3.603370189666748,"213":1.180417537689209,"214":5.158227443695068,"215":3.1375861167907715,"216":0.4250572919845581,"217":3.7730822563171387,"218":4.3850626945495605,"219":0.9734711647033691,"220":0.2991020381450653,"221":-0.6762417554855347,"222":-0.4093424081802368,"223":-3.759310245513916,"224":1.5477898120880127,"225":-0.6443645358085632,"226":3.942748785018921,"227":0.249982550740242,"228":2.363330841064453,"229":-0.9974575042724609,"230":-1.262709379196167,"231":0.8403474688529968,"232":-0.2893260419368744,"233":0.24115298688411713,"234":2.072497844696045,"235":0.29447445273399353,"236":0.3327339291572571,"237":1.0163744688034058,"238":1.9947013854980469,"239":0.603393018245697,"240":1.9416155815124512,"241":4.570129871368408,"242":-1.515370488166809,"243":2.9598381519317627,"244":-2.6104774475097656,"245":-5.295341491699219,"246":0.8727926015853882,"247":-1.5021946430206299,"248":0.9502900838851929,"249":-1.2066142559051514,"250":0.6792787313461304,"251":-1.5884894132614136,"252":1.4977847337722778,"253":-2.8783416748046875,"254":1.015784740447998,"255":-0.7915224432945251,"256":1.9539777040481567,"257":-0.3596785068511963,"258":-0.17438390851020813,"259":-5.841657638549805,"260":1.5789698362350464,"261":-1.6531387567520142,"262":-1.7788143157958984,"263":-0.9615950584411621,"264":-0.004272842779755592,"265":-0.3522700369358063,"266":1.8580337762832642,"267":-1.3403782844543457,"268":2.8069581985473633,"269":0.2406948208808899,"270":0.6648343801498413,"271":0.48715755343437195,"272":-0.7634389996528625,"273":0.5954626798629761,"274":1.4382081031799316,"275":2.100674867630005,"276":0.6305579543113708,"277":-0.6598131656646729,"278":1.1673897504806519,"279":-0.5410122275352478,"280":-0.16742072999477386,"281":-2.217137336730957,"282":1.0171217918395996,"283":0.7240510582923889,"284":0.1903691440820694,"285":-0.4990723133087158,"286":0.3390689790248871,"287":-3.6706812381744385,"288":-0.3329765200614929,"289":-0.05646108090877533,"290":0.3552579879760742,"291":-2.2333967685699463,"292":2.8198354244232178,"293":5.901694297790527,"294":0.6773906350135803,"295":-0.848080039024353,"296":2.849468469619751,"297":-0.5862781405448914,"298":-2.538595199584961,"299":-3.107161045074463,"300":-0.18009887635707855,"301":0.4810645282268524,"302":0.08623673021793365,"303":2.6357216835021973,"304":-0.4504004418849945,"305":-0.1471593976020813,"306":0.2349298894405365,"307":-1.3427666425704956,"308":-0.8312666416168213,"309":-2.3804807662963867,"310":0.10693217813968658,"311":-0.8088075518608093,"312":2.169137716293335,"313":-1.2625348567962646,"314":-0.3499976396560669,"315":0.9753581285476685,"316":-0.1106737032532692,"317":2.1900885105133057,"318":-1.5925449132919312,"319":-4.3865885734558105,"320":-0.5824328064918518,"321":1.277360439300537,"322":-2.140747308731079,"323":1.6131519079208374,"324":-0.6627734303474426,"325":1.0362855195999146,"326":2.1151628494262695,"327":1.343613624572754,"328":0.2540358304977417,"329":-2.186924695968628,"330":-8.993971824645996,"331":1.4195139408111572,"332":-2.9931228160858154,"333":0.9738045930862427,"334":-0.09045848250389099,"335":-0.9020859003067017,"336":0.30926406383514404,"337":-0.38421186804771423,"338":1.9022457599639893,"339":-0.7672156095504761,"340":-2.4133429527282715,"341":-1.4000390768051147,"342":-2.43933367729187,"343":-4.840125560760498,"344":1.561051607131958,"345":-6.092828273773193,"346":-0.22962723672389984,"347":-8.29201889038086,"348":-2.3150742053985596,"349":-0.6172006130218506,"350":1.1020188331604004,"351":3.5550899505615234,"352":-3.0667946338653564,"353":3.2590043544769287,"354":-2.289402961730957,"355":-3.5594322681427,"356":-0.019558366388082504,"357":-1.1630327701568604,"358":1.0256452560424805,"359":-3.471018075942993,"360":-6.247719764709473,"361":-2.6925387382507324,"362":2.26309871673584,"363":0.14988602697849274,"364":-3.2213492393493652,"365":3.947202444076538,"366":-1.2105129957199097,"367":0.2873072624206543,"368":1.6620243787765503,"369":-4.293598651885986,"370":-0.5235150456428528,"371":-3.5730295181274414,"372":3.9908084869384766,"373":2.0364127159118652,"374":0.3211269676685333,"375":-0.9628820419311523,"376":-1.9950473308563232,"377":2.0184285640716553,"378":-1.3038300275802612,"379":0.35566404461860657,"380":-0.03134966641664505,"381":-0.7571873664855957,"382":2.8423330783843994,"383":-3.041796922683716,"384":0.44254207611083984,"385":-0.48679420351982117,"386":1.663388729095459,"387":2.512667655944824,"388":1.7945995330810547,"389":-1.1875492334365845,"390":-0.4453607499599457,"391":1.8262509107589722,"392":-0.9048492908477783,"393":0.7520439624786377,"394":2.0689942836761475,"395":2.309648275375366,"396":-2.749530076980591,"397":-0.5072571039199829,"398":1.923511266708374,"399":5.537293434143066}},"inputBias":{"rows":20,"columns":1,"weights":{"0":-1.9002525806427002,"1":-1.3183034658432007,"2":-0.7349061369895935,"3":-0.23805183172225952,"4":-0.7026866674423218,"5":-0.5134926438331604,"6":-1.1280767917633057,"7":0.35830724239349365,"8":-0.637673020362854,"9":1.617658257484436,"10":-0.4130100607872009,"11":-0.2264421582221985,"12":-2.7954885959625244,"13":-0.29126471281051636,"14":-0.91839599609375,"15":-0.38012993335723877,"16":-0.6449084877967834,"17":1.279091238975525,"18":-0.958256721496582,"19":1.4288181066513062}},"forgetMatrix":{"rows":20,"columns":38,"weights":{"0":3.001237154006958,"1":-0.6150938272476196,"2":-0.2608090341091156,"3":0.6449084877967834,"4":-1.538958191871643,"5":0.7526705265045166,"6":-0.43740594387054443,"7":0.850866436958313,"8":-0.02228132076561451,"9":1.3055635690689087,"10":-0.9299158453941345,"11":2.00388503074646,"12":-0.17582283914089203,"13":0.2521211504936218,"14":1.2345585823059082,"15":2.946866273880005,"16":1.5061919689178467,"17":-0.21343308687210083,"18":0.7359136343002319,"19":-0.7904999852180481,"20":0.7467891573905945,"21":-0.7992112040519714,"22":1.5769448280334473,"23":-0.7931553721427917,"24":0.3313364088535309,"25":-3.292120933532715,"26":-0.2892938554286957,"27":-1.7895164489746094,"28":1.105497121810913,"29":4.25299596786499,"30":-1.6735996007919312,"31":-0.20052535831928253,"32":-0.6495863795280457,"33":-2.102125406265259,"34":-1.8764116764068604,"35":-1.1220946311950684,"36":-0.4074881672859192,"37":-0.35264381766319275,"38":0.32866305112838745,"39":-1.3004640340805054,"40":-0.06815928220748901,"41":1.3067057132720947,"42":-2.023941993713379,"43":-1.3998092412948608,"44":-0.4297392666339874,"45":0.3893607556819916,"46":1.710497260093689,"47":1.2898569107055664,"48":-1.3916547298431396,"49":0.662696897983551,"50":-2.637469530105591,"51":1.790776014328003,"52":4.322652816772461,"53":2.274890184402466,"54":1.0079712867736816,"55":-0.094586081802845,"56":5.171826362609863,"57":1.3716646432876587,"58":-0.5636278986930847,"59":0.5970261693000793,"60":-0.7892837524414062,"61":3.038254976272583,"62":1.0915684700012207,"63":-0.9415544271469116,"64":-1.3364710807800293,"65":0.8591883778572083,"66":-1.090657114982605,"67":1.4324194192886353,"68":0.08446584641933441,"69":-2.7391281127929688,"70":0.02657783031463623,"71":1.2032499313354492,"72":-0.7378942370414734,"73":0.4258395731449127,"74":-1.0489212274551392,"75":0.4930839538574219,"76":-0.6872197389602661,"77":0.4410330057144165,"78":1.4056878089904785,"79":0.530748188495636,"80":1.0176479816436768,"81":1.8099448680877686,"82":0.020836321637034416,"83":1.4680030345916748,"84":1.2883440256118774,"85":-1.5095875263214111,"86":-0.25270530581474304,"87":0.2949419617652893,"88":1.8776780366897583,"89":-0.8472643494606018,"90":-0.2681705951690674,"91":-0.2645266652107239,"92":-1.1526761054992676,"93":-1.7190998792648315,"94":-0.3196352422237396,"95":-1.4164047241210938,"96":0.541580855846405,"97":-2.428041458129883,"98":-0.4038673937320709,"99":0.12611399590969086,"100":-0.9630095958709717,"101":0.07783395797014236,"102":0.7490259408950806,"103":-1.6414833068847656,"104":0.9557129144668579,"105":0.0030892661307007074,"106":-0.2526216506958008,"107":-0.8105726838111877,"108":-1.3118152618408203,"109":1.4124488830566406,"110":0.6036669611930847,"111":-0.4009381830692291,"112":-0.916090190410614,"113":-0.297804594039917,"114":-0.5364716053009033,"115":1.920416235923767,"116":-2.201408863067627,"117":0.15085849165916443,"118":-0.9138941168785095,"119":0.7837005257606506,"120":-0.3443530201911926,"121":-1.6271034479141235,"122":0.22935257852077484,"123":0.06487152725458145,"124":0.5833697319030762,"125":1.749150037765503,"126":0.6236737966537476,"127":0.6378579139709473,"128":-0.6376122832298279,"129":0.7395513653755188,"130":-0.6938400864601135,"131":-0.3234601616859436,"132":0.9026867151260376,"133":0.31919029355049133,"134":-2.1884899139404297,"135":1.3066643476486206,"136":0.07162550836801529,"137":0.701066255569458,"138":1.122031569480896,"139":1.2664258480072021,"140":-2.297680139541626,"141":-0.48491719365119934,"142":-2.2848169803619385,"143":-0.39554929733276367,"144":2.0682897567749023,"145":-0.5240949988365173,"146":1.231070637702942,"147":-0.38151779770851135,"148":-0.5288518667221069,"149":2.3508682250976562,"150":2.7103917598724365,"151":-2.3450927734375,"152":0.26520228385925293,"153":-1.2903122901916504,"154":2.948946237564087,"155":2.2057037353515625,"156":-0.7201012969017029,"157":-0.0782642588019371,"158":1.154212474822998,"159":0.6435828804969788,"160":0.8380530476570129,"161":-1.5810754299163818,"162":-1.9894285202026367,"163":-1.9051262140274048,"164":0.8803459405899048,"165":2.0267598628997803,"166":2.0884950160980225,"167":1.0796542167663574,"168":-2.17897367477417,"169":-1.3424286842346191,"170":0.26658928394317627,"171":-1.4525388479232788,"172":-2.122175931930542,"173":-0.8845869898796082,"174":-0.3576473891735077,"175":0.7739041447639465,"176":-1.3838375806808472,"177":0.3070938289165497,"178":-0.23607049882411957,"179":-1.7279564142227173,"180":-0.06887469440698624,"181":0.6013426780700684,"182":2.578528881072998,"183":-1.9500170946121216,"184":0.21412871778011322,"185":2.467517375946045,"186":-1.0547336339950562,"187":-0.9569866061210632,"188":-0.33083561062812805,"189":0.4585534632205963,"190":-0.46844586730003357,"191":0.979568362236023,"192":-0.4798746109008789,"193":0.28688135743141174,"194":-1.450779676437378,"195":-0.411692351102829,"196":0.03753527253866196,"197":-1.5997728109359741,"198":0.7866995930671692,"199":0.22642703354358673,"200":-1.9579195976257324,"201":-1.8268287181854248,"202":-0.8569636940956116,"203":-1.89259934425354,"204":-0.8556072115898132,"205":-0.8162214756011963,"206":-1.0694652795791626,"207":0.5347996950149536,"208":0.1575981080532074,"209":1.2504018545150757,"210":-2.0721750259399414,"211":-0.315028578042984,"212":-2.8710508346557617,"213":0.12121681869029999,"214":-0.24149833619594574,"215":1.8723723888397217,"216":-0.9224650859832764,"217":-0.4080362319946289,"218":-1.4152185916900635,"219":-0.9312087893486023,"220":2.6979310512542725,"221":-1.1939715147018433,"222":-0.12848128378391266,"223":0.23357419669628143,"224":-0.051106974482536316,"225":0.3920089304447174,"226":0.17091110348701477,"227":-0.9954217076301575,"228":0.3679206073284149,"229":-3.3415367603302,"230":-1.2091786861419678,"231":-2.0210676193237305,"232":-2.228025436401367,"233":-1.5844742059707642,"234":-0.2370079755783081,"235":0.11402012407779694,"236":2.0453624725341797,"237":1.342090368270874,"238":1.9518835544586182,"239":0.2706887125968933,"240":-2.2057251930236816,"241":1.559006929397583,"242":0.9293484091758728,"243":-1.3890718221664429,"244":-1.4559011459350586,"245":1.2483079433441162,"246":0.5696938037872314,"247":3.1203086376190186,"248":-0.22195497155189514,"249":-0.2934534549713135,"250":1.0300788879394531,"251":-0.0018864989979192615,"252":0.7209073305130005,"253":-2.300952434539795,"254":0.3213596045970917,"255":1.8874346017837524,"256":-1.0688214302062988,"257":0.8261670470237732,"258":-0.08912443369626999,"259":3.0680952072143555,"260":0.42476561665534973,"261":-0.44247010350227356,"262":1.7591530084609985,"263":0.6416171789169312,"264":-0.9971013069152832,"265":0.46035850048065186,"266":-1.7016409635543823,"267":-0.6075306534767151,"268":-0.5248166918754578,"269":0.6799935698509216,"270":-1.1385483741760254,"271":-0.4924219250679016,"272":-1.7948509454727173,"273":0.4635119140148163,"274":0.6994428038597107,"275":-1.1499098539352417,"276":0.29421553015708923,"277":-2.224545955657959,"278":-1.465551733970642,"279":-1.3679612874984741,"280":0.5265728831291199,"281":-0.8228317499160767,"282":0.3417491316795349,"283":1.0071316957473755,"284":-0.37072351574897766,"285":1.3752195835113525,"286":-0.005723515525460243,"287":0.2842941880226135,"288":-0.9781795144081116,"289":1.8725967407226562,"290":1.625378131866455,"291":1.2567956447601318,"292":-0.7829882502555847,"293":1.0568768978118896,"294":-1.5851722955703735,"295":-1.8519761562347412,"296":1.3454500436782837,"297":-0.14589762687683105,"298":0.522198498249054,"299":-0.25910747051239014,"300":0.1816609501838684,"301":1.4870718717575073,"302":0.24095672369003296,"303":-0.4690074622631073,"304":-1.3099838495254517,"305":-1.1386704444885254,"306":-2.495091199874878,"307":-3.1045520305633545,"308":-0.6289467215538025,"309":-0.724644660949707,"310":-3.2009079456329346,"311":-0.5487088561058044,"312":-0.6622291207313538,"313":0.39026951789855957,"314":2.593177318572998,"315":1.508561372756958,"316":-1.7490906715393066,"317":-0.37257513403892517,"318":-1.7751030921936035,"319":-0.6752640604972839,"320":-0.4067700505256653,"321":0.8757430911064148,"322":-1.9215351343154907,"323":0.5084623694419861,"324":3.8167617321014404,"325":0.7291295528411865,"326":0.3307296335697174,"327":-2.290322780609131,"328":0.46840018033981323,"329":-0.5019298791885376,"330":0.42642658948898315,"331":2.146160840988159,"332":1.6858309507369995,"333":0.6748085618019104,"334":-0.452462762594223,"335":0.5372235178947449,"336":0.6901445388793945,"337":-1.4302921295166016,"338":-1.0058510303497314,"339":0.0955759808421135,"340":-0.3044055700302124,"341":1.1054623126983643,"342":1.0323479175567627,"343":-0.8894428014755249,"344":0.39420413970947266,"345":0.22551527619361877,"346":0.3312247395515442,"347":0.4462381601333618,"348":0.137664332985878,"349":1.125726580619812,"350":-0.09718982130289078,"351":2.118140459060669,"352":0.7372567057609558,"353":1.0819324254989624,"354":0.9172050952911377,"355":1.7721315622329712,"356":2.442695140838623,"357":2.157817840576172,"358":0.7494175434112549,"359":-0.21334689855575562,"360":1.253980278968811,"361":-1.002234935760498,"362":2.4227631092071533,"363":0.03215721994638443,"364":2.5870308876037598,"365":-2.4246466159820557,"366":-0.04480200260877609,"367":-1.9056795835494995,"368":0.41346198320388794,"369":-0.19384072721004486,"370":1.4911226034164429,"371":2.8572988510131836,"372":-2.7844858169555664,"373":1.1038851737976074,"374":0.5117344856262207,"375":-1.2874119281768799,"376":-1.2929857969284058,"377":-1.47636878490448,"378":-0.8463716506958008,"379":0.8335017561912537,"380":-2.146702289581299,"381":0.6297116875648499,"382":-1.5157688856124878,"383":-1.009798526763916,"384":2.8822755813598633,"385":0.15632709860801697,"386":0.8260703682899475,"387":-0.6004243493080139,"388":-1.409011721611023,"389":-0.6034349203109741,"390":0.9622241854667664,"391":1.7399601936340332,"392":1.534233808517456,"393":-0.3503878712654114,"394":0.3754142224788666,"395":3.322084903717041,"396":0.16882672905921936,"397":0.09470594674348831,"398":1.107486605644226,"399":-1.5370792150497437,"400":0.23403075337409973,"401":-0.44721242785453796,"402":3.7513856887817383,"403":-3.002871513366699,"404":-0.8668519854545593,"405":-1.78030264377594,"406":1.4529805183410645,"407":-0.6794950366020203,"408":0.7279675602912903,"409":2.206989049911499,"410":-2.7958714962005615,"411":2.437835693359375,"412":0.23969992995262146,"413":-1.1467245817184448,"414":-1.5766973495483398,"415":-2.0707786083221436,"416":-0.09775172173976898,"417":2.7483811378479004,"418":0.12754791975021362,"419":-1.9090824127197266,"420":0.037455085664987564,"421":0.6125598549842834,"422":-1.5080645084381104,"423":0.16544844210147858,"424":-1.1072907447814941,"425":0.026297327131032944,"426":0.6819998621940613,"427":-0.4650743305683136,"428":-1.2941524982452393,"429":-0.24614828824996948,"430":-0.6555219888687134,"431":0.11065962165594101,"432":0.3300536870956421,"433":0.8364526629447937,"434":1.338871717453003,"435":0.32733821868896484,"436":-0.29243704676628113,"437":1.3566371202468872,"438":0.8093817830085754,"439":2.8436226844787598,"440":0.38916030526161194,"441":0.4927719235420227,"442":1.3266292810440063,"443":-0.10061529278755188,"444":-0.658007025718689,"445":1.7424174547195435,"446":-1.9471156597137451,"447":-0.008912955410778522,"448":-0.05677910894155502,"449":-0.19782713055610657,"450":-0.18228964507579803,"451":-1.0972965955734253,"452":-1.4702740907669067,"453":2.7558414936065674,"454":-0.3396303355693817,"455":-1.4577629566192627,"456":-1.4201802015304565,"457":2.859081268310547,"458":1.1134941577911377,"459":-1.9521056413650513,"460":-0.7554137110710144,"461":1.1725283861160278,"462":0.6211027503013611,"463":-1.2906184196472168,"464":-0.8272896409034729,"465":-1.0226633548736572,"466":0.0079159801825881,"467":0.18673545122146606,"468":0.5650023818016052,"469":1.055086612701416,"470":0.7014829516410828,"471":3.280924081802368,"472":-1.5092904567718506,"473":-0.8952832818031311,"474":1.1188623905181885,"475":-1.0162522792816162,"476":-2.805431604385376,"477":1.3603501319885254,"478":-0.5896410346031189,"479":1.399301290512085,"480":-0.716644823551178,"481":1.1496673822402954,"482":0.08873049169778824,"483":-0.03882305324077606,"484":-0.3871040940284729,"485":-0.5568760633468628,"486":1.6047910451889038,"487":0.9587617516517639,"488":-0.6602370142936707,"489":0.3049040138721466,"490":-0.026189247146248817,"491":1.2438266277313232,"492":0.9934340715408325,"493":-2.2623350620269775,"494":-1.3784524202346802,"495":-0.7537710070610046,"496":-1.4917579889297485,"497":-1.6330389976501465,"498":-0.15720438957214355,"499":-0.6992552876472473,"500":-2.4300060272216797,"501":1.5160304307937622,"502":0.4027365446090698,"503":-1.4672731161117554,"504":-1.0281089544296265,"505":0.8634169697761536,"506":-1.5459479093551636,"507":-0.8607856631278992,"508":1.7568641901016235,"509":-0.04912322014570236,"510":-1.563856840133667,"511":2.9057488441467285,"512":0.692396342754364,"513":0.4248584508895874,"514":0.6304153203964233,"515":0.9437113404273987,"516":1.647545576095581,"517":0.2144753336906433,"518":1.8851600885391235,"519":0.09295764565467834,"520":-0.5218895077705383,"521":1.9532625675201416,"522":-0.2602634131908417,"523":0.8560715913772583,"524":0.9507388472557068,"525":0.5834558010101318,"526":0.37484678626060486,"527":1.9014666080474854,"528":-1.1723377704620361,"529":0.855419397354126,"530":-2.097322940826416,"531":-0.0024069573264569044,"532":1.8445844650268555,"533":-1.3691004514694214,"534":-0.9839006066322327,"535":-0.5358603000640869,"536":-1.0133451223373413,"537":-3.7339751720428467,"538":0.17199333012104034,"539":-2.7803401947021484,"540":-2.2342147827148438,"541":2.3773839473724365,"542":-0.07432124763727188,"543":0.01216354314237833,"544":-1.626625895500183,"545":1.5077730417251587,"546":-2.1888697147369385,"547":0.9080361723899841,"548":-1.2163220643997192,"549":1.0476537942886353,"550":-2.439192295074463,"551":3.4569106101989746,"552":0.6355056762695312,"553":3.212826728820801,"554":-1.4475277662277222,"555":-0.24041642248630524,"556":1.946003794670105,"557":-0.5772970914840698,"558":-0.1411484181880951,"559":1.889268398284912,"560":-1.9398647546768188,"561":2.327063798904419,"562":0.032522182911634445,"563":0.29123884439468384,"564":2.709780693054199,"565":-1.3379789590835571,"566":-0.702714204788208,"567":2.4806389808654785,"568":0.8035503029823303,"569":2.341893434524536,"570":-4.461490631103516,"571":-0.5558525919914246,"572":-2.597658395767212,"573":-0.0800493136048317,"574":3.1934268474578857,"575":-1.6397501230239868,"576":2.3124001026153564,"577":-0.3697878420352936,"578":-0.06555614620447159,"579":0.8870489597320557,"580":0.2814902663230896,"581":1.3984919786453247,"582":-0.29102715849876404,"583":0.9921507835388184,"584":1.8032039403915405,"585":-1.0966570377349854,"586":0.7315198183059692,"587":0.9380576014518738,"588":-0.045091886073350906,"589":0.3073132336139679,"590":0.6845508813858032,"591":3.3929803371429443,"592":1.0781649351119995,"593":-0.44586777687072754,"594":-0.5271794199943542,"595":0.7942681908607483,"596":2.51470685005188,"597":1.559882640838623,"598":-1.3019973039627075,"599":0.13821196556091309,"600":-0.03561008721590042,"601":0.22700555622577667,"602":0.6721755862236023,"603":2.702876091003418,"604":1.8085788488388062,"605":-0.906434953212738,"606":1.5607048273086548,"607":0.5592771768569946,"608":-0.24661315977573395,"609":-0.9597993493080139,"610":-0.44584524631500244,"611":0.05279460549354553,"612":-1.412231206893921,"613":0.23622474074363708,"614":0.2980956435203552,"615":3.007446527481079,"616":-1.188637375831604,"617":0.44721511006355286,"618":2.378814458847046,"619":0.1663769781589508,"620":2.2095835208892822,"621":1.070460319519043,"622":-0.5153595805168152,"623":-1.1146719455718994,"624":0.5184075236320496,"625":-0.048952557146549225,"626":-0.742469072341919,"627":0.6748160123825073,"628":3.9109649658203125,"629":-1.094059705734253,"630":-0.5103967189788818,"631":-0.5138810276985168,"632":-2.730879783630371,"633":-1.2760220766067505,"634":2.4561104774475098,"635":0.9388439059257507,"636":1.1079422235488892,"637":0.947554349899292,"638":-1.0939606428146362,"639":-0.21031104028224945,"640":-0.34190383553504944,"641":-0.6953803896903992,"642":2.3081462383270264,"643":-0.9854674339294434,"644":-1.797682523727417,"645":0.386778861284256,"646":1.0658243894577026,"647":-2.2096731662750244,"648":-0.7794182896614075,"649":1.47695791721344,"650":-0.7629833817481995,"651":-0.8046354651451111,"652":2.02614688873291,"653":0.25716930627822876,"654":-1.767220139503479,"655":0.8565726280212402,"656":-1.58433198928833,"657":-1.7052935361862183,"658":0.5882943272590637,"659":1.9708584547042847,"660":1.5190731287002563,"661":-0.30627191066741943,"662":-0.9474921822547913,"663":-1.0580272674560547,"664":3.146625518798828,"665":-0.5822180509567261,"666":-4.209434986114502,"667":0.7602543830871582,"668":-1.9819871187210083,"669":2.735708236694336,"670":0.19645769894123077,"671":0.8141117691993713,"672":-2.0908868312835693,"673":-3.179497480392456,"674":0.21276016533374786,"675":1.3734135627746582,"676":2.5600030422210693,"677":-1.8408161401748657,"678":0.1656600385904312,"679":0.6097708344459534,"680":0.9283020496368408,"681":-0.42467376589775085,"682":-0.3163963854312897,"683":-2.287022113800049,"684":-1.2335737943649292,"685":0.4883434474468231,"686":0.9630334973335266,"687":1.2166516780853271,"688":2.350261688232422,"689":1.9087411165237427,"690":0.5588398575782776,"691":1.1591744422912598,"692":0.9821865558624268,"693":0.1441144496202469,"694":-0.3428664803504944,"695":-0.9303029775619507,"696":1.2148445844650269,"697":-1.047757863998413,"698":0.4061985909938812,"699":0.3970693051815033,"700":0.04047767072916031,"701":-2.3105063438415527,"702":0.9889875650405884,"703":-1.9455130100250244,"704":0.15174978971481323,"705":-2.9517431259155273,"706":0.17076343297958374,"707":-0.6309670805931091,"708":-0.3109451234340668,"709":0.6655973196029663,"710":-0.2197035253047943,"711":-2.400453567504883,"712":1.8620615005493164,"713":-1.5207947492599487,"714":0.19769029319286346,"715":-1.4284359216690063,"716":0.21174199879169464,"717":2.9035236835479736,"718":0.4125458002090454,"719":-2.64687180519104,"720":-1.7542001008987427,"721":0.1574542075395584,"722":0.8667418360710144,"723":2.312761068344116,"724":0.09523414075374603,"725":1.4565699100494385,"726":-0.4857330620288849,"727":1.0860440731048584,"728":-0.6247459053993225,"729":0.14871129393577576,"730":-0.988203227519989,"731":-2.3231029510498047,"732":-1.394439458847046,"733":1.274880290031433,"734":4.044551849365234,"735":0.5916920900344849,"736":-0.8761434555053711,"737":-1.0915828943252563,"738":-0.9292857050895691,"739":-2.3199496269226074,"740":0.9111875295639038,"741":-2.934685468673706,"742":0.2135082334280014,"743":-2.9390645027160645,"744":0.3881388306617737,"745":0.051297299563884735,"746":-2.0142574310302734,"747":0.20804575085639954,"748":-0.5097964406013489,"749":-0.8154697418212891,"750":3.968724489212036,"751":0.14242877066135406,"752":-0.8548789620399475,"753":-2.1764841079711914,"754":-0.8569448590278625,"755":-0.3177112936973572,"756":0.41382431983947754,"757":-0.6240450739860535,"758":0.47367146611213684,"759":-0.12645377218723297}},"forgetHidden":{"rows":20,"columns":20,"weights":{"0":-0.4938212037086487,"1":0.14150287210941315,"2":2.6021335124969482,"3":-1.5036109685897827,"4":0.8276561498641968,"5":0.7789719104766846,"6":2.123589038848877,"7":-0.029957465827465057,"8":0.36098742485046387,"9":-0.3714061677455902,"10":-1.378797173500061,"11":-0.8385825753211975,"12":-0.6191980242729187,"13":-0.12239441275596619,"14":1.017719030380249,"15":0.6347401142120361,"16":-0.6571429967880249,"17":-0.25224098563194275,"18":0.6165259480476379,"19":0.9468831419944763,"20":-1.5779775381088257,"21":0.4585473835468292,"22":-0.2793785035610199,"23":0.8347062468528748,"24":-2.479659080505371,"25":-1.0717837810516357,"26":0.726058840751648,"27":-0.5015323162078857,"28":-0.1249925047159195,"29":-0.6426210999488831,"30":-4.9883856773376465,"31":-1.3730571269989014,"32":1.9743475914001465,"33":5.768801212310791,"34":1.7067450284957886,"35":0.9305360317230225,"36":0.6080629825592041,"37":5.921881198883057,"38":-2.7175300121307373,"39":-0.5094947218894958,"40":0.08402064442634583,"41":-0.6676865220069885,"42":-0.7192078828811646,"43":-0.3028412461280823,"44":-1.1417522430419922,"45":-0.12198669463396072,"46":0.6229208111763,"47":0.30142688751220703,"48":0.8402295112609863,"49":-1.4174847602844238,"50":1.0511603355407715,"51":1.5431026220321655,"52":-0.7893612384796143,"53":1.184969425201416,"54":0.7955962419509888,"55":0.7785323858261108,"56":-0.0021441089920699596,"57":-0.4720282554626465,"58":0.23748226463794708,"59":-0.3053835332393646,"60":-2.2854714393615723,"61":0.04649774357676506,"62":-0.5287826657295227,"63":0.9832280278205872,"64":-2.9194657802581787,"65":1.4718776941299438,"66":-0.40475666522979736,"67":-0.08131469041109085,"68":-1.1696655750274658,"69":-1.6390389204025269,"70":0.11294446885585785,"71":1.929509162902832,"72":2.4941768646240234,"73":-1.7243373394012451,"74":-0.4588340222835541,"75":-1.2967830896377563,"76":-0.5240835547447205,"77":-0.01018595602363348,"78":-1.8425054550170898,"79":0.7403818964958191,"80":0.5200586318969727,"81":-4.383423805236816,"82":1.7027921676635742,"83":-1.3948206901550293,"84":3.606856107711792,"85":-3.1162009239196777,"86":1.0240695476531982,"87":-0.4916519522666931,"88":1.8897112607955933,"89":-0.8658548593521118,"90":-1.9497575759887695,"91":0.8472058773040771,"92":-2.1251907348632812,"93":0.8366702198982239,"94":1.368547797203064,"95":1.8351054191589355,"96":-1.878625512123108,"97":3.041128396987915,"98":2.308534860610962,"99":-1.1681294441223145,"100":0.644387423992157,"101":0.13579237461090088,"102":0.8194271326065063,"103":-0.30755841732025146,"104":1.0238803625106812,"105":0.1523853987455368,"106":-0.020038777962327003,"107":1.0239201784133911,"108":-1.3214904069900513,"109":1.8875406980514526,"110":0.9050800800323486,"111":0.21640150249004364,"112":-0.20178274810314178,"113":2.469491481781006,"114":0.7257710099220276,"115":-0.15561290085315704,"116":0.6741841435432434,"117":-0.5990529656410217,"118":2.2387449741363525,"119":-0.016849426552653313,"120":-0.17892961204051971,"121":-0.2367684543132782,"122":0.3157538175582886,"123":0.735713005065918,"124":2.5063891410827637,"125":-0.15914319455623627,"126":0.16609503328800201,"127":0.9459973573684692,"128":1.7900059223175049,"129":-0.17249104380607605,"130":1.0840715169906616,"131":3.1674346923828125,"132":-2.083312749862671,"133":1.8125742673873901,"134":0.43579357862472534,"135":-0.1550942212343216,"136":-3.1994740962982178,"137":-0.21069550514221191,"138":-2.4605624675750732,"139":3.967613935470581,"140":0.21459399163722992,"141":0.926983654499054,"142":-0.654004693031311,"143":0.17760080099105835,"144":0.13884742558002472,"145":-0.1421010047197342,"146":-0.07299471646547318,"147":0.02211417630314827,"148":0.02224818430840969,"149":-0.7316455841064453,"150":-0.4093695282936096,"151":0.18475525081157684,"152":1.069574236869812,"153":-1.0954917669296265,"154":-0.6116130948066711,"155":-0.7381091117858887,"156":0.5938730239868164,"157":0.06504702568054199,"158":0.024800393730401993,"159":-0.31513485312461853,"160":2.208317279815674,"161":2.7609291076660156,"162":3.5173776149749756,"163":1.8041106462478638,"164":-0.27663856744766235,"165":0.20042358338832855,"166":-1.4853711128234863,"167":0.6786502003669739,"168":-3.335545301437378,"169":-0.9436471462249756,"170":-0.2425893098115921,"171":-1.8611729145050049,"172":3.93186092376709,"173":-0.16594408452510834,"174":-2.899102210998535,"175":-2.7388548851013184,"176":3.4785499572753906,"177":-0.24731935560703278,"178":-0.3666340112686157,"179":0.011834528297185898,"180":-1.4306166172027588,"181":-3.202446937561035,"182":3.841460943222046,"183":-1.1236919164657593,"184":-1.637656569480896,"185":-0.8192358613014221,"186":2.23696231842041,"187":-0.4458633363246918,"188":1.1589081287384033,"189":-0.7980227470397949,"190":-1.3319257497787476,"191":-1.0127989053726196,"192":-0.2538139224052429,"193":1.06975519657135,"194":1.9306598901748657,"195":1.593137502670288,"196":-1.9261302947998047,"197":2.6231672763824463,"198":-0.10065647214651108,"199":-2.9116709232330322,"200":0.7140949964523315,"201":3.427642583847046,"202":-1.4203201532363892,"203":2.560556650161743,"204":1.3310422897338867,"205":2.646110773086548,"206":-2.5422542095184326,"207":2.3764352798461914,"208":-2.2156083583831787,"209":-0.5772684216499329,"210":-0.41022369265556335,"211":0.39670005440711975,"212":1.3391001224517822,"213":-4.229640960693359,"214":-3.773521661758423,"215":-1.8408316373825073,"216":1.5217504501342773,"217":-3.8246424198150635,"218":-2.317427158355713,"219":2.1970276832580566,"220":0.5737979412078857,"221":2.7082083225250244,"222":3.25874662399292,"223":2.4096736907958984,"224":-1.1104263067245483,"225":0.24049857258796692,"226":-3.24953556060791,"227":0.11949928104877472,"228":-1.5552928447723389,"229":-0.3627706468105316,"230":0.3381229341030121,"231":-2.005878210067749,"232":0.8132376074790955,"233":-1.0945230722427368,"234":-1.8489700555801392,"235":-3.643551826477051,"236":4.479436874389648,"237":-0.36259904503822327,"238":-2.5723471641540527,"239":0.29214799404144287,"240":1.8014984130859375,"241":-5.174560070037842,"242":1.3238028287887573,"243":0.5848797559738159,"244":2.326568365097046,"245":1.7996472120285034,"246":-1.8633003234863281,"247":1.6237106323242188,"248":-2.433168411254883,"249":1.8669155836105347,"250":-1.735235571861267,"251":-2.2965750694274902,"252":-1.2974352836608887,"253":3.4490067958831787,"254":0.025532115250825882,"255":-3.5172274112701416,"256":0.7340103387832642,"257":0.683984100818634,"258":0.11365143209695816,"259":-4.385464668273926,"260":0.8090648651123047,"261":0.5659775733947754,"262":1.0733838081359863,"263":1.3489055633544922,"264":0.6557769179344177,"265":0.631848931312561,"266":-1.0977375507354736,"267":-0.9915724992752075,"268":0.890476644039154,"269":0.03359294682741165,"270":-1.3936635255813599,"271":-2.0791244506835938,"272":0.12717480957508087,"273":-3.0051612854003906,"274":-2.26594614982605,"275":-2.8521604537963867,"276":-1.7773499488830566,"277":-2.001875638961792,"278":4.031410217285156,"279":0.4217555522918701,"280":0.7820646166801453,"281":1.6460057497024536,"282":4.802414894104004,"283":1.8875468969345093,"284":-0.3491634428501129,"285":2.0776357650756836,"286":-0.24954600632190704,"287":1.4350085258483887,"288":-2.8989980220794678,"289":-3.6668200492858887,"290":0.8901765942573547,"291":-0.5107832551002502,"292":-1.857292652130127,"293":-0.21236424148082733,"294":-1.0238933563232422,"295":-0.34318432211875916,"296":2.936703681945801,"297":2.2174949645996094,"298":-2.596461534500122,"299":1.0332448482513428,"300":1.386128306388855,"301":1.9269402027130127,"302":2.1384365558624268,"303":2.3289434909820557,"304":1.9874613285064697,"305":-1.0383309125900269,"306":1.065455436706543,"307":-0.12732526659965515,"308":0.8373245596885681,"309":-3.705703020095825,"310":2.3711981773376465,"311":-4.256205081939697,"312":1.9303791522979736,"313":0.8000895977020264,"314":-0.2612416744232178,"315":0.8267364501953125,"316":3.8608193397521973,"317":1.3145906925201416,"318":-0.548968493938446,"319":-1.7868884801864624,"320":-1.2303438186645508,"321":1.5614925622940063,"322":-0.0824873298406601,"323":1.0234628915786743,"324":-0.8744878768920898,"325":1.528198480606079,"326":-0.6232575178146362,"327":0.8356041312217712,"328":-1.7588462829589844,"329":-0.9091856479644775,"330":1.4185515642166138,"331":0.21121945977210999,"332":-0.3483487069606781,"333":0.14742015302181244,"334":-2.1770284175872803,"335":-2.019390821456909,"336":1.1850695610046387,"337":-2.246753692626953,"338":-2.291181802749634,"339":0.25976696610450745,"340":1.9544941186904907,"341":-4.711897373199463,"342":-1.1338640451431274,"343":-2.2965657711029053,"344":0.9024004340171814,"345":-1.1106879711151123,"346":1.7556918859481812,"347":-1.9472689628601074,"348":3.2907040119171143,"349":2.53889799118042,"350":1.0206811428070068,"351":1.6123003959655762,"352":-2.577254056930542,"353":6.988447189331055,"354":3.7787604331970215,"355":2.872114896774292,"356":-3.670283079147339,"357":3.664172649383545,"358":3.7863924503326416,"359":-4.878356456756592,"360":0.6119481921195984,"361":-0.2978508174419403,"362":0.2570073902606964,"363":1.556127905845642,"364":2.2580549716949463,"365":-0.9630833268165588,"366":0.5955090522766113,"367":-0.27576112747192383,"368":-1.454350233078003,"369":1.3741052150726318,"370":-0.6121782660484314,"371":-0.802155613899231,"372":-1.539660930633545,"373":0.8476067781448364,"374":-0.1492091864347458,"375":-1.1745694875717163,"376":0.05550622567534447,"377":0.497965931892395,"378":1.9592769145965576,"379":0.07877209782600403,"380":0.7117373943328857,"381":-0.8685632944107056,"382":0.24400733411312103,"383":0.514696478843689,"384":-0.8879975080490112,"385":-1.191641092300415,"386":0.32078641653060913,"387":-0.6659579277038574,"388":-0.9771629571914673,"389":0.05116218701004982,"390":1.420400619506836,"391":0.12204623222351074,"392":-2.4511008262634277,"393":-0.2093571126461029,"394":0.3421593904495239,"395":-1.9917188882827759,"396":-0.30473923683166504,"397":1.4841740131378174,"398":0.8287772536277771,"399":0.008732343092560768}},"forgetBias":{"rows":20,"columns":1,"weights":{"0":0,"1":0,"2":0,"3":0,"4":0,"5":0,"6":0,"7":0,"8":0,"9":0,"10":0,"11":0,"12":0,"13":0,"14":0,"15":0,"16":0,"17":0,"18":0,"19":0}},"outputMatrix":{"rows":20,"columns":38,"weights":{"0":-1.5724399089813232,"1":1.252434253692627,"2":-1.9289326667785645,"3":-0.12138958275318146,"4":-0.02459031157195568,"5":-0.5758237242698669,"6":-0.34585341811180115,"7":-2.893494129180908,"8":0.9471579790115356,"9":2.0240447521209717,"10":1.6131534576416016,"11":-1.1149355173110962,"12":-3.228464365005493,"13":-3.9980006217956543,"14":3.3841323852539062,"15":1.0130188465118408,"16":0.8098270893096924,"17":-0.8386444449424744,"18":-0.3114522099494934,"19":-1.7533977031707764,"20":-1.543002963066101,"21":2.4166126251220703,"22":-1.804095983505249,"23":0.996098518371582,"24":0.8886101841926575,"25":0.8252721428871155,"26":-2.136883020401001,"27":1.9903618097305298,"28":-4.581352233886719,"29":-1.0409094095230103,"30":1.496822714805603,"31":-0.9753368496894836,"32":-1.1317466497421265,"33":-1.3099377155303955,"34":-0.8539436459541321,"35":-0.6662552356719971,"36":0.48316851258277893,"37":-2.3101532459259033,"38":-0.927700936794281,"39":-4.244160175323486,