module.exports = function anonymous(rawInput,isSampleI,temperature
) {

  if (typeof rawInput === 'undefined') rawInput = [];
  if (typeof isSampleI === 'undefined') isSampleI = false;
  if (typeof temperature === 'undefined') temperature = 1;
  var json = {"type":"LSTM","options":{"inputSize":43,"inputRange":43,"hiddenLayers":[20,20],"outputSize":43,"decayRate":0.999,"smoothEps":1e-8,"regc":0.000001,"clipval":5,"maxPredictionLength":100,"dataFormatter":{"values":[[0],[0],[0],[0],[0],[0],[0],[0],[0],[0],[1],[1],[1],[1],[1],[1],[1],[1],[1],[1],[1],[1],[1],"Bro, i'm down.","Friends forever!","I miss you","I really like you.","I really miss you","I'm not trying to go","If you come over, I'll think about it","Let's go man!","Netflix and chill?","Nobody's home right now","Sweet dreams!","Tryna chill?","Want to come over?","Want to get food bro?","Yo where you at?","You first!","You have really pretty eyes","You're a cool dude","You're like family to me","You're really cute","You're so cute when you laugh","You're soooo hot","down to do whatever"],"indexTable":{"0":0,"1":1,"B":2,"r":3,"o":4,",":5," ":6,"i":7,"'":8,"m":9,"d":10,"w":11,"n":12,".":13,"F":14,"e":15,"s":16,"f":17,"v":18,"!":19,"I":20,"y":21,"u":22,"a":23,"l":24,"k":25,"t":26,"g":27,"c":28,"h":29,"b":30,"L":31,"N":32,"x":33,"?":34,"S":35,"T":36,"W":37,"Y":38,"p":39,"stop-input":40,"start-output":41,"unrecognized":42},"characterTable":{"0":0,"1":1,"2":"B","3":"r","4":"o","5":",","6":" ","7":"i","8":"'","9":"m","10":"d","11":"w","12":"n","13":".","14":"F","15":"e","16":"s","17":"f","18":"v","19":"!","20":"I","21":"y","22":"u","23":"a","24":"l","25":"k","26":"t","27":"g","28":"c","29":"h","30":"b","31":"L","32":"N","33":"x","34":"?","35":"S","36":"T","37":"W","38":"Y","39":"p","40":null,"41":null,"42":null},"characters":[0,1,"B","r","o",","," ","i","'","m","d","w","n",".","F","e","s","f","v","!","I","y","u","a","l","k","t","g","c","h","b","L","N","x","?","S","T","W","Y","p","stop-input","start-output","unrecognized"],"specialIndexes":[40,41,42]}},"input":{"rows":44,"columns":43,"weights":{"0":0.42667242884635925,"1":-0.6789225339889526,"2":1.6797701120376587,"3":-7.865562438964844,"4":0.24939510226249695,"5":-8.637980461120605,"6":2.015725612640381,"7":-9.866960525512695,"8":-0.5859555602073669,"9":-3.093055486679077,"10":1.8974368572235107,"11":-6.589084625244141,"12":2.055554151535034,"13":7.347970962524414,"14":-3.614666700363159,"15":3.0982446670532227,"16":-0.983139157295227,"17":1.4444596767425537,"18":7.561657905578613,"19":-7.336694717407227,"20":0.37641769647598267,"21":-8.7698974609375,"22":6.1804680824279785,"23":0.32220953702926636,"24":7.308237552642822,"25":-5.7620849609375,"26":2.212515115737915,"27":-7.629384994506836,"28":-4.647547245025635,"29":5.959987163543701,"30":5.576851844787598,"31":-3.3200085163116455,"32":-6.434158802032471,"33":-3.63063907623291,"34":-3.351205587387085,"35":-1.4480507373809814,"36":9.06539249420166,"37":-8.066258430480957,"38":4.337863922119141,"39":-3.805609703063965,"40":3.4288523197174072,"41":-7.919434070587158,"42":3.686030387878418,"43":4.556866645812988,"44":7.768344879150391,"45":1.5219918489456177,"46":-11.884408950805664,"47":3.6563315391540527,"48":-7.2607293128967285,"49":-2.0483572483062744,"50":-7.591073989868164,"51":5.729834079742432,"52":-3.6036016941070557,"53":7.71991491317749,"54":-7.319859981536865,"55":-3.0975589752197266,"56":6.175922870635986,"57":5.924674034118652,"58":12.94109058380127,"59":-2.6101460456848145,"60":0.39588528871536255,"61":11.055213928222656,"62":-7.270467758178711,"63":-12.321529388427734,"64":8.76746940612793,"65":10.066421508789062,"66":-4.503530979156494,"67":7.552621364593506,"68":-4.716289043426514,"69":6.537225723266602,"70":5.33258056640625,"71":-2.3913838863372803,"72":3.31827712059021,"73":6.450321674346924,"74":-6.24906063079834,"75":8.314142227172852,"76":-7.475879669189453,"77":2.9991636276245117,"78":-0.20138958096504211,"79":11.378105163574219,"80":-4.3131914138793945,"81":11.831514358520508,"82":4.10613489151001,"83":9.9287748336792,"84":4.477705955505371,"85":-6.57285737991333,"86":1.5616928339004517,"87":-4.4842424392700195,"88":2.219679832458496,"89":8.449471473693848,"90":0.38501447439193726,"91":10.455818176269531,"92":-6.6179327964782715,"93":-3.9122533798217773,"94":-0.044151514768600464,"95":-5.447221755981445,"96":1.9340208768844604,"97":9.054326057434082,"98":-4.2407379150390625,"99":1.0036453008651733,"100":3.821873188018799,"101":-8.947395324707031,"102":-3.483525276184082,"103":1.3974215984344482,"104":3.466289520263672,"105":9.308555603027344,"106":11.213878631591797,"107":-5.629152774810791,"108":-2.2611374855041504,"109":4.5529913902282715,"110":-10.175265312194824,"111":12.056066513061523,"112":6.661133766174316,"113":-6.298581600189209,"114":2.2097792625427246,"115":-11.55490779876709,"116":-12.140121459960938,"117":-2.53969144821167,"118":-4.374058246612549,"119":5.335090160369873,"120":-5.005768775939941,"121":-2.7733049392700195,"122":-9.27294635772705,"123":-2.754004955291748,"124":-12.733133316040039,"125":-1.6601306200027466,"126":2.565178394317627,"127":10.602989196777344,"128":-3.4120352268218994,"129":1.5855616331100464,"130":-0.7120994925498962,"131":2.069404125213623,"132":-2.0921647548675537,"133":-18.0975341796875,"134":-14.185120582580566,"135":-16.207643508911133,"136":-7.630837440490723,"137":-8.12186050415039,"138":10.912689208984375,"139":13.540572166442871,"140":-6.022451400756836,"141":-2.2367351055145264,"142":7.522397994995117,"143":-31.790367126464844,"144":5.741621971130371,"145":-0.7052155137062073,"146":0.9918394088745117,"147":5.916496276855469,"148":-4.686634540557861,"149":-10.414020538330078,"150":-4.5234808921813965,"151":37.47103500366211,"152":0.35974323749542236,"153":5.767927169799805,"154":-4.91185998916626,"155":-2.726067304611206,"156":-3.0609230995178223,"157":3.530505657196045,"158":1.1301769018173218,"159":7.704555511474609,"160":-9.77502155303955,"161":-3.137697696685791,"162":-46.90621566772461,"163":-5.920673370361328,"164":-1.0792139768600464,"165":3.4219329357147217,"166":-3.0418851375579834,"167":9.129556655883789,"168":-8.546663284301758,"169":2.0897297859191895,"170":-3.4942612648010254,"171":-8.045257568359375,"172":-9.767106056213379,"173":-2.2787575721740723,"174":-10.408934593200684,"175":3.2420167922973633,"176":-2.822798490524292,"177":8.120894432067871,"178":-0.26629573106765747,"179":5.032313346862793,"180":-5.371680736541748,"181":-2.1530139446258545,"182":-8.715578079223633,"183":-1.3589692115783691,"184":4.966708660125732,"185":-5.107513904571533,"186":-11.864619255065918,"187":-8.688365936279297,"188":12.082176208496094,"189":-8.569376945495605,"190":4.862003803253174,"191":13.440780639648438,"192":8.468759536743164,"193":1.350196361541748,"194":2.372743844985962,"195":-4.5945281982421875,"196":-3.5258233547210693,"197":3.289886236190796,"198":7.0612568855285645,"199":-3.6930058002471924,"200":-5.309415817260742,"201":-3.5208899974823,"202":-10.400546073913574,"203":1.4425389766693115,"204":-1.0324292182922363,"205":-4.807225704193115,"206":0.3672795295715332,"207":3.1291096210479736,"208":-9.527641296386719,"209":8.101719856262207,"210":-13.541388511657715,"211":0.9062907099723816,"212":-0.5549007058143616,"213":-6.927277565002441,"214":13.570459365844727,"215":7.438724517822266,"216":-5.229640007019043,"217":7.502627372741699,"218":-1.7437264919281006,"219":1.967084527015686,"220":0.9399983882904053,"221":1.6439136266708374,"222":-7.385994911193848,"223":0.40384387969970703,"224":0.6370354294776917,"225":-1.6177361011505127,"226":-1.0544013977050781,"227":-6.371686935424805,"228":3.91678524017334,"229":5.099026679992676,"230":3.8388004302978516,"231":-10.191760063171387,"232":5.126736640930176,"233":4.907074451446533,"234":-6.34329891204834,"235":0.18550312519073486,"236":-5.674684524536133,"237":4.253384113311768,"238":0.5850207805633545,"239":1.7501057386398315,"240":3.1047894954681396,"241":-1.8812835216522217,"242":-0.38922345638275146,"243":4.461698532104492,"244":2.8712246417999268,"245":5.795125961303711,"246":-9.485940933227539,"247":-6.310491561889648,"248":4.990016937255859,"249":-4.5208306312561035,"250":-7.42182731628418,"251":1.2555488348007202,"252":-8.929084777832031,"253":-0.6653242111206055,"254":0.39939072728157043,"255":-2.131683826446533,"256":-1.0806556940078735,"257":-9.46833610534668,"258":-56.468482971191406,"259":47.642425537109375,"260":-16.052616119384766,"261":-45.6784782409668,"262":-35.09685516357422,"263":64.9857177734375,"264":7.904110908508301,"265":-47.721168518066406,"266":4.4843339920043945,"267":5.178023815155029,"268":-64.21821594238281,"269":-2.5590734481811523,"270":-53.688899993896484,"271":57.79831314086914,"272":3.3599679470062256,"273":40.613258361816406,"274":57.604095458984375,"275":-56.58115005493164,"276":50.100372314453125,"277":63.24089050292969,"278":61.547630310058594,"279":0.79775071144104,"280":0.9825271368026733,"281":41.14021301269531,"282":-64.30265808105469,"283":58.97814178466797,"284":-5.059754848480225,"285":-14.872130393981934,"286":-5.641430377960205,"287":-63.250179290771484,"288":-57.959571838378906,"289":-54.295082092285156,"290":64.78924560546875,"291":54.15427780151367,"292":4.822275161743164,"293":3.613589286804199,"294":1.2104936838150024,"295":3.714691162109375,"296":-4.759242057800293,"297":56.86307907104492,"298":-63.03603744506836,"299":-0.5081301927566528,"300":-0.9097225069999695,"301":-3.0828475952148438,"302":-0.6615524888038635,"303":-2.7843291759490967,"304":3.30755352973938,"305":-1.1580296754837036,"306":-0.9749324917793274,"307":-2.5572519302368164,"308":3.8202922344207764,"309":-0.26896771788597107,"310":-3.3284225463867188,"311":-5.097358703613281,"312":4.764665126800537,"313":0.1276124268770218,"314":-6.233916282653809,"315":-2.2003190517425537,"316":-3.3059487342834473,"317":3.126020669937134,"318":-5.189250946044922,"319":-2.3921244144439697,"320":6.919273376464844,"321":0.6145834922790527,"322":-0.013221312314271927,"323":0.9085351824760437,"324":4.455211639404297,"325":-2.343055248260498,"326":8.228730201721191,"327":-1.228890061378479,"328":-5.144794940948486,"329":2.595492362976074,"330":0.2985561788082123,"331":-4.860394477844238,"332":5.292842864990234,"333":0.19761960208415985,"334":-1.282475233078003,"335":0.8639280200004578,"336":3.3266475200653076,"337":0.33794090151786804,"338":2.2732107639312744,"339":-5.51638650894165,"340":-0.3825402557849884,"341":2.4614768028259277,"342":-1.8940623998641968,"343":7.520589351654053,"344":11.968509674072266,"345":-13.167119026184082,"346":-11.420048713684082,"347":1.7323981523513794,"348":-11.616374015808105,"349":2.2075963020324707,"350":-12.62294864654541,"351":-11.060978889465332,"352":-12.102006912231445,"353":1.0712193250656128,"354":11.491869926452637,"355":1.8765227794647217,"356":-1.9744093418121338,"357":11.731494903564453,"358":1.6971869468688965,"359":2.940483570098877,"360":-12.447607040405273,"361":-0.7232066988945007,"362":1.1728003025054932,"363":-9.680561065673828,"364":11.929559707641602,"365":-12.74246883392334,"366":11.365520477294922,"367":12.423998832702637,"368":-1.9171671867370605,"369":1.3566402196884155,"370":1.846656322479248,"371":-1.1315841674804688,"372":1.0448576211929321,"373":-1.2702609300613403,"374":-1.5130927562713623,"375":-12.206697463989258,"376":0.9173378944396973,"377":1.8661532402038574,"378":-11.974549293518066,"379":0.5382566452026367,"380":6.906376361846924,"381":-11.768857955932617,"382":1.5880274772644043,"383":-8.296177864074707,"384":-1.4340801239013672,"385":-11.525592803955078,"386":-12.124061584472656,"387":2.942267894744873,"388":-3.1238906383514404,"389":1.5608222484588623,"390":2.375938653945923,"391":17.30825424194336,"392":25.68830680847168,"393":-7.010244846343994,"394":-10.588033676147461,"395":-9.157855987548828,"396":-9.7611665725708,"397":-8.865900039672852,"398":8.2552490234375,"399":-13.4086332321167,"400":6.625983715057373,"401":2.7841506004333496,"402":-5.98846960067749,"403":3.418534994125366,"404":3.061779737472534,"405":-5.788346290588379,"406":8.073582649230957,"407":15.524059295654297,"408":-3.813188076019287,"409":-17.716175079345703,"410":13.980246543884277,"411":-26.53673553466797,"412":11.682236671447754,"413":11.464092254638672,"414":-3.090998411178589,"415":12.995729446411133,"416":-19.488162994384766,"417":-23.56178855895996,"418":-11.953832626342773,"419":18.10674476623535,"420":22.77867889404297,"421":11.827710151672363,"422":-11.157316207885742,"423":0.5229566693305969,"424":8.473260879516602,"425":-18.676836013793945,"426":7.111999988555908,"427":-10.018259048461914,"428":-0.11073694378137589,"429":-3.878683090209961,"430":-9.005860328674316,"431":1.8768630027770996,"432":-8.573566436767578,"433":-12.592825889587402,"434":-6.263186931610107,"435":8.49562931060791,"436":13.638371467590332,"437":-14.849081039428711,"438":7.079351425170898,"439":11.64087200164795,"440":11.512118339538574,"441":-12.153436660766602,"442":-9.076264381408691,"443":7.016968250274658,"444":-5.968770980834961,"445":8.877617835998535,"446":7.796812057495117,"447":-9.626981735229492,"448":14.61375904083252,"449":9.19295597076416,"450":9.513467788696289,"451":-14.64175796508789,"452":14.696685791015625,"453":10.733315467834473,"454":-8.536372184753418,"455":10.81352710723877,"456":-9.207971572875977,"457":-13.677522659301758,"458":-9.590085983276367,"459":-11.798282623291016,"460":-12.066082000732422,"461":-3.5260651111602783,"462":8.111092567443848,"463":11.448482513427734,"464":-5.070002555847168,"465":6.709390163421631,"466":11.025989532470703,"467":7.674688339233398,"468":-9.989006042480469,"469":-11.613968849182129,"470":13.62595272064209,"471":-13.404367446899414,"472":1.7530094385147095,"473":-16.748085021972656,"474":-11.27341079711914,"475":-14.573421478271484,"476":18.375152587890625,"477":-15.266725540161133,"478":13.801268577575684,"479":-18.31007957458496,"480":19.98941993713379,"481":-14.696478843688965,"482":-18.938884735107422,"483":12.072683334350586,"484":-10.623640060424805,"485":21.294086456298828,"486":-6.61745548248291,"487":-20.653114318847656,"488":-19.286239624023438,"489":14.279850006103516,"490":-14.769593238830566,"491":-20.57135009765625,"492":13.293795585632324,"493":14.066543579101562,"494":-7.811668395996094,"495":8.459356307983398,"496":4.37129020690918,"497":-13.630072593688965,"498":12.090868949890137,"499":18.11497688293457,"500":-4.001495361328125,"501":-18.12862205505371,"502":-15.156452178955078,"503":-12.489497184753418,"504":17.060747146606445,"505":-11.762737274169922,"506":-21.149173736572266,"507":-8.489828109741211,"508":15.59768295288086,"509":8.208664894104004,"510":17.169286727905273,"511":-12.38653564453125,"512":9.833965301513672,"513":12.673872947692871,"514":-7.360268592834473,"515":19.82599639892578,"516":0.018681714311242104,"517":5.897498607635498,"518":0.0034414040856063366,"519":1.9493154287338257,"520":5.474889278411865,"521":1.418928623199463,"522":-5.356016635894775,"523":3.098590850830078,"524":5.981738090515137,"525":-5.866180419921875,"526":-5.980686664581299,"527":4.350605487823486,"528":0.5056265592575073,"529":-1.5405387878417969,"530":-0.0052779908291995525,"531":-4.880147457122803,"532":0.06665762513875961,"533":-0.08374082297086716,"534":-5.276859283447266,"535":0.042817842215299606,"536":4.913273811340332,"537":5.945367813110352,"538":-6.0032057762146,"539":-5.993095874786377,"540":-2.99656343460083,"541":0.007635131943970919,"542":5.5851874351501465,"543":5.926553726196289,"544":-2.5643017292022705,"545":-1.142652153968811,"546":-3.3890583515167236,"547":0.6622337698936462,"548":0.5811771750450134,"549":-1.2520636320114136,"550":5.990659236907959,"551":0.05911412835121155,"552":-5.922183036804199,"553":3.8460781574249268,"554":-0.01655333675444126,"555":3.557612895965576,"556":-6.008791446685791,"557":5.984878063201904,"558":0.0320146381855011,"559":-14.867598533630371,"560":9.304169654846191,"561":-14.556344985961914,"562":8.446198463439941,"563":11.449788093566895,"564":11.464987754821777,"565":-7.832730293273926,"566":5.504786968231201,"567":9.337735176086426,"568":-5.651779651641846,"569":-11.409854888916016,"570":6.494473457336426,"571":9.18879508972168,"572":-9.827810287475586,"573":-12.695387840270996,"574":-9.086179733276367,"575":13.259991645812988,"576":-16.41743278503418,"577":-5.250295639038086,"578":13.489871978759766,"579":16.230161666870117,"580":5.644598484039307,"581":-5.723543167114258,"582":-9.755562782287598,"583":-11.680254936218262,"584":14.00715446472168,"585":7.3128252029418945,"586":5.475444316864014,"587":-16.329999923706055,"588":-15.371578216552734,"589":-15.784846305847168,"590":7.71333122253418,"591":14.793319702148438,"592":-10.720059394836426,"593":8.36538314819336,"594":15.09483528137207,"595":-9.629249572753906,"596":11.978341102600098,"597":-16.30962371826172,"598":10.953285217285156,"599":-7.467931747436523,"600":5.07273006439209,"601":11.166815757751465,"602":-13.805147171020508,"603":-10.129748344421387,"604":-14.544943809509277,"605":11.848544120788574,"606":5.8361663818359375,"607":11.811124801635742,"608":-13.329879760742188,"609":8.370124816894531,"610":12.240462303161621,"611":-13.19900894165039,"612":-12.7365140914917,"613":5.946653366088867,"614":15.174513816833496,"615":-9.943816184997559,"616":-11.644145965576172,"617":-11.379989624023438,"618":13.2301607131958,"619":-14.986263275146484,"620":-16.082565307617188,"621":11.123072624206543,"622":11.668848037719727,"623":10.076753616333008,"624":-9.319095611572266,"625":-13.078433990478516,"626":-12.769365310668945,"627":8.686193466186523,"628":10.63260269165039,"629":13.00124740600586,"630":-18.873252868652344,"631":-10.380946159362793,"632":-11.247450828552246,"633":12.18040943145752,"634":13.928956985473633,"635":-14.78114128112793,"636":11.546361923217773,"637":12.86259937286377,"638":17.905899047851562,"639":7.889504909515381,"640":-9.611898422241211,"641":10.36811351776123,"642":-14.23117733001709,"643":11.189605712890625,"644":11.166805267333984,"645":-24.740381240844727,"646":24.672555923461914,"647":24.639896392822266,"648":24.72173500061035,"649":-24.71139907836914,"650":24.6788330078125,"651":24.656723022460938,"652":24.74912452697754,"653":-24.73179817199707,"654":24.66668701171875,"655":-24.709733963012695,"656":24.70708465576172,"657":24.692358016967773,"658":24.649314880371094,"659":24.698719024658203,"660":-24.743085861206055,"661":24.72248649597168,"662":-24.77615737915039,"663":-24.71516990661621,"664":24.746065139770508,"665":-24.75115394592285,"666":24.66261100769043,"667":24.700395584106445,"668":-24.721153259277344,"669":-24.673446655273438,"670":24.756580352783203,"671":-24.678905487060547,"672":24.685802459716797,"673":24.6955509185791,"674":-24.671960830688477,"675":-24.69223976135254,"676":24.75526237487793,"677":24.69427490234375,"678":24.654909133911133,"679":-24.716711044311523,"680":24.752517700195312,"681":-24.70795440673828,"682":-24.707698822021484,"683":24.69745635986328,"684":-24.72130584716797,"685":-24.67106056213379,"686":24.68425941467285,"687":-24.644662857055664,"688":3.466946601867676,"689":7.646396636962891,"690":2.1853418350219727,"691":5.790505886077881,"692":-1.2703840732574463,"693":0.12631265819072723,"694":-4.385900497436523,"695":0.8464174270629883,"696":11.927806854248047,"697":7.418121337890625,"698":1.1031029224395752,"699":6.340624809265137,"700":-5.179274559020996,"701":-7.6247382164001465,"702":-1.347245693206787,"703":4.149264812469482,"704":-3.520881414413452,"705":-0.7343605756759644,"706":-3.8023135662078857,"707":3.0861754417419434,"708":8.672676086425781,"709":8.556278228759766,"710":1.245923638343811,"711":3.883248805999756,"712":-9.734317779541016,"713":4.439455986022949,"714":-2.840444326400757,"715":-1.0714908838272095,"716":1.15603768825531,"717":-9.421207427978516,"718":-11.21279525756836,"719":5.825092792510986,"720":-2.582280158996582,"721":-1.4778090715408325,"722":7.831026077270508,"723":-1.238791584968567,"724":-11.96835994720459,"725":10.681499481201172,"726":-10.896502494812012,"727":12.171277046203613,"728":-1.2668852806091309,"729":3.3701462745666504,"730":0.008231207728385925,"731":-3.1882667541503906,"732":3.172314405441284,"733":-2.110034704208374,"734":2.6355793476104736,"735":2.878350257873535,"736":3.543395757675171,"737":-0.007188868708908558,"738":2.5567305088043213,"739":3.428706169128418,"740":2.298447370529175,"741":-2.976142168045044,"742":2.382009267807007,"743":-4.1161627769470215,"744":-2.731304883956909,"745":-2.8123862743377686,"746":-3.054309368133545,"747":2.4446346759796143,"748":-2.3331058025360107,"749":8.058372497558594,"750":3.2021324634552,"751":3.6669411659240723,"752":4.0493483543396,"753":-2.762319803237915,"754":-3.4836671352386475,"755":-3.1918582916259766,"756":2.8844125270843506,"757":0.4844473600387573,"758":5.854028224945068,"759":-5.836718559265137,"760":-3.101217746734619,"761":-3.157917022705078,"762":2.431018114089966,"763":3.9209890365600586,"764":-2.609232187271118,"765":4.256272792816162,"766":2.8364107608795166,"767":-3.6580755710601807,"768":3.7364912033081055,"769":-3.352724075317383,"770":2.834766387939453,"771":-3.8120460510253906,"772":3.3823447227478027,"773":2.820819854736328,"774":-15.374205589294434,"775":9.333879470825195,"776":-15.097500801086426,"777":8.115711212158203,"778":-15.536870956420898,"779":-15.439831733703613,"780":-11.09536361694336,"781":7.904102802276611,"782":-16.108211517333984,"783":-8.165255546569824,"784":-9.715584754943848,"785":8.048808097839355,"786":16.862586975097656,"787":-10.250349044799805,"788":-16.005176544189453,"789":-10.12085247039795,"790":14.258267402648926,"791":-14.11176586151123,"792":-9.217450141906738,"793":6.5976786613464355,"794":10.44692611694336,"795":-15.394918441772461,"796":-11.031046867370605,"797":-12.938760757446289,"798":-7.770808219909668,"799":9.35523509979248,"800":-11.140053749084473,"801":14.652921676635742,"802":-13.79643440246582,"803":16.36442756652832,"804":-9.11787223815918,"805":5.559739589691162,"806":8.369263648986816,"807":-16.673187255859375,"808":10.574545860290527,"809":14.486522674560547,"810":-5.511848449707031,"811":-16.655397415161133,"812":-10.264572143554688,"813":11.422191619873047,"814":-6.38536262512207,"815":6.386471271514893,"816":15.144709587097168,"817":-8.325199127197266,"818":5.189425468444824,"819":-13.669301986694336,"820":-4.301382064819336,"821":2.5032341480255127,"822":11.248437881469727,"823":2.848560094833374,"824":-1.2783700227737427,"825":12.858431816101074,"826":11.726516723632812,"827":5.874812602996826,"828":-5.173490524291992,"829":0.6882507801055908,"830":-5.175803184509277,"831":-8.337488174438477,"832":-2.8083908557891846,"833":15.385469436645508,"834":-13.870826721191406,"835":6.77594518661499,"836":10.111197471618652,"837":13.91369915008545,"838":-8.54944896697998,"839":0.5993664264678955,"840":0.05084758624434471,"841":-9.91520881652832,"842":13.6194486618042,"843":-1.9290580749511719,"844":-5.0784735679626465,"845":-4.322775840759277,"846":-10.405745506286621,"847":-12.994171142578125,"848":14.222203254699707,"849":14.110265731811523,"850":3.578554630279541,"851":13.464402198791504,"852":14.031644821166992,"853":-3.796603202819824,"854":14.752584457397461,"855":-13.084216117858887,"856":2.009582996368408,"857":6.044093608856201,"858":-7.232996940612793,"859":12.463446617126465,"860":-23.705825805664062,"861":2.812832832336426,"862":-21.434995651245117,"863":-21.073516845703125,"864":2.529451370239258,"865":5.63075065612793,"866":11.809520721435547,"867":-7.133821487426758,"868":-9.602252960205078,"869":-1.1743234395980835,"870":-10.096220970153809,"871":-20.406822204589844,"872":9.111555099487305,"873":-8.769277572631836,"874":14.864950180053711,"875":5.577131271362305,"876":15.960031509399414,"877":-18.078628540039062,"878":17.111602783203125,"879":12.84072208404541,"880":5.399456977844238,"881":-15.201513290405273,"882":10.495407104492188,"883":1.0735381841659546,"884":-1.7600141763687134,"885":-0.9444668292999268,"886":-9.357893943786621,"887":4.648979663848877,"888":-22.570297241210938,"889":0.616070032119751,"890":-3.25986909866333,"891":0.40547287464141846,"892":14.37932300567627,"893":13.609067916870117,"894":-8.169047355651855,"895":27.69138526916504,"896":19.098098754882812,"897":-10.254316329956055,"898":5.220998764038086,"899":10.344758033752441,"900":-8.108349800109863,"901":-6.571882247924805,"902":-0.2105795443058014,"903":-13.813514709472656,"904":8.101151466369629,"905":-14.536665916442871,"906":-8.333783149719238,"907":-4.8424859046936035,"908":-7.388044834136963,"909":8.913702011108398,"910":-13.632131576538086,"911":-8.84555435180664,"912":-8.170893669128418,"913":8.173090934753418,"914":-14.673336029052734,"915":14.71196174621582,"916":14.804286003112793,"917":-17.567142486572266,"918":1.4680646657943726,"919":14.400160789489746,"920":-14.772799491882324,"921":10.023741722106934,"922":-13.196928024291992,"923":14.710351943969727,"924":-13.68424129486084,"925":8.15523910522461,"926":-12.801789283752441,"927":11.451924324035645,"928":-14.903400421142578,"929":15.084854125976562,"930":10.65859603881836,"931":-13.547782897949219,"932":6.359861373901367,"933":8.973559379577637,"934":-15.136873245239258,"935":-3.3096721172332764,"936":-14.830469131469727,"937":-9.710216522216797,"938":11.83659553527832,"939":13.5873384475708,"940":-9.788872718811035,"941":6.463463306427002,"942":-9.83480453491211,"943":4.260485649108887,"944":-11.458325386047363,"945":5.458077430725098,"946":2.779315710067749,"947":-2.74344801902771,"948":10.907958030700684,"949":-3.8476710319519043,"950":-3.4120309352874756,"951":3.596670389175415,"952":-2.5226564407348633,"953":5.663328647613525,"954":4.052915096282959,"955":-2.7437849044799805,"956":2.34175181388855,"957":3.7661237716674805,"958":-3.3607499599456787,"959":2.1424038410186768,"960":-2.839916706085205,"961":-6.511880397796631,"962":-1.7302690744400024,"963":2.6574854850769043,"964":-2.913163423538208,"965":-2.694876194000244,"966":2.4872593879699707,"967":2.3522515296936035,"968":-11.179086685180664,"969":-3.1690571308135986,"970":-3.7062182426452637,"971":-2.648934841156006,"972":2.9400503635406494,"973":2.998638391494751,"974":4.744901657104492,"975":2.5888679027557373,"976":-3.937079906463623,"977":4.092221736907959,"978":-1.9746848344802856,"979":-2.89888334274292,"980":2.9982316493988037,"981":-2.86670184135437,"982":-3.695026397705078,"983":4.868589878082275,"984":-4.914227485656738,"985":1.3879040479660034,"986":-4.4147868156433105,"987":3.731832265853882,"988":2.7141520977020264,"989":-3.3681600093841553,"990":-3.6149258613586426,"991":-3.366290807723999,"992":-1.9672173261642456,"993":0.1258997917175293,"994":5.376283645629883,"995":-2.7126901149749756,"996":-3.2463626861572266,"997":0.836715042591095,"998":3.201378345489502,"999":-2.7015674114227295,"1000":-0.9284039735794067,"1001":3.108798027038574,"1002":3.7083921432495117,"1003":-2.8479156494140625,"1004":2.471771478652954,"1005":4.098470687866211,"1006":-3.973390579223633,"1007":2.254934787750244,"1008":-2.07932710647583,"1009":3.814680576324463,"1010":-1.663268804550171,"1011":2.5604584217071533,"1012":-3.6555471420288086,"1013":1.2228493690490723,"1014":-2.63089656829834,"1015":-3.152207612991333,"1016":-1.744085431098938,"1017":-4.250369548797607,"1018":-7.111155033111572,"1019":1.593565583229065,"1020":-2.984657049179077,"1021":4.532033443450928,"1022":-2.9657111167907715,"1023":-2.5444960594177246,"1024":3.579681634902954,"1025":3.567671537399292,"1026":-0.32261931896209717,"1027":-3.0070226192474365,"1028":4.975957870483398,"1029":-4.308984756469727,"1030":-1.150153398513794,"1031":-3.8213729858398438,"1032":0.1790333390235901,"1033":-3.148582935333252,"1034":-6.42926025390625,"1035":-3.1432344913482666,"1036":2.315641164779663,"1037":-2.221372127532959,"1038":8.735575675964355,"1039":-14.027715682983398,"1040":-5.742371559143066,"1041":7.350612163543701,"1042":5.324463844299316,"1043":-12.213687896728516,"1044":6.406102180480957,"1045":11.06684684753418,"1046":-2.2586898803710938,"1047":2.8029229640960693,"1048":3.5763981342315674,"1049":-1.2350953817367554,"1050":5.529604911804199,"1051":-10.631197929382324,"1052":-5.0454535484313965,"1053":-6.313480377197266,"1054":4.159002780914307,"1055":-1.9006941318511963,"1056":10.564788818359375,"1057":-10.138894081115723,"1058":3.98391056060791,"1059":-5.508147716522217,"1060":-5.820106506347656,"1061":-1.2365094423294067,"1062":9.421286582946777,"1063":-11.416549682617188,"1064":-7.64351749420166,"1065":4.355342388153076,"1066":-7.395803451538086,"1067":1.6850043535232544,"1068":7.287384986877441,"1069":-0.5098323822021484,"1070":-0.6937300562858582,"1071":-3.827943801879883,"1072":6.57355260848999,"1073":-9.352473258972168,"1074":-6.900240421295166,"1075":-9.532402038574219,"1076":2.6583917140960693,"1077":1.6787079572677612,"1078":5.807666778564453,"1079":-2.9323675632476807,"1080":10.41576862335205,"1081":2.203727960586548,"1082":1.0494006872177124,"1083":-7.859240531921387,"1084":3.9274728298187256,"1085":-4.136322498321533,"1086":9.521845817565918,"1087":-9.024821281433105,"1088":7.982762813568115,"1089":2.8024983406066895,"1090":-2.6691625118255615,"1091":5.105123519897461,"1092":-8.205780029296875,"1093":-2.431711196899414,"1094":8.733976364135742,"1095":0.019552595913410187,"1096":0.20681042969226837,"1097":2.071809768676758,"1098":-6.645179748535156,"1099":-9.156220436096191,"1100":8.460186958312988,"1101":-3.359868049621582,"1102":0.5132887959480286,"1103":-1.289007544517517,"1104":-11.44223403930664,"1105":-9.287805557250977,"1106":-0.17592653632164001,"1107":9.898452758789062,"1108":9.909339904785156,"1109":-2.353060483932495,"1110":2.884551763534546,"1111":-8.925646781921387,"1112":-0.6955631971359253,"1113":1.2755686044692993,"1114":2.258028268814087,"1115":-3.7130024433135986,"1116":9.621284484863281,"1117":-1.6638896465301514,"1118":-12.079678535461426,"1119":0.024007778614759445,"1120":-16.642488479614258,"1121":-2.6990745067596436,"1122":1.2246578931808472,"1123":3.680114984512329,"1124":2.3763372898101807,"1125":4.294814586639404,"1126":2.3657350540161133,"1127":3.334331512451172,"1128":4.938894748687744,"1129":-1.4041109085083008,"1130":8.90443229675293,"1131":3.98433518409729,"1132":1.4923449754714966,"1133":4.611960411071777,"1134":4.505525588989258,"1135":-3.4124372005462646,"1136":-19.90329933166504,"1137":-2.572657823562622,"1138":1.4148905277252197,"1139":3.5382349491119385,"1140":-3.2122786045074463,"1141":-1.9741472005844116,"1142":-2.5591542720794678,"1143":-1.5154082775115967,"1144":-4.414514541625977,"1145":3.565016508102417,"1146":-1.275937795639038,"1147":0.07989083230495453,"1148":-22.253992080688477,"1149":-6.638617992401123,"1150":1.8991280794143677,"1151":8.442136764526367,"1152":1.9731870889663696,"1153":4.228209495544434,"1154":-3.971825122833252,"1155":2.0359575748443604,"1156":1.3749241828918457,"1157":1.5610460042953491,"1158":-2.867798328399658,"1159":3.992737054824829,"1160":-5.611462116241455,"1161":-2.899531364440918,"1162":4.382310390472412,"1163":-3.4008677005767822,"1164":0.6007876396179199,"1165":5.143121719360352,"1166":3.427863359451294,"1167":-2.67167592048645,"1168":1.8041865825653076,"1169":5.290650367736816,"1170":-0.026609143242239952,"1171":-2.602473258972168,"1172":-1.1305900812149048,"1173":3.475067377090454,"1174":-0.5534864068031311,"1175":-3.7091245651245117,"1176":-1.4483098983764648,"1177":3.1437482833862305,"1178":-5.589499473571777,"1179":-0.6457327008247375,"1180":0.8584889769554138,"1181":4.760156631469727,"1182":1.9047706127166748,"1183":-2.1374411582946777,"1184":-3.777914047241211,"1185":-2.7163305282592773,"1186":1.4013333320617676,"1187":1.9079184532165527,"1188":1.9664912223815918,"1189":-5.321061611175537,"1190":-5.488664627075195,"1191":-0.9383267760276794,"1192":0.34067031741142273,"1193":5.789278507232666,"1194":-4.015474796295166,"1195":3.1526618003845215,"1196":3.7516400814056396,"1197":-1.482796549797058,"1198":3.843836784362793,"1199":-2.702972650527954,"1200":4.729744911193848,"1201":-3.6984119415283203,"1202":1.2412705421447754,"1203":0.9110223650932312,"1204":-1.7357350587844849,"1205":-0.4351682960987091,"1206":0.9405553936958313,"1207":11.383909225463867,"1208":0.566076397895813,"1209":2.8382651805877686,"1210":-7.143775939941406,"1211":10.063088417053223,"1212":5.705286502838135,"1213":9.652429580688477,"1214":-13.081320762634277,"1215":17.85771369934082,"1216":-7.604461669921875,"1217":-14.105135917663574,"1218":2.7242956161499023,"1219":3.37496280670166,"1220":-0.31463736295700073,"1221":-2.051344156265259,"1222":-17.146535873413086,"1223":14.88092041015625,"1224":7.24984073638916,"1225":7.106288909912109,"1226":-4.1288557052612305,"1227":4.618623733520508,"1228":-6.221563339233398,"1229":15.68321704864502,"1230":-15.304794311523438,"1231":-9.610960960388184,"1232":4.609668254852295,"1233":-12.302742004394531,"1234":-9.252562522888184,"1235":-8.847013473510742,"1236":7.4836201667785645,"1237":3.7857606410980225,"1238":4.167120456695557,"1239":-5.335020065307617,"1240":-5.3164472579956055,"1241":5.192340850830078,"1242":-4.527960300445557,"1243":4.469551086425781,"1244":-12.812649726867676,"1245":18.022258758544922,"1246":-1.278836965560913,"1247":3.064920663833618,"1248":-6.3041157722473145,"1249":4.462436676025391,"1250":16.618152618408203,"1251":6.580847263336182,"1252":8.763138771057129,"1253":-0.8800172805786133,"1254":4.837503433227539,"1255":8.006490707397461,"1256":8.884939193725586,"1257":-19.854087829589844,"1258":15.217574119567871,"1259":-21.471454620361328,"1260":-15.643695831298828,"1261":18.479978561401367,"1262":-7.628347396850586,"1263":-2.7690727710723877,"1264":3.398230791091919,"1265":0.5110456347465515,"1266":21.629318237304688,"1267":20.638307571411133,"1268":4.240847110748291,"1269":-4.92318058013916,"1270":15.533761978149414,"1271":-22.436431884765625,"1272":22.911401748657227,"1273":13.841879844665527,"1274":-21.60089683532715,"1275":5.076167106628418,"1276":-22.05246925354004,"1277":-23.90142250061035,"1278":17.399316787719727,"1279":21.396347045898438,"1280":20.568344116210938,"1281":16.609960556030273,"1282":-1.7207976579666138,"1283":-15.534414291381836,"1284":19.93431854248047,"1285":-22.281339645385742,"1286":5.525520324707031,"1287":-5.299856662750244,"1288":-4.163132667541504,"1289":20.221923828125,"1290":2.9238743782043457,"1291":-0.1529148519039154,"1292":4.332663059234619,"1293":2.0322670936584473,"1294":8.197190284729004,"1295":-0.1110541820526123,"1296":3.1922366619110107,"1297":-3.6638174057006836,"1298":-1.0518252849578857,"1299":0.6366236805915833,"1300":9.178189277648926,"1301":3.8256378173828125,"1302":-4.222032070159912,"1303":7.6519775390625,"1304":2.2457973957061768,"1305":2.9624691009521484,"1306":4.457551002502441,"1307":-1.577640414237976,"1308":8.596526145935059,"1309":-6.272538185119629,"1310":-11.0514497756958,"1311":-0.5244598984718323,"1312":10.15003490447998,"1313":5.801579475402832,"1314":-0.056566838175058365,"1315":1.05868399143219,"1316":-1.9197187423706055,"1317":-4.162842273712158,"1318":3.6087942123413086,"1319":0.4791918396949768,"1320":0.29718732833862305,"1321":2.20361328125,"1322":-0.5428324341773987,"1323":3.0460543632507324,"1324":1.9141392707824707,"1325":1.9521936178207397,"1326":7.095785617828369,"1327":-0.2787975072860718,"1328":1.1866605281829834,"1329":0.6534008383750916,"1330":-0.6621272563934326,"1331":0.9466820359230042,"1332":-1.7874003648757935,"1333":-10.979503631591797,"1334":10.894804954528809,"1335":-10.931768417358398,"1336":10.835756301879883,"1337":10.842286109924316,"1338":10.866988182067871,"1339":-10.85288143157959,"1340":10.890621185302734,"1341":10.859702110290527,"1342":-10.930883407592773,"1343":-10.820297241210938,"1344":10.820838928222656,"1345":10.932645797729492,"1346":-10.821191787719727,"1347":-10.954434394836426,"1348":-10.95038890838623,"1349":10.923206329345703,"1350":-10.946566581726074,"1351":-10.819242477416992,"1352":10.838725090026855,"1353":10.867430686950684,"1354":10.796649932861328,"1355":-10.891769409179688,"1356":-10.98062801361084,"1357":-10.836172103881836,"1358":10.875750541687012,"1359":10.932072639465332,"1360":10.902158737182617,"1361":-10.951742172241211,"1362":-10.79493236541748,"1363":-10.794950485229492,"1364":10.854642868041992,"1365":10.816810607910156,"1366":-10.947011947631836,"1367":10.82628345489502,"1368":10.923754692077637,"1369":-10.821518898010254,"1370":10.86915111541748,"1371":-10.851862907409668,"1372":10.86529541015625,"1373":-10.863601684570312,"1374":10.861997604370117,"1375":10.955099105834961,"1376":-24.681102752685547,"1377":16.090072631835938,"1378":-24.675445556640625,"1379":6.326692581176758,"1380":8.564457893371582,"1381":10.813504219055176,"1382":-10.191308975219727,"1383":8.875275611877441,"1384":7.654487609863281,"1385":11.92616081237793,"1386":-10.94187068939209,"1387":5.696667194366455,"1388":-24.68116569519043,"1389":-10.36916732788086,"1390":24.755664825439453,"1391":-24.743221282958984,"1392":24.346784591674805,"1393":-24.680418014526367,"1394":-8.215402603149414,"1395":6.5057220458984375,"1396":24.712627410888672,"1397":6.262331485748291,"1398":-9.507379531860352,"1399":-24.69783592224121,"1400":-6.843904972076416,"1401":5.811359882354736,"1402":-19.211502075195312,"1403":-24.73210334777832,"1404":24.72051239013672,"1405":-5.3808488845825195,"1406":-7.6076812744140625,"1407":8.411914825439453,"1408":11.573554992675781,"1409":24.75092315673828,"1410":7.726306915283203,"1411":-24.669879913330078,"1412":-6.504826068878174,"1413":5.690046310424805,"1414":-6.643359661102295,"1415":8.52051067352295,"1416":-9.693374633789062,"1417":6.193983554840088,"1418":24.740140914916992,"1419":-15.016561508178711,"1420":-15.066612243652344,"1421":-15.009675979614258,"1422":15.088449478149414,"1423":15.094051361083984,"1424":15.100839614868164,"1425":-15.015974998474121,"1426":15.025188446044922,"1427":15.042551040649414,"1428":-15.080486297607422,"1429":-15.103816986083984,"1430":15.077056884765625,"1431":15.048650741577148,"1432":-15.037345886230469,"1433":-15.062259674072266,"1434":-15.02895736694336,"1435":15.016448020935059,"1436":15.063243865966797,"1437":-15.069601058959961,"1438":15.002727508544922,"1439":15.045040130615234,"1440":15.102487564086914,"1441":-15.017446517944336,"1442":-15.075723648071289,"1443":-15.032970428466797,"1444":-15.003438949584961,"1445":15.03115463256836,"1446":15.027007102966309,"1447":-15.023773193359375,"1448":-14.985311508178711,"1449":-15.00833511352539,"1450":15.08840560913086,"1451":15.103755950927734,"1452":-15.064571380615234,"1453":15.060222625732422,"1454":-15.015262603759766,"1455":-15.053343772888184,"1456":15.0909423828125,"1457":-15.06386947631836,"1458":15.058565139770508,"1459":-15.045206069946289,"1460":-15.056899070739746,"1461":15.02328872680664,"1462":-1.089417815208435,"1463":1.7324888706207275,"1464":-4.541511058807373,"1465":7.684133529663086,"1466":-1.3133083581924438,"1467":-22.272754669189453,"1468":-2.3827388286590576,"1469":2.876767158508301,"1470":4.222990989685059,"1471":-0.7234029173851013,"1472":-10.131765365600586,"1473":15.74802303314209,"1474":-6.705931663513184,"1475":-10.92858600616455,"1476":4.041164398193359,"1477":-9.375158309936523,"1478":1.942866325378418,"1479":-2.816868543624878,"1480":-0.5521733164787292,"1481":13.089256286621094,"1482":8.040168762207031,"1483":3.8615212440490723,"1484":-1.8620226383209229,"1485":6.515116214752197,"1486":-18.095483779907227,"1487":-14.77979850769043,"1488":6.367488861083984,"1489":-4.924994945526123,"1490":1.4390605688095093,"1491":-30.014663696289062,"1492":17.31586265563965,"1493":10.538493156433105,"1494":10.021012306213379,"1495":3.296175003051758,"1496":6.798275947570801,"1497":-16.22811508178711,"1498":-8.954877853393555,"1499":11.67366886138916,"1500":-8.676309585571289,"1501":0.20521774888038635,"1502":-1.443996548652649,"1503":2.972899913787842,"1504":9.53763484954834,"1505":-21.160749435424805,"1506":-19.523771286010742,"1507":-6.684835433959961,"1508":12.133686065673828,"1509":-11.222151756286621,"1510":18.679838180541992,"1511":-13.880390167236328,"1512":0.7908610105514526,"1513":-7.133109092712402,"1514":-1.1245993375778198,"1515":-20.20857048034668,"1516":6.477916240692139,"1517":6.0256028175354,"1518":-18.676313400268555,"1519":-6.835169315338135,"1520":-25.09547233581543,"1521":3.658923864364624,"1522":-19.41031837463379,"1523":-10.506844520568848,"1524":4.134946823120117,"1525":3.608137845993042,"1526":-5.822132587432861,"1527":-22.19202995300293,"1528":6.334480285644531,"1529":-10.108497619628906,"1530":24.277854919433594,"1531":15.787269592285156,"1532":-3.2147011756896973,"1533":-11.695937156677246,"1534":-18.591754913330078,"1535":-33.4864501953125,"1536":1.5911448001861572,"1537":25.912269592285156,"1538":-7.493965148925781,"1539":21.72062873840332,"1540":17.09259033203125,"1541":4.721775054931641,"1542":-12.948874473571777,"1543":-12.648996353149414,"1544":7.43173885345459,"1545":-18.00489616394043,"1546":14.762391090393066,"1547":-0.42683374881744385,"1548":-3.8725829124450684,"1549":-53.426856994628906,"1550":53.37604904174805,"1551":-3.9008359909057617,"1552":-50.08860778808594,"1553":0.43937456607818604,"1554":3.8745534420013428,"1555":-53.396095275878906,"1556":-53.39628982543945,"1557":-13.468774795532227,"1558":38.91477966308594,"1559":53.346534729003906,"1560":-46.13663101196289,"1561":52.26507568359375,"1562":-3.9612479209899902,"1563":2.023189067840576,"1564":-53.41394805908203,"1565":-3.942234754562378,"1566":-3.8873090744018555,"1567":-3.9157838821411133,"1568":9.846524238586426,"1569":-53.431610107421875,"1570":53.337501525878906,"1571":46.82969665527344,"1572":3.849851608276367,"1573":-3.9297285079956055,"1574":11.236614227294922,"1575":-53.35594940185547,"1576":49.225502014160156,"1577":-6.444194793701172,"1578":3.8682198524475098,"1579":3.972391128540039,"1580":3.904996871948242,"1581":53.338130950927734,"1582":-53.33452606201172,"1583":-53.4155158996582,"1584":-9.660873413085938,"1585":-53.323970794677734,"1586":3.8957815170288086,"1587":-53.37517547607422,"1588":53.37717056274414,"1589":53.345680236816406,"1590":-53.34346389770508,"1591":-25.148908615112305,"1592":25.581417083740234,"1593":-24.691625595092773,"1594":25.40013313293457,"1595":25.84817123413086,"1596":-23.054834365844727,"1597":19.590740203857422,"1598":-23.579286575317383,"1599":25.19937515258789,"1600":13.219663619995117,"1601":-26.23442840576172,"1602":-23.779621124267578,"1603":24.63541030883789,"1604":24.552080154418945,"1605":-25.13178253173828,"1606":21.406280517578125,"1607":24.977815628051758,"1608":-13.767148971557617,"1609":23.702165603637695,"1610":-23.717201232910156,"1611":25.933263778686523,"1612":25.083213806152344,"1613":17.63373565673828,"1614":-25.668495178222656,"1615":22.9188232421875,"1616":24.641273498535156,"1617":-24.45525360107422,"1618":-17.117633819580078,"1619":-26.835050582885742,"1620":-18.66263771057129,"1621":-25.36884117126465,"1622":-20.582279205322266,"1623":18.900400161743164,"1624":-24.95802879333496,"1625":25.775827407836914,"1626":20.205373764038086,"1627":20.96243667602539,"1628":25.497732162475586,"1629":-25.279399871826172,"1630":26.019384384155273,"1631":24.336772918701172,"1632":-15.07888412475586,"1633":-24.689245223999023,"1634":2.2178657054901123,"1635":-5.935030937194824,"1636":-11.84924602508545,"1637":-10.433919906616211,"1638":4.809768199920654,"1639":0.6752619743347168,"1640":2.9121594429016113,"1641":-12.134283065795898,"1642":-2.464160203933716,"1643":2.84142804145813,"1644":-6.08305549621582,"1645":2.2157981395721436,"1646":-9.996832847595215,"1647":7.805979251861572,"1648":6.487185001373291,"1649":9.804858207702637,"1650":10.759505271911621,"1651":-10.002469062805176,"1652":10.946581840515137,"1653":-2.2348392009735107,"1654":10.022126197814941,"1655":-7.738204002380371,"1656":12.830682754516602,"1657":4.263139724731445,"1658":1.4928867816925049,"1659":-1.4557074308395386,"1660":-0.9095820188522339,"1661":-9.03693675994873,"1662":-2.7169289588928223,"1663":2.3383541107177734,"1664":0.016618851572275162,"1665":10.241727828979492,"1666":1.9021111726760864,"1667":12.214550971984863,"1668":-3.7711923122406006,"1669":10.786052703857422,"1670":1.352756142616272,"1671":1.0706684589385986,"1672":1.6780598163604736,"1673":-10.670907020568848,"1674":9.37720775604248,"1675":-8.53748893737793,"1676":-4.267573833465576,"1677":4.9869585037231445,"1678":2.4621787071228027,"1679":2.010486364364624,"1680":5.437455654144287,"1681":-10.95303726196289,"1682":0.24543090164661407,"1683":5.189042091369629,"1684":-12.256935119628906,"1685":-7.401598930358887,"1686":-4.968515872955322,"1687":10.136345863342285,"1688":3.7078962326049805,"1689":-6.515785217285156,"1690":12.131829261779785,"1691":10.054978370666504,"1692":-5.682645320892334,"1693":-5.621488571166992,"1694":4.800382137298584,"1695":10.144179344177246,"1696":3.796954870223999,"1697":0.5306198596954346,"1698":-8.488086700439453,"1699":12.409431457519531,"1700":6.662553310394287,"1701":-4.370828628540039,"1702":6.317917823791504,"1703":12.772010803222656,"1704":-5.7691192626953125,"1705":5.3185625076293945,"1706":-7.0812225341796875,"1707":-7.248409271240234,"1708":-5.293774604797363,"1709":-8.94865608215332,"1710":6.5536322593688965,"1711":-8.199048042297363,"1712":-5.612060546875,"1713":-3.304124355316162,"1714":-5.751922130584717,"1715":-0.6300615668296814,"1716":-12.450631141662598,"1717":8.611328125,"1718":1.0163768529891968,"1719":-5.6331467628479,"1720":-17.982772827148438,"1721":-3.860590934753418,"1722":24.669958114624023,"1723":-8.271018028259277,"1724":-24.754507064819336,"1725":-24.68902587890625,"1726":9.495758056640625,"1727":-6.14272403717041,"1728":-4.839997291564941,"1729":6.770601272583008,"1730":24.734041213989258,"1731":-18.97661781311035,"1732":-5.857330322265625,"1733":-24.732723236083984,"1734":22.180753707885742,"1735":24.729814529418945,"1736":-8.710714340209961,"1737":24.1627197265625,"1738":5.284626007080078,"1739":24.669462203979492,"1740":24.706974029541016,"1741":-3.6076900959014893,"1742":6.945108413696289,"1743":4.291001319885254,"1744":24.690757751464844,"1745":24.735376358032227,"1746":-5.526861667633057,"1747":-4.993154525756836,"1748":24.56952476501465,"1749":9.962800025939941,"1750":21.43864631652832,"1751":-11.670909881591797,"1752":-4.531431674957275,"1753":5.9517502784729,"1754":-3.7873706817626953,"1755":-10.330573081970215,"1756":-24.694686889648438,"1757":-8.549171447753906,"1758":-15.432409286499023,"1759":-12.017267227172852,"1760":3.346161365509033,"1761":-8.473371505737305,"1762":-5.34732723236084,"1763":-7.643388271331787,"1764":6.785137176513672,"1765":-7.773578643798828,"1766":-7.344576835632324,"1767":-9.389450073242188,"1768":-7.984766960144043,"1769":4.032084941864014,"1770":3.286095380783081,"1771":7.52875280380249,"1772":8.095335960388184,"1773":10.589694023132324,"1774":-6.851670742034912,"1775":-0.23540090024471283,"1776":-3.527039051055908,"1777":2.112675428390503,"1778":3.984138011932373,"1779":8.062922477722168,"1780":-9.214468955993652,"1781":5.857867240905762,"1782":-0.3388810455799103,"1783":1.3943523168563843,"1784":-3.6432018280029297,"1785":1.0761555433273315,"1786":1.7355743646621704,"1787":3.1102099418640137,"1788":-3.592207431793213,"1789":-1.7909619808197021,"1790":2.6622893810272217,"1791":-6.299015998840332,"1792":-1.0339410305023193,"1793":-1.7350858449935913,"1794":-0.7258285284042358,"1795":0.23367241024971008,"1796":0.6352472305297852,"1797":-5.019501686096191,"1798":0.6836981177330017,"1799":2.8146324157714844,"1800":-0.05894164741039276,"1801":6.917176723480225,"1802":-4.260562419891357,"1803":-3.3021442890167236,"1804":-4.329761028289795,"1805":5.811872959136963,"1806":-5.398216247558594,"1807":5.30096435546875,"1808":-5.626419544219971,"1809":0.8265768885612488,"1810":-1.1798179149627686,"1811":-1.5735934972763062,"1812":-0.32145482301712036,"1813":-2.2141051292419434,"1814":-0.35849669575691223,"1815":-1.7006423473358154,"1816":0.23382462561130524,"1817":-0.4584207236766815,"1818":4.8380537033081055,"1819":0.582298219203949,"1820":-0.532116711139679,"1821":-5.5098958015441895,"1822":6.206789970397949,"1823":-7.111423492431641,"1824":1.2441844940185547,"1825":-1.3971143960952759,"1826":1.449154019355774,"1827":1.908576488494873,"1828":1.671190857887268,"1829":-5.969059944152832,"1830":0.48986202478408813,"1831":0.9984639883041382,"1832":3.2991514205932617,"1833":3.963139533996582,"1834":-6.339367389678955,"1835":-3.900054454803467,"1836":-2.5691006183624268,"1837":3.6586692333221436,"1838":4.245432376861572,"1839":-0.8680559396743774,"1840":-0.8966457843780518,"1841":4.031988143920898,"1842":-1.3434978723526,"1843":4.06406831741333,"1844":-1.0121512413024902,"1845":-0.9365003108978271,"1846":-1.2231950759887695,"1847":3.5665202140808105,"1848":1.5466986894607544,"1849":0.045094482600688934,"1850":-0.016720445826649666,"1851":0.03648132085800171,"1852":0.033367421478033066,"1853":0.016651129350066185,"1854":-0.0032169665209949017,"1855":0.018041422590613365,"1856":0.030170518904924393,"1857":0.008782660588622093,"1858":0.03545687720179558,"1859":0.009913641959428787,"1860":0.0016303346492350101,"1861":-0.0408184789121151,"1862":0.03181808814406395,"1863":0.04658270627260208,"1864":0.025390932336449623,"1865":0.03747360780835152,"1866":-0.046690113842487335,"1867":0.025426296517252922,"1868":-0.019300436601042747,"1869":0.043078795075416565,"1870":0.04636750370264053,"1871":-0.047239240258932114,"1872":0.03518298640847206,"1873":0.009544522501528263,"1874":-0.02500840276479721,"1875":0.0032005971297621727,"1876":-0.04117304086685181,"1877":0.04708776995539665,"1878":0.017684455960989,"1879":0.04415697231888771,"1880":-0.020160716027021408,"1881":-0.004673848394304514,"1882":0.046252716332674026,"1883":-0.04458271712064743,"1884":0.023520566523075104,"1885":-0.04488489404320717,"1886":0.045302506536245346,"1887":0.009801890701055527,"1888":-0.011185724288225174,"1889":0.016364315524697304,"1890":0.03785239905118942,"1891":-0.02743908390402794}},"hiddenLayers":[{"inputMatrix":{"rows":20,"columns":43,"weights":{"0":2.4549849033355713,"1":-4.625242233276367,"2":1.8525850772857666,"3":-9.655200004577637,"4":1.9578150510787964,"5":8.124927520751953,"6":-1.395807147026062,"7":-4.48563814163208,"8":-0.32624295353889465,"9":-0.01884647272527218,"10":1.4902454614639282,"11":-0.20329052209854126,"12":-8.308717727661133,"13":-3.4417564868927,"14":2.930410385131836,"15":2.7817516326904297,"16":-8.270548820495605,"17":5.209314823150635,"18":2.8642377853393555,"19":-2.2334399223327637,"20":-2.1720569133758545,"21":-4.798129558563232,"22":-1.4293357133865356,"23":5.109152793884277,"24":-5.908915042877197,"25":-2.210827112197876,"26":-6.002418518066406,"27":1.4963351488113403,"28":-3.852301597595215,"29":1.0754350423812866,"30":4.9341139793396,"31":-3.2921836376190186,"32":-0.47285163402557373,"33":7.9474711418151855,"34":-3.920413017272949,"35":-3.042611598968506,"36":-2.627910614013672,"37":-4.3696208000183105,"38":1.0316864252090454,"39":2.06307053565979,"40":-0.6329257488250732,"41":0.5344778299331665,"42":-7.675710678100586,"43":-7.152521133422852,"44":-7.2315449714660645,"45":-8.044523239135742,"46":3.1487724781036377,"47":3.409006118774414,"48":6.995771884918213,"49":-4.73565149307251,"50":1.2210997343063354,"51":-1.7503811120986938,"52":2.5476882457733154,"53":-5.074732303619385,"54":1.9898433685302734,"55":1.4042729139328003,"56":8.653402328491211,"57":-1.7223057746887207,"58":-3.7700109481811523,"59":0.724181592464447,"60":-1.3283883333206177,"61":-4.202478408813477,"62":2.0671987533569336,"63":5.9014177322387695,"64":-2.4564220905303955,"65":-0.4869239330291748,"66":-2.138831615447998,"67":-1.4857665300369263,"68":-0.8617652654647827,"69":0.7829972505569458,"70":-4.298580646514893,"71":-2.107844591140747,"72":-5.556787967681885,"73":-3.2496347427368164,"74":-5.904298305511475,"75":2.693204402923584,"76":-1.4092521667480469,"77":1.7063168287277222,"78":1.0154204368591309,"79":0.1900266855955124,"80":3.59226131439209,"81":-7.0086517333984375,"82":0.38998791575431824,"83":-3.859447479248047,"84":5.330533981323242,"85":0.3759840130805969,"86":-11.209844589233398,"87":6.250525951385498,"88":-10.241678237915039,"89":-3.908207893371582,"90":-10.069979667663574,"91":-7.584019660949707,"92":0.043581701815128326,"93":1.4074190855026245,"94":8.720321655273438,"95":5.197116851806641,"96":4.69720983505249,"97":-2.0036895275115967,"98":5.4636640548706055,"99":-0.9631434679031372,"100":-2.1758534908294678,"101":-1.0067415237426758,"102":11.510435104370117,"103":-8.600711822509766,"104":2.4244625568389893,"105":2.934826135635376,"106":0.14797309041023254,"107":-9.847037315368652,"108":4.451793670654297,"109":2.153548240661621,"110":0.43166613578796387,"111":-2.1759419441223145,"112":-1.1348967552185059,"113":-5.286990642547607,"114":-3.689850330352783,"115":-3.098440647125244,"116":-3.1009490489959717,"117":2.4958226680755615,"118":3.8128628730773926,"119":-1.723292350769043,"120":-2.1762521266937256,"121":5.741604328155518,"122":2.553927183151245,"123":3.3875129222869873,"124":1.3595540523529053,"125":-3.446575403213501,"126":4.475121974945068,"127":-2.1643404960632324,"128":8.109129905700684,"129":1.3548215627670288,"130":0.36522477865219116,"131":0.6494378447532654,"132":4.747537612915039,"133":-2.9413204193115234,"134":1.349071979522705,"135":0.008833063766360283,"136":-0.00679298210889101,"137":-2.5308139324188232,"138":0.45326852798461914,"139":-8.077052116394043,"140":4.8837385177612305,"141":-8.907501220703125,"142":-4.557255744934082,"143":6.022964954376221,"144":-6.953726768493652,"145":-0.0817064568400383,"146":-0.42188921570777893,"147":1.9797508716583252,"148":10.124027252197266,"149":5.024703502655029,"150":2.152244806289673,"151":1.8140525817871094,"152":8.640481948852539,"153":-8.417032241821289,"154":6.880980491638184,"155":4.886343479156494,"156":-6.726804733276367,"157":2.9435935020446777,"158":-7.303274154663086,"159":-6.511467456817627,"160":6.408891677856445,"161":6.104387283325195,"162":4.555777072906494,"163":4.6123433113098145,"164":-1.641281008720398,"165":-6.3882155418396,"166":9.089820861816406,"167":-6.475122451782227,"168":-1.6631449460983276,"169":1.7995206117630005,"170":0.016382507979869843,"171":7.941951751708984,"172":-0.5297305583953857,"173":1.2198870182037354,"174":4.9369659423828125,"175":1.8275595903396606,"176":0.8360497951507568,"177":6.532160758972168,"178":5.337206840515137,"179":1.4076542854309082,"180":7.979401588439941,"181":5.489582538604736,"182":2.7546193599700928,"183":-2.544156551361084,"184":-1.7662276029586792,"185":-0.4352504014968872,"186":-0.07042960822582245,"187":-1.508300542831421,"188":-3.6927225589752197,"189":5.428006649017334,"190":-0.4394388496875763,"191":1.7605363130569458,"192":0.41467973589897156,"193":6.9038472175598145,"194":-0.740028440952301,"195":-4.072237014770508,"196":-2.4587512016296387,"197":0.44121256470680237,"198":-5.541149139404297,"199":5.529466152191162,"200":-6.1936354637146,"201":-0.2781584858894348,"202":-2.2069735527038574,"203":-4.603088855743408,"204":7.439986705780029,"205":-0.33326858282089233,"206":3.6526503562927246,"207":-0.8831158876419067,"208":-7.1075663566589355,"209":7.009006023406982,"210":-2.478266954421997,"211":1.5890549421310425,"212":-6.478219985961914,"213":7.1389479637146,"214":0.4541754424571991,"215":-1.983937382698059,"216":3.05745530128479,"217":-1.7139171361923218,"218":0.9938817620277405,"219":3.1059532165527344,"220":2.46097993850708,"221":-0.10913140326738358,"222":1.5687484741210938,"223":4.065290927886963,"224":0.003795201890170574,"225":-1.214892029762268,"226":4.098196983337402,"227":-0.5032699704170227,"228":-3.930814266204834,"229":0.006576022133231163,"230":-2.799591302871704,"231":3.074096202850342,"232":-3.469316005706787,"233":0.546412467956543,"234":3.358693838119507,"235":0.34485557675361633,"236":1.1755809783935547,"237":-3.0346078872680664,"238":-0.21530915796756744,"239":-3.6102168560028076,"240":4.258737087249756,"241":2.3219242095947266,"242":-1.3922514915466309,"243":1.3499466180801392,"244":-3.144228219985962,"245":-3.9396438598632812,"246":1.8470579385757446,"247":1.994559407234192,"248":0.9179771542549133,"249":0.9353477954864502,"250":3.7428722381591797,"251":-1.622143030166626,"252":3.5312893390655518,"253":-3.5716447830200195,"254":1.533954381942749,"255":-0.879700243473053,"256":3.148947238922119,"257":3.2245776653289795,"258":6.509058475494385,"259":-8.541341781616211,"260":4.356060028076172,"261":-1.3696576356887817,"262":5.34575891494751,"263":4.5290398597717285,"264":0.8436827659606934,"265":-1.781886339187622,"266":3.841872215270996,"267":11.594106674194336,"268":1.001979112625122,"269":-0.9223260879516602,"270":-6.173979759216309,"271":-1.1165815591812134,"272":5.421420574188232,"273":8.440839767456055,"274":-4.530000686645508,"275":5.14348030090332,"276":1.5134425163269043,"277":-1.6484280824661255,"278":-0.7260861992835999,"279":3.847529411315918,"280":-1.4186933040618896,"281":7.9430108070373535,"282":1.071155071258545,"283":1.1699877977371216,"284":-0.514099657535553,"285":-7.1038289070129395,"286":7.415207862854004,"287":-5.265722274780273,"288":0.12696918845176697,"289":-3.3250272274017334,"290":-1.236533761024475,"291":4.840575695037842,"292":-0.16893404722213745,"293":-5.163858890533447,"294":2.510195732116699,"295":3.5388996601104736,"296":-2.6612985134124756,"297":2.944181203842163,"298":2.929863929748535,"299":-2.5496511459350586,"300":-5.2909722328186035,"301":3.4736337661743164,"302":-3.753920555114746,"303":-1.229938268661499,"304":-3.265906810760498,"305":8.462699890136719,"306":11.125468254089355,"307":-1.294885277748108,"308":3.076594829559326,"309":-0.6349417567253113,"310":-0.5247856974601746,"311":-6.335136413574219,"312":3.0335710048675537,"313":-5.329301834106445,"314":-0.18907277286052704,"315":-2.1827304363250732,"316":-2.7672464847564697,"317":-0.49625489115715027,"318":3.414421558380127,"319":-3.157742977142334,"320":2.3161234855651855,"321":13.164640426635742,"322":-0.8103296756744385,"323":-3.8607373237609863,"324":7.799300670623779,"325":-8.989178657531738,"326":-2.9505090713500977,"327":-2.398507595062256,"328":2.9800708293914795,"329":-4.034617900848389,"330":-2.1342175006866455,"331":-3.818352699279785,"332":-5.094500541687012,"333":2.6110002994537354,"334":5.7826690673828125,"335":-1.1123274564743042,"336":-1.7130870819091797,"337":-2.6191742420196533,"338":2.3395180702209473,"339":-10.475305557250977,"340":9.063060760498047,"341":-4.128535270690918,"342":0.6279816031455994,"343":-3.587123394012451,"344":-0.3799249529838562,"345":-3.328469753265381,"346":4.680446147918701,"347":-0.5535850524902344,"348":-7.500593662261963,"349":-6.184696674346924,"350":4.759453296661377,"351":-6.506215572357178,"352":-5.600744247436523,"353":14.228543281555176,"354":12.721981048583984,"355":3.6899492740631104,"356":-8.796852111816406,"357":7.002981662750244,"358":0.6359150409698486,"359":5.528932094573975,"360":-6.189381122589111,"361":-0.14338569343090057,"362":-3.298881769180298,"363":-3.0297391414642334,"364":-10.606362342834473,"365":-1.2250124216079712,"366":4.531705856323242,"367":8.53729248046875,"368":4.857789516448975,"369":-1.1549452543258667,"370":-11.716947555541992,"371":-4.180141448974609,"372":7.753194808959961,"373":8.444165229797363,"374":2.0005300045013428,"375":-0.5604116320610046,"376":0.9200391173362732,"377":4.903410911560059,"378":-3.690617799758911,"379":-2.008633613586426,"380":10.436436653137207,"381":-6.757977485656738,"382":2.9240474700927734,"383":-4.718749046325684,"384":1.4775643348693848,"385":5.947098255157471,"386":-3.239100217819214,"387":2.479421377182007,"388":-0.6265917420387268,"389":7.163781642913818,"390":-1.6439603567123413,"391":-7.730587482452393,"392":-0.8521789908409119,"393":6.165125846862793,"394":-5.204617977142334,"395":0.5558564066886902,"396":-1.5430476665496826,"397":0.12017051875591278,"398":1.9826980829238892,"399":-3.978827953338623,"400":4.175906181335449,"401":1.1597086191177368,"402":5.812984943389893,"403":-4.935869216918945,"404":6.798620700836182,"405":1.7737905979156494,"406":-0.19553954899311066,"407":-1.7176207304000854,"408":0.15342721343040466,"409":4.527141571044922,"410":6.360198497772217,"411":-2.045839786529541,"412":-2.6620240211486816,"413":-6.373364448547363,"414":-7.0413289070129395,"415":3.8207404613494873,"416":-0.07261335104703903,"417":2.9388625621795654,"418":-4.498005390167236,"419":-3.2958030700683594,"420":8.795625686645508,"421":-2.177208423614502,"422":-6.822375774383545,"423":5.31484842300415,"424":-5.448750972747803,"425":0.8155965805053711,"426":-6.045055866241455,"427":0.33374083042144775,"428":-0.3656303584575653,"429":-5.561455726623535,"430":1.1007715463638306,"431":2.5577023029327393,"432":-0.9269883632659912,"433":0.33348357677459717,"434":-8.737534523010254,"435":-1.6819988489151,"436":3.5020854473114014,"437":-8.216524124145508,"438":-5.9586873054504395,"439":-0.7738906145095825,"440":8.906937599182129,"441":2.3028454780578613,"442":-2.9335920810699463,"443":4.655145168304443,"444":7.755679130554199,"445":-5.475789546966553,"446":-1.4908555746078491,"447":-0.18166863918304443,"448":7.332845211029053,"449":1.3493449687957764,"450":-1.9250311851501465,"451":-7.146274089813232,"452":8.571588516235352,"453":4.066431999206543,"454":-2.352804183959961,"455":4.732266902923584,"456":6.03090238571167,"457":-1.6404662132263184,"458":1.6374067068099976,"459":-1.229259967803955,"460":-3.4444100856781006,"461":-4.219725131988525,"462":-6.196304798126221,"463":3.4885003566741943,"464":-6.034883975982666,"465":-0.5203602910041809,"466":-0.6692186594009399,"467":-2.130450487136841,"468":1.629736304283142,"469":-9.8898344039917,"470":6.685855865478516,"471":-1.636894941329956,"472":0.5433255434036255,"473":4.734134674072266,"474":-2.6303505897521973,"475":4.490538597106934,"476":-2.7069358825683594,"477":-0.08804686367511749,"478":-0.8237754106521606,"479":2.546828508377075,"480":-1.3886765241622925,"481":0.48945844173431396,"482":2.871739387512207,"483":1.8259872198104858,"484":-1.1163254976272583,"485":-4.173138618469238,"486":0.6431570649147034,"487":3.8278303146362305,"488":3.076510190963745,"489":-2.8083791732788086,"490":5.88356351852417,"491":3.1611249446868896,"492":-1.8392963409423828,"493":-3.870849609375,"494":-0.7815958261489868,"495":1.2130320072174072,"496":3.485541582107544,"497":2.6053860187530518,"498":-3.2255160808563232,"499":-1.0121806859970093,"500":-3.659271240234375,"501":7.85630989074707,"502":2.8686792850494385,"503":2.588008165359497,"504":-4.174787521362305,"505":-2.074591636657715,"506":2.1348788738250732,"507":-2.3395307064056396,"508":0.039747726172208786,"509":4.9033942222595215,"510":-3.239975690841675,"511":2.7403578758239746,"512":-1.2730789184570312,"513":2.909230947494507,"514":-3.095365047454834,"515":-3.521345853805542,"516":2.0088958740234375,"517":6.354701995849609,"518":0.9927774667739868,"519":3.0346429347991943,"520":-11.602158546447754,"521":-2.877063751220703,"522":6.994809627532959,"523":-11.134039878845215,"524":5.289113521575928,"525":-2.7561376094818115,"526":4.281485080718994,"527":-4.185930252075195,"528":-4.296555995941162,"529":3.592310905456543,"530":4.437783241271973,"531":8.977038383483887,"532":-2.4706966876983643,"533":2.274167537689209,"534":5.339794635772705,"535":-2.2110860347747803,"536":-2.583008050918579,"537":4.436980724334717,"538":10.163331031799316,"539":4.886512756347656,"540":0.6040742993354797,"541":-2.9303760528564453,"542":-5.512912273406982,"543":-1.2127736806869507,"544":2.2252469062805176,"545":-4.044962406158447,"546":4.687507152557373,"547":-1.8440355062484741,"548":-1.8480525016784668,"549":5.7713751792907715,"550":-4.737644195556641,"551":-2.221442699432373,"552":0.33740097284317017,"553":-7.565460205078125,"554":2.887599229812622,"555":-8.41256332397461,"556":-0.07377400994300842,"557":-4.6337785720825195,"558":-4.160676002502441,"559":1.7502820491790771,"560":-1.447898030281067,"561":1.338804841041565,"562":-6.580108165740967,"563":1.675740361213684,"564":0.2786150872707367,"565":5.360658168792725,"566":-5.400610446929932,"567":0.43042102456092834,"568":-0.6275418996810913,"569":-0.5336253046989441,"570":-6.2323455810546875,"571":-0.28054729104042053,"572":6.296977996826172,"573":-0.08520836383104324,"574":0.8549255728721619,"575":-1.9363994598388672,"576":2.0400571823120117,"577":6.172638893127441,"578":-6.940255641937256,"579":-0.9344356060028076,"580":-6.160977363586426,"581":5.230825424194336,"582":-0.054087083786726,"583":6.850135803222656,"584":0.13699302077293396,"585":-0.13500167429447174,"586":0.39990392327308655,"587":1.6583809852600098,"588":7.334600925445557,"589":7.086796283721924,"590":-6.101782321929932,"591":-6.719710826873779,"592":0.18094687163829803,"593":-6.28170919418335,"594":-1.7478172779083252,"595":6.482052803039551,"596":-6.646202564239502,"597":0.10184091329574585,"598":0.9360177516937256,"599":-0.6058341264724731,"600":-6.648345470428467,"601":-0.5181724429130554,"602":-5.725719451904297,"603":4.536492824554443,"604":-0.08235934376716614,"605":2.8196072578430176,"606":-0.586372971534729,"607":5.419069290161133,"608":3.9226536750793457,"609":7.989385604858398,"610":5.824434280395508,"611":3.6136770248413086,"612":5.928410053253174,"613":-4.926054954528809,"614":6.36211633682251,"615":1.3033828735351562,"616":-4.179859161376953,"617":-4.185773849487305,"618":1.7200697660446167,"619":-1.8645073175430298,"620":-4.637375831604004,"621":2.600381851196289,"622":3.7983694076538086,"623":5.795263290405273,"624":1.2383544445037842,"625":-9.275616645812988,"626":-2.601294755935669,"627":-0.14153024554252625,"628":-2.6161575317382812,"629":7.632289886474609,"630":-11.379555702209473,"631":-6.199877738952637,"632":2.3592913150787354,"633":-2.9225025177001953,"634":8.453150749206543,"635":-5.018800258636475,"636":1.943030834197998,"637":3.612173557281494,"638":-6.008877277374268,"639":10.245620727539062,"640":-0.6743596792221069,"641":3.365529775619507,"642":-6.904336452484131,"643":5.717874526977539,"644":2.784677743911743,"645":-5.008772850036621,"646":5.3878631591796875,"647":-5.339000701904297,"648":0.41869643330574036,"649":-3.7025856971740723,"650":-4.529529571533203,"651":6.197777271270752,"652":-4.256333827972412,"653":2.368577241897583,"654":1.1917948722839355,"655":4.239582061767578,"656":-5.011967182159424,"657":6.026397705078125,"658":3.004624843597412,"659":-1.4145299196243286,"660":1.1064900159835815,"661":6.190782070159912,"662":-5.228360176086426,"663":5.5737128257751465,"664":-4.893984794616699,"665":-5.534234046936035,"666":1.9905743598937988,"667":4.493245601654053,"668":-6.1903252601623535,"669":6.025295257568359,"670":1.6510992050170898,"671":3.0499107837677,"672":-1.536826491355896,"673":1.7957546710968018,"674":-0.797447144985199,"675":-0.910942792892456,"676":0.9619121551513672,"677":1.2565165758132935,"678":-5.839249134063721,"679":-0.641109824180603,"680":5.516897201538086,"681":5.576318264007568,"682":0.557451069355011,"683":4.060740947723389,"684":-4.489086627960205,"685":-0.2826298475265503,"686":-5.193032741546631,"687":6.191257953643799,"688":-9.158501625061035,"689":-10.469191551208496,"690":-8.663668632507324,"691":2.9835638999938965,"692":-7.452515602111816,"693":2.7293102741241455,"694":-4.834600448608398,"695":3.9017817974090576,"696":-13.762860298156738,"697":-3.6261730194091797,"698":0.5146284699440002,"699":-2.703143835067749,"700":3.134831190109253,"701":0.1979592740535736,"702":-6.87087869644165,"703":-2.693565607070923,"704":8.030672073364258,"705":-8.64572811126709,"706":-5.110555171966553,"707":9.056296348571777,"708":3.3750061988830566,"709":-1.4245051145553589,"710":7.016217231750488,"711":1.7305395603179932,"712":-3.7043137550354004,"713":8.792973518371582,"714":2.7430660724639893,"715":-7.65640115737915,"716":-5.463671684265137,"717":-5.598388671875,"718":-3.776684522628784,"719":1.2648015022277832,"720":-2.5051257610321045,"721":-2.278343439102173,"722":-3.446762800216675,"723":8.657554626464844,"724":4.6477837562561035,"725":2.291696071624756,"726":-8.325271606445312,"727":1.0613020658493042,"728":2.7302298545837402,"729":-2.7157485485076904,"730":7.372990131378174,"731":2.967036247253418,"732":-1.8922861814498901,"733":3.3550829887390137,"734":-2.6057868003845215,"735":-3.614064931869507,"736":-2.7876882553100586,"737":4.211051940917969,"738":-3.319063425064087,"739":-2.185243844985962,"740":4.080196380615234,"741":4.265662670135498,"742":-1.7931301593780518,"743":-4.15603494644165,"744":3.666215181350708,"745":3.900090217590332,"746":3.2968032360076904,"747":-1.9482994079589844,"748":2.0023176670074463,"749":3.4351449012756348,"750":-1.9652776718139648,"751":-3.8110756874084473,"752":-3.1690688133239746,"753":3.57436203956604,"754":3.3337650299072266,"755":2.345708131790161,"756":-2.738367795944214,"757":-2.8149259090423584,"758":-3.5316684246063232,"759":4.883882522583008,"760":1.605207920074463,"761":2.6471359729766846,"762":-4.001911163330078,"763":-2.534374475479126,"764":3.713728427886963,"765":-3.4679713249206543,"766":-1.1375505924224854,"767":2.3006834983825684,"768":-2.2543091773986816,"769":3.5509135723114014,"770":-3.020462989807129,"771":2.7025227546691895,"772":-2.7225804328918457,"773":-4.2846269607543945,"774":-5.4190993309021,"775":-2.1772680282592773,"776":-4.618764400482178,"777":-0.1733672320842743,"778":1.4789060354232788,"779":-0.38731059432029724,"780":-0.520097017288208,"781":1.211310863494873,"782":-10.097496032714844,"783":-8.254508018493652,"784":-1.8910807371139526,"785":-5.962399482727051,"786":5.1712164878845215,"787":-1.0272637605667114,"788":-5.759695053100586,"789":1.0026264190673828,"790":3.1897470951080322,"791":-4.728813171386719,"792":0.7317485809326172,"793":0.4725745916366577,"794":5.1891655921936035,"795":-2.2048096656799316,"796":0.7871280312538147,"797":-4.51156759262085,"798":7.008998870849609,"799":-0.3894845247268677,"800":8.805606842041016,"801":-1.7547391653060913,"802":-5.892086505889893,"803":8.168327331542969,"804":0.5309962034225464,"805":0.7921344637870789,"806":-1.2756664752960205,"807":-5.257413387298584,"808":1.8276466131210327,"809":2.6102592945098877,"810":-0.09802340716123581,"811":-0.23569820821285248,"812":0.248956561088562,"813":-0.9142166972160339,"814":-2.3967392444610596,"815":-1.711801528930664,"816":6.201281547546387,"817":0.1516145020723343,"818":-0.31389227509498596,"819":-1.3888914585113525,"820":2.7520437240600586,"821":3.6131591796875,"822":7.595022678375244,"823":-1.5139362812042236,"824":0.11552233248949051,"825":2.952009677886963,"826":1.3297779560089111,"827":1.4587438106536865,"828":1.9902756214141846,"829":-0.8848977088928223,"830":0.46379002928733826,"831":0.20988258719444275,"832":0.1885746568441391,"833":-1.06638503074646,"834":0.7256492376327515,"835":-0.9536296725273132,"836":-2.5667383670806885,"837":5.526340961456299,"838":3.3651113510131836,"839":-7.944254398345947,"840":-0.737240731716156,"841":-6.86387300491333,"842":-0.5555813312530518,"843":2.6354334354400635,"844":1.5845940113067627,"845":1.8815491199493408,"846":-3.3894028663635254,"847":-8.762961387634277,"848":-3.419445037841797,"849":1.2124305963516235,"850":2.3087949752807617,"851":4.0468220710754395,"852":-0.6951470971107483,"853":-5.219846725463867,"854":2.9157609939575195,"855":-5.375304698944092,"856":1.3050835132598877,"857":-5.992077827453613,"858":5.517660617828369,"859":-6.678093433380127}},"inputHidden":{"rows":20,"columns":20,"weights":{"0":-2.3063809871673584,"1":-4.554025650024414,"2":-1.427027702331543,"3":0.4468260407447815,"4":3.870436668395996,"5":3.215179681777954,"6":6.251436710357666,"7":-7.772146224975586,"8":4.725041389465332,"9":-4.892926216125488,"10":2.8434841632843018,"11":0.9276162385940552,"12":4.608758926391602,"13":0.9880141615867615,"14":2.413313150405884,"15":-2.087461233139038,"16":0.7296653389930725,"17":2.0853819847106934,"18":-4.361015796661377,"19":1.9331259727478027,"20":-4.029041290283203,"21":2.588508129119873,"22":2.2877607345581055,"23":2.151597499847412,"24":-5.789533615112305,"25":1.6042778491973877,"26":-1.223732590675354,"27":-4.168787002563477,"28":4.249373435974121,"29":-2.7985990047454834,"30":0.9116426706314087,"31":1.0155019760131836,"32":2.406925916671753,"33":4.83999490737915,"34":-3.8286232948303223,"35":-3.968043088912964,"36":3.4875943660736084,"37":1.0499104261398315,"38":2.698758125305176,"39":-1.5452489852905273,"40":2.316542625427246,"41":1.4881761074066162,"42":3.054753065109253,"43":6.072170734405518,"44":-7.508085250854492,"45":-0.8418679237365723,"46":-13.238126754760742,"47":5.168906211853027,"48":-12.906237602233887,"49":-7.100069522857666,"50":2.233660936355591,"51":-6.008488178253174,"52":8.213600158691406,"53":-9.505135536193848,"54":6.391349792480469,"55":9.25656795501709,"56":-4.715409278869629,"57":-14.34765911102295,"58":0.7525362372398376,"59":-5.119476318359375,"60":3.5742626190185547,"61":2.2520837783813477,"62":-2.8136889934539795,"63":-3.727289915084839,"64":-7.80262565612793,"65":-3.9356613159179688,"66":-9.623854637145996,"67":-1.1988017559051514,"68":-7.80511474609375,"69":1.1051517724990845,"70":-2.0691871643066406,"71":-4.975500583648682,"72":-2.974902868270874,"73":-4.9912872314453125,"74":1.0282847881317139,"75":10.96494197845459,"76":-4.422064304351807,"77":-9.369868278503418,"78":1.0129446983337402,"79":-6.640133380889893,"80":-5.026954174041748,"81":-3.0712530612945557,"82":-2.4556243419647217,"83":-3.113203525543213,"84":1.7876673936843872,"85":-0.10579799860715866,"86":4.0113372802734375,"87":-4.9935455322265625,"88":5.1011271476745605,"89":-5.4550275802612305,"90":-0.3214872181415558,"91":-0.01575896143913269,"92":-3.1024668216705322,"93":4.049193382263184,"94":2.7604198455810547,"95":0.3234714865684509,"96":-0.31194835901260376,"97":4.878970623016357,"98":-1.7924882173538208,"99":0.1262553334236145,"100":-2.3920998573303223,"101":0.722976565361023,"102":0.9503524303436279,"103":1.0869306325912476,"104":-0.703259289264679,"105":-0.05712524428963661,"106":-0.1298316866159439,"107":-2.303727388381958,"108":1.6813708543777466,"109":-0.9501333236694336,"110":-2.2725272178649902,"111":0.467495322227478,"112":1.8026037216186523,"113":4.235049724578857,"114":-2.890087127685547,"115":-2.768430709838867,"116":2.838663101196289,"117":2.1761727333068848,"118":0.4539271891117096,"119":0.08157888054847717,"120":-4.540884017944336,"121":4.478191375732422,"122":-4.637705326080322,"123":-4.760359764099121,"124":2.493546962738037,"125":-3.119896173477173,"126":1.7434717416763306,"127":-4.768631935119629,"128":4.937551021575928,"129":-2.758852005004883,"130":-5.0783305168151855,"131":1.4709398746490479,"132":-4.419125080108643,"133":0.7451689839363098,"134":-6.908863067626953,"135":2.103039264678955,"136":-1.648430347442627,"137":7.760295867919922,"138":4.709129333496094,"139":-1.6610841751098633,"140":-3.0878219604492188,"141":-6.5201416015625,"142":0.49006080627441406,"143":-3.7529430389404297,"144":-1.3220620155334473,"145":2.1301448345184326,"146":3.4763612747192383,"147":-6.204724311828613,"148":6.475744247436523,"149":0.2707492709159851,"150":2.142273426055908,"151":3.1929829120635986,"152":2.730762243270874,"153":0.9193227291107178,"154":0.5473490953445435,"155":-2.676712989807129,"156":2.281733751296997,"157":-1.1031700372695923,"158":-4.435862064361572,"159":4.845147132873535,"160":-3.532697916030884,"161":-4.697449207305908,"162":-6.714461803436279,"163":-8.050261497497559,"164":-2.3426156044006348,"165":2.587446689605713,"166":2.200392246246338,"167":-1.9761898517608643,"168":-2.5836565494537354,"169":1.0242159366607666,"170":-1.2474576234817505,"171":-1.7488313913345337,"172":-1.871333122253418,"173":3.2920713424682617,"174":-4.516140937805176,"175":-4.811660289764404,"176":-5.78645133972168,"177":6.639094829559326,"178":-8.088689804077148,"179":7.399433612823486,"180":5.3690338134765625,"181":-2.8990538120269775,"182":-3.99470591545105,"183":-6.8658623695373535,"184":-3.144015073776245,"185":-3.0048158168792725,"186":-2.877896547317505,"187":2.315092086791992,"188":-2.4623489379882812,"189":2.7600319385528564,"190":-3.697175979614258,"191":0.4678828716278076,"192":-0.6926377415657043,"193":-3.9944050312042236,"194":0.037952885031700134,"195":2.5279805660247803,"196":-2.6496150493621826,"197":1.66262948513031,"198":3.4274656772613525,"199":0.06968576461076736,"200":1.1439788341522217,"201":2.1980912685394287,"202":2.9689815044403076,"203":3.1084225177764893,"204":-3.276418924331665,"205":2.8761301040649414,"206":-3.926093101501465,"207":1.779043197631836,"208":-4.983677864074707,"209":1.2246294021606445,"210":5.035480499267578,"211":-2.2653563022613525,"212":3.655550718307495,"213":4.769172668457031,"214":-0.4917978048324585,"215":-4.218397617340088,"216":1.3351126909255981,"217":-3.355668783187866,"218":3.4085376262664795,"219":3.1136326789855957,"220":-2.5979573726654053,"221":-1.9361650943756104,"222":-5.564517498016357,"223":-5.704346179962158,"224":-0.010339523665606976,"225":-2.136176586151123,"226":5.08661413192749,"227":-2.776846170425415,"228":-0.06414318829774857,"229":-2.608203887939453,"230":-5.913394927978516,"231":5.174423694610596,"232":-5.284620761871338,"233":-0.4510997533798218,"234":-5.665432453155518,"235":0.49483224749565125,"236":-1.4852323532104492,"237":5.683311462402344,"238":-1.7513091564178467,"239":-4.343335151672363,"240":5.1101250648498535,"241":1.7815744876861572,"242":1.3302322626113892,"243":-0.8323763608932495,"244":-0.5513172149658203,"245":4.754874229431152,"246":-6.537006378173828,"247":2.3283095359802246,"248":-5.062709331512451,"249":-3.137922525405884,"250":1.7045350074768066,"251":0.8251633644104004,"252":3.6795296669006348,"253":1.547006607055664,"254":4.169903755187988,"255":0.32714053988456726,"256":0.2834649682044983,"257":-3.5369889736175537,"258":7.4183502197265625,"259":-0.22557003796100616,"260":0.7132142186164856,"261":-8.215717315673828,"262":-3.068563222885132,"263":-8.67613410949707,"264":-5.719791889190674,"265":-3.127291440963745,"266":1.8235735893249512,"267":-0.5448279976844788,"268":3.3637707233428955,"269":2.8042538166046143,"270":-0.7763346433639526,"271":-2.7217671871185303,"272":1.087998628616333,"273":1.9528040885925293,"274":-3.3239407539367676,"275":-0.1975468099117279,"276":-5.4922871589660645,"277":3.2978200912475586,"278":-5.413508892059326,"279":4.674897193908691,"280":1.0864415168762207,"281":-1.2502377033233643,"282":-2.91382098197937,"283":-3.251922607421875,"284":-5.7183146476745605,"285":3.1478018760681152,"286":0.32483795285224915,"287":2.532026529312134,"288":-4.845491886138916,"289":-2.89961838722229,"290":8.687326431274414,"291":-2.9353291988372803,"292":-0.9970866441726685,"293":-5.25563383102417,"294":8.23861312866211,"295":5.699386119842529,"296":-4.637411117553711,"297":-5.594555854797363,"298":-1.4042500257492065,"299":2.2092230319976807,"300":-0.0386754609644413,"301":-1.31221342086792,"302":-2.3802638053894043,"303":-5.5058369636535645,"304":-2.4340226650238037,"305":2.525144338607788,"306":1.6096440553665161,"307":-1.566312313079834,"308":4.674621105194092,"309":-5.6730265617370605,"310":-7.058225154876709,"311":-2.309877395629883,"312":-3.850682258605957,"313":6.074716091156006,"314":-4.123389720916748,"315":-1.3648052215576172,"316":-3.7188825607299805,"317":6.5203118324279785,"318":1.702952265739441,"319":-1.2017409801483154,"320":-0.09287700802087784,"321":-0.9470765590667725,"322":5.908657550811768,"323":2.8237252235412598,"324":-4.353102207183838,"325":-3.3979837894439697,"326":-3.8100738525390625,"327":-0.07028456777334213,"328":-6.470879077911377,"329":3.5754921436309814,"330":4.061829090118408,"331":-2.1258325576782227,"332":5.829879283905029,"333":-0.7712741494178772,"334":4.36464262008667,"335":3.032243490219116,"336":-0.8300140500068665,"337":-4.091571807861328,"338":-4.373791217803955,"339":-1.1464775800704956,"340":3.986405611038208,"341":-4.404550552368164,"342":-3.527193069458008,"343":-3.1876654624938965,"344":-4.211808204650879,"345":-3.337409496307373,"346":2.085753917694092,"347":1.5248101949691772,"348":-5.5429158210754395,"349":-4.239826202392578,"350":-1.290664792060852,"351":-0.42081013321876526,"352":-3.9875850677490234,"353":-2.744338274002075,"354":-0.34087395668029785,"355":4.314513206481934,"356":-3.0884177684783936,"357":1.4200962781906128,"358":0.713462769985199,"359":2.87886118888855,"360":2.3680195808410645,"361":-0.2951022982597351,"362":-0.3017291724681854,"363":-0.2178163379430771,"364":-5.696128845214844,"365":-3.14680552482605,"366":-2.165644407272339,"367":-0.5736246109008789,"368":4.904648303985596,"369":2.866997480392456,"370":-4.044364929199219,"371":-3.8063535690307617,"372":2.524364709854126,"373":-2.3768742084503174,"374":-3.551774263381958,"375":2.6019678115844727,"376":-2.3867905139923096,"377":3.1761157512664795,"378":-0.36098045110702515,"379":0.034228213131427765,"380":-2.096724033355713,"381":1.5671762228012085,"382":1.1560678482055664,"383":1.1675368547439575,"384":1.9870707988739014,"385":0.29564496874809265,"386":-0.6553890705108643,"387":-2.1687521934509277,"388":5.0638885498046875,"389":-2.6050872802734375,"390":-2.6224896907806396,"391":1.9107260704040527,"392":1.625982403755188,"393":5.44108772277832,"394":-4.794327259063721,"395":-5.169345378875732,"396":3.9665048122406006,"397":4.539639472961426,"398":2.171494722366333,"399":-0.7326340675354004}},"inputBias":{"rows":20,"columns":1,"weights":{"0":-0.4485369920730591,"1":-0.38415929675102234,"2":-0.035689398646354675,"3":3.308605909347534,"4":0.019475769251585007,"5":-1.2375116348266602,"6":-0.2655665874481201,"7":-1.3038976192474365,"8":0.39901071786880493,"9":-0.5641230344772339,"10":1.1529513597488403,"11":-0.7394706606864929,"12":0.9062478542327881,"13":2.6218807697296143,"14":0.41842907667160034,"15":0.17501389980316162,"16":-0.06738261878490448,"17":1.1197655200958252,"18":2.1097450256347656,"19":0.4818826913833618}},"forgetMatrix":{"rows":20,"columns":43,"weights":{"0":3.161073684692383,"1":2.836347818374634,"2":3.1753294467926025,"3":2.8072211742401123,"4":3.300726890563965,"5":3.0133373737335205,"6":3.0896594524383545,"7":-2.6146459579467773,"8":3.550356864929199,"9":-3.4792706966400146,"10":2.6512796878814697,"11":3.062268018722534,"12":-2.9411487579345703,"13":2.5023584365844727,"14":3.56577205657959,"15":2.606271743774414,"16":2.8993968963623047,"17":-2.436919927597046,"18":2.981214761734009,"19":-2.630119562149048,"20":-2.7647361755371094,"21":2.807311773300171,"22":2.748551845550537,"23":3.103541851043701,"24":-3.404155969619751,"25":3.383140802383423,"26":-3.6849656105041504,"27":-3.272019863128662,"28":3.0379581451416016,"29":-4.440033912658691,"30":-2.7970707416534424,"31":2.7743823528289795,"32":4.468540191650391,"33":3.433408498764038,"34":2.937052011489868,"35":3.1764774322509766,"36":2.9322569370269775,"37":3.0840342044830322,"38":-3.27282452583313,"39":3.3527309894561768,"40":-3.491431951522827,"41":3.0640180110931396,"42":-1.9554901123046875,"43":-2.023487091064453,"44":3.757155418395996,"45":-3.198977470397949,"46":-7.7080793380737305,"47":0.5700947046279907,"48":-2.300013542175293,"49":-1.5396066904067993,"50":7.007391929626465,"51":-0.15827526152133942,"52":4.591747760772705,"53":-0.12375152856111526,"54":-1.5216407775878906,"55":3.9716367721557617,"56":-5.934899806976318,"57":2.1250269412994385,"58":-4.093016624450684,"59":8.426876068115234,"60":-6.686216354370117,"61":0.5898525714874268,"62":-1.2694929838180542,"63":-2.91827130317688,"64":-4.187770366668701,"65":-5.964649677276611,"66":-6.072281837463379,"67":2.563462257385254,"68":3.4555559158325195,"69":0.27170756459236145,"70":2.8460893630981445,"71":3.5848140716552734,"72":2.65726375579834,"73":-6.517158508300781,"74":4.800883769989014,"75":6.435323715209961,"76":-0.4774225950241089,"77":-1.2498128414154053,"78":7.709661483764648,"79":-4.078876972198486,"80":5.670537948608398,"81":1.2194806337356567,"82":6.8507819175720215,"83":0.36433255672454834,"84":-1.2343181371688843,"85":1.1525334119796753,"86":1.0335875749588013,"87":-3.115447521209717,"88":-0.7972066402435303,"89":8.755377769470215,"90":-0.3982451558113098,"91":-6.156450271606445,"92":-3.292593002319336,"93":7.886837959289551,"94":-3.8306455612182617,"95":-4.893016815185547,"96":-1.5602693557739258,"97":8.246025085449219,"98":9.022210121154785,"99":-1.288690209388733,"100":-7.874401569366455,"101":-8.897050857543945,"102":-0.5024095773696899,"103":-0.5358007550239563,"104":-8.519248962402344,"105":0.4551751911640167,"106":-3.2137460708618164,"107":2.3124828338623047,"108":3.8938446044921875,"109":-2.926586866378784,"110":1.8841469287872314,"111":0.5161389112472534,"112":4.455316543579102,"113":-1.314695119857788,"114":7.005450248718262,"115":2.4760079383850098,"116":0.3718174397945404,"117":8.9443359375,"118":-0.25615501403808594,"119":-8.808601379394531,"120":8.55306625366211,"121":1.900367259979248,"122":3.039436101913452,"123":2.7124152183532715,"124":-0.257755309343338,"125":2.849590539932251,"126":3.350221872329712,"127":-1.461509108543396,"128":1.6678880453109741,"129":-4.3483381271362305,"130":-4.455874919891357,"131":-6.054263591766357,"132":5.653177261352539,"133":0.3851274847984314,"134":-6.43384313583374,"135":-4.9634552001953125,"136":6.39180326461792,"137":-1.5268070697784424,"138":-5.123424053192139,"139":1.4147175550460815,"140":4.714539527893066,"141":2.5196385383605957,"142":-6.3945136070251465,"143":-0.22180791199207306,"144":-7.043223857879639,"145":5.568938255310059,"146":-1.3201782703399658,"147":-5.550917148590088,"148":5.8432698249816895,"149":-0.5083282589912415,"150":-2.285931348800659,"151":-0.6698504090309143,"152":3.0784571170806885,"153":0.4183845520019531,"154":5.209515571594238,"155":3.9395365715026855,"156":0.1577238142490387,"157":5.409362316131592,"158":0.18190982937812805,"159":-4.424106121063232,"160":6.601138114929199,"161":0.0875319167971611,"162":-0.4851685166358948,"163":3.8002004623413086,"164":1.5624030828475952,"165":-0.30163297057151794,"166":5.141285419464111,"167":0.4181884527206421,"168":-1.5983184576034546,"169":5.852867126464844,"170":0.10806140303611755,"171":7.203266620635986,"172":-0.0614275224506855,"173":-0.22721941769123077,"174":-0.07700025290250778,"175":5.800939559936523,"176":-3.9988653659820557,"177":-5.773341655731201,"178":-5.944470405578613,"179":5.811556339263916,"180":-2.5359251499176025,"181":-5.3920674324035645,"182":-1.245259404182434,"183":5.789044380187988,"184":5.538328647613525,"185":-5.4763007164001465,"186":5.3205647468566895,"187":-5.652925491333008,"188":-1.6297584772109985,"189":0.015910053625702858,"190":-5.851429462432861,"191":0.09164178371429443,"192":-5.873814582824707,"193":-0.022192614153027534,"194":0.0805925652384758,"195":-5.627377986907959,"196":5.833414554595947,"197":-0.05599238723516464,"198":0.023752139881253242,"199":0.08810027688741684,"200":0.002245183801278472,"201":5.769715785980225,"202":5.990663528442383,"203":5.28717565536499,"204":-5.732290267944336,"205":-5.898364067077637,"206":-0.271770179271698,"207":-0.03943239152431488,"208":1.3227169513702393,"209":-5.411759853363037,"210":5.578266143798828,"211":-2.173157215118408,"212":0.10279394686222076,"213":0.4116513431072235,"214":2.103874444961548,"215":-0.5342974662780762,"216":-2.40525221824646,"217":-1.273565411567688,"218":-1.1029527187347412,"219":-2.420518398284912,"220":-2.5154364109039307,"221":1.6551028490066528,"222":-1.0399054288864136,"223":-2.7781448364257812,"224":-0.9538347125053406,"225":1.0407414436340332,"226":-1.4580018520355225,"227":1.7495018243789673,"228":1.012555718421936,"229":-0.5825716853141785,"230":-0.5340953469276428,"231":0.7384196519851685,"232":-0.0799156203866005,"233":-0.7322102785110474,"234":-0.33796635270118713,"235":-2.0560097694396973,"236":-3.0915300846099854,"237":2.970425605773926,"238":2.434019088745117,"239":2.1165714263916016,"240":-0.4766019284725189,"241":0.6898871660232544,"242":-1.7155592441558838,"243":1.5078179836273193,"244":2.814091920852661,"245":1.5468547344207764,"246":1.2761497497558594,"247":-3.4228038787841797,"248":0.7378225922584534,"249":-2.782754898071289,"250":0.5743746757507324,"251":1.908738374710083,"252":-2.534677743911743,"253":-0.3077270984649658,"254":-2.6485776901245117,"255":4.228011608123779,"256":-4.180868148803711,"257":0.9973337054252625,"258":-6.103155612945557,"259":1.5266762971878052,"260":-4.361597061157227,"261":-5.997097492218018,"262":-3.171018362045288,"263":-5.740769863128662,"264":5.003303527832031,"265":-0.044943973422050476,"266":-1.4637861251831055,"267":2.9330856800079346,"268":3.7208967208862305,"269":-3.8066816329956055,"270":6.018710136413574,"271":0.11671848595142365,"272":-2.0867226123809814,"273":4.51448917388916,"274":5.453579425811768,"275":-7.6938886642456055,"276":2.5668137073516846,"277":-5.070472717285156,"278":-1.9129843711853027,"279":-1.5508052110671997,"280":2.254729986190796,"281":-2.445622205734253,"282":5.752668380737305,"283":2.316879987716675,"284":-3.5459787845611572,"285":0.1530357152223587,"286":-5.8902082443237305,"287":2.15466570854187,"288":1.8634562492370605,"289":1.4617453813552856,"290":3.713698387145996,"291":-5.278750896453857,"292":-1.4583405256271362,"293":5.540740013122559,"294":6.157224178314209,"295":-0.7715359330177307,"296":4.476680755615234,"297":0.3730454742908478,"298":0.7904694080352783,"299":-5.943772315979004,"300":1.4725724458694458,"301":3.9816229343414307,"302":-2.85660982131958,"303":4.20114803314209,"304":-1.4423213005065918,"305":5.680362701416016,"306":-1.0914372205734253,"307":3.8890275955200195,"308":-3.870877265930176,"309":4.745796203613281,"310":3.6818184852600098,"311":4.360597610473633,"312":-0.9850636124610901,"313":-4.189523220062256,"314":3.737380027770996,"315":3.264580249786377,"316":3.4891929626464844,"317":-0.9560962915420532,"318":2.66550612449646,"319":4.8589253425598145,"320":-4.943103790283203,"321":-0.11236392706632614,"322":-2.2093794345855713,"323":4.120518684387207,"324":4.628669261932373,"325":2.28542423248291,"326":-1.7647219896316528,"327":-3.192314624786377,"328":-4.664654731750488,"329":3.979008674621582,"330":2.399030923843384,"331":2.11759877204895,"332":-1.3530813455581665,"333":-2.687866687774658,"334":3.8279638290405273,"335":-1.3627139329910278,"336":-2.06901216506958,"337":5.129931926727295,"338":-1.647783875465393,"339":0.27785539627075195,"340":-0.8181676268577576,"341":2.21859073638916,"342":-2.2120516300201416,"343":-3.555115222930908,"344":-2.8521528244018555,"345":2.563857078552246,"346":-4.6511640548706055,"347":-2.446383237838745,"348":4.032649040222168,"349":3.4167299270629883,"350":-2.594143867492676,"351":-3.147374153137207,"352":3.3618850708007812,"353":3.7612085342407227,"354":-2.896594762802124,"355":-2.721585988998413,"356":2.66729998588562,"357":2.737170934677124,"358":-2.8300273418426514,"359":3.435248374938965,"360":2.284074544906616,"361":-2.9386863708496094,"362":3.1824710369110107,"363":-2.694711685180664,"364":3.2939374446868896,"365":-3.0491318702697754,"366":3.393439292907715,"367":-0.8294618129730225,"368":2.6812894344329834,"369":-2.7233946323394775,"370":-3.3020787239074707,"371":-3.652242660522461,"372":-2.9267141819000244,"373":-3.3001291751861572,"374":2.4750893115997314,"375":-3.0794289112091064,"376":3.063771963119507,"377":-2.7098283767700195,"378":-2.9752907752990723,"379":3.194925308227539,"380":2.881925344467163,"381":-3.165550470352173,"382":-3.356922149658203,"383":2.3976240158081055,"384":-0.6817236542701721,"385":-3.169283866882324,"386":-3.072267532348633,"387":6.674019813537598,"388":-1.322143793106079,"389":6.803202152252197,"390":-3.1654105186462402,"391":0.4087689518928528,"392":-0.6464142203330994,"393":-4.48219108581543,"394":5.111814975738525,"395":2.9116833209991455,"396":-2.423051118850708,"397":-3.9964046478271484,"398":5.33601188659668,"399":-0.22740842401981354,"400":-4.108151912689209,"401":4.647959232330322,"402":4.39793062210083,"403":-2.229337215423584,"404":6.695982933044434,"405":1.1867284774780273,"406":4.365843772888184,"407":3.3064863681793213,"408":2.309511423110962,"409":1.3948427438735962,"410":5.350332736968994,"411":-4.474627494812012,"412":4.4019317626953125,"413":-0.48423343896865845,"414":-2.068882703781128,"415":6.267396926879883,"416":1.1652954816818237,"417":-3.6964643001556396,"418":4.842869758605957,"419":4.719181060791016,"420":2.7908217906951904,"421":5.117565631866455,"422":-1.207801103591919,"423":1.7286591529846191,"424":-1.6413023471832275,"425":0.2837385833263397,"426":0.5179626941680908,"427":-4.600323677062988,"428":-0.7484000325202942,"429":-1.3159478902816772,"430":4.473268985748291,"431":2.3147270679473877,"432":-0.45796290040016174,"433":5.824314594268799,"434":-2.8152713775634766,"435":-1.5299268960952759,"436":4.260388374328613,"437":-1.0920488834381104,"438":1.3767422437667847,"439":-6.934590816497803,"440":3.099094867706299,"441":5.667888641357422,"442":-3.369218111038208,"443":0.6424953937530518,"444":-2.4989962577819824,"445":0.46395283937454224,"446":1.536042332649231,"447":5.9012346267700195,"448":-6.891928672790527,"449":4.370873928070068,"450":-5.086135387420654,"451":6.116915702819824,"452":0.5007844567298889,"453":-3.2134032249450684,"454":-2.5249404907226562,"455":4.177167892456055,"456":-0.16508114337921143,"457":4.1929426193237305,"458":6.088667392730713,"459":-2.3789782524108887,"460":2.6040902137756348,"461":-1.1122212409973145,"462":-3.6755897998809814,"463":-1.2928013801574707,"464":-1.0567734241485596,"465":-4.687345027923584,"466":0.564474880695343,"467":5.438755989074707,"468":-2.598367214202881,"469":-2.789283275604248,"470":3.7249269485473633,"471":-0.38943228125572205,"472":2.7299883365631104,"473":-2.798708200454712,"474":-3.3058626651763916,"475":-2.6983561515808105,"476":3.0413103103637695,"477":-1.6623626947402954,"478":-0.6756443381309509,"479":2.697300434112549,"480":3.475078821182251,"481":-2.509927272796631,"482":3.108630418777466,"483":2.6643803119659424,"484":3.3308725357055664,"485":2.650538921356201,"486":1.6379560232162476,"487":-3.0328481197357178,"488":-3.028653383255005,"489":2.2587530612945557,"490":-1.722780704498291,"491":-3.234663486480713,"492":3.154174566268921,"493":-2.7393696308135986,"494":3.372861385345459,"495":2.3058247566223145,"496":-2.733785390853882,"497":1.9982572793960571,"498":2.975043535232544,"499":-1.741816759109497,"500":-3.1185879707336426,"501":2.3581008911132812,"502":3.2488343715667725,"503":-2.590388774871826,"504":3.197312593460083,"505":-2.8268651962280273,"506":-3.2705984115600586,"507":3.359394073486328,"508":2.523373603820801,"509":2.5936648845672607,"510":2.895965814590454,"511":-3.2032604217529297,"512":-2.4042274951934814,"513":2.975518226623535,"514":2.9933319091796875,"515":2.731473207473755,"516":-5.06166934967041,"517":-2.73225998878479,"518":-1.9640922546386719,"519":7.588566780090332,"520":1.0200121402740479,"521":8.612271308898926,"522":0.16665101051330566,"523":-1.9582390785217285,"524":-0.1402350217103958,"525":-4.037747383117676,"526":-13.043787956237793,"527":7.387635231018066,"528":-3.92148494720459,"529":-0.31032732129096985,"530":-4.4939703941345215,"531":0.6498249173164368,"532":1.0575240850448608,"533":-0.5498451590538025,"534":-2.18849778175354,"535":8.258155822753906,"536":5.503988265991211,"537":-0.05481991171836853,"538":2.35135555267334,"539":3.142848014831543,"540":-8.388923645019531,"541":0.17904947698116302,"542":-3.4794063568115234,"543":-2.9683830738067627,"544":-8.004152297973633,"545":-0.7258408069610596,"546":-0.11089683324098587,"547":-1.2045316696166992,"548":-2.8482718467712402,"549":3.1090521812438965,"550":2.5973973274230957,"551":-0.388458788394928,"552":-5.571678638458252,"553":-3.236416816711426,"554":-7.266219139099121,"555":-0.9987333416938782,"556":7.487852096557617,"557":5.066664695739746,"558":-6.731795310974121,"559":0.633144736289978,"560":5.687324047088623,"561":4.212412357330322,"562":3.1916146278381348,"563":1.8415420055389404,"564":1.4568599462509155,"565":5.251428604125977,"566":-0.9448778629302979,"567":5.366663932800293,"568":5.348761081695557,"569":-5.807119846343994,"570":6.114597320556641,"571":-5.7711405754089355,"572":-0.11548039317131042,"573":0.39950287342071533,"574":0.2860220968723297,"575":-0.13480471074581146,"576":0.719563364982605,"577":-5.1273932456970215,"578":-4.513725757598877,"579":0.8572270274162292,"580":3.6980533599853516,"581":-5.630786418914795,"582":-1.822594165802002,"583":-5.384948253631592,"584":-0.25483977794647217,"585":-3.458756923675537,"586":4.719271659851074,"587":5.88363790512085,"588":-4.6652116775512695,"589":-5.453495025634766,"590":-4.430083274841309,"591":0.2859273850917816,"592":0.4825966954231262,"593":5.329489707946777,"594":-3.2845239639282227,"595":-5.787971496582031,"596":2.7707862854003906,"597":5.654841899871826,"598":5.199899673461914,"599":-2.416534423828125,"600":1.5571640729904175,"601":-4.053600311279297,"602":-6.7035956382751465,"603":-0.8825694918632507,"604":-6.8498406410217285,"605":-3.017886161804199,"606":1.2735364437103271,"607":2.603569746017456,"608":1.2666765451431274,"609":-2.064671516418457,"610":-0.1269562691450119,"611":0.09573815762996674,"612":-4.269183158874512,"613":-4.361288070678711,"614":0.08708935230970383,"615":-7.532430648803711,"616":0.7564828395843506,"617":-0.23184695839881897,"618":7.471601486206055,"619":-6.127455711364746,"620":2.8947572708129883,"621":5.79292106628418,"622":1.845217227935791,"623":-5.341740608215332,"624":2.709036111831665,"625":0.5669379234313965,"626":0.0954870730638504,"627":4.605177402496338,"628":-0.7775189876556396,"629":-3.279074192047119,"630":-4.8952107429504395,"631":-1.5689167976379395,"632":-1.355406641960144,"633":-1.689772129058838,"634":3.5564537048339844,"635":0.9965389966964722,"636":-3.2543909549713135,"637":5.692160606384277,"638":6.377683639526367,"639":-5.1793012619018555,"640":-2.2803707122802734,"641":0.882017195224762,"642":-5.616766929626465,"643":-3.901017665863037,"644":0.08697972446680069,"645":-0.39071595668792725,"646":-0.9084568619728088,"647":-0.8673203587532043,"648":2.0526506900787354,"649":6.84806489944458,"650":4.023895263671875,"651":-2.8519206047058105,"652":3.119415760040283,"653":5.247038841247559,"654":4.781859874725342,"655":-7.949965000152588,"656":3.7280988693237305,"657":0.1998402625322342,"658":-5.671042442321777,"659":-3.7745461463928223,"660":-2.204559326171875,"661":0.9916150569915771,"662":-2.2748706340789795,"663":-1.5302658081054688,"664":2.100128412246704,"665":5.485615253448486,"666":2.7645483016967773,"667":-4.738349914550781,"668":0.9315850734710693,"669":-5.322113513946533,"670":2.155532121658325,"671":-3.747732162475586,"672":-3.8742361068725586,"673":0.39936167001724243,"674":-4.821311950683594,"675":-6.307228088378906,"676":1.558026671409607,"677":4.532612323760986,"678":-3.5917234420776367,"679":7.340457916259766,"680":0.15745851397514343,"681":-0.604873538017273,"682":5.668934345245361,"683":-8.453516960144043,"684":5.977237701416016,"685":-4.2805328369140625,"686":-1.2893673181533813,"687":2.9171524047851562,"688":3.0890486240386963,"689":-4.933967590332031,"690":-0.7769991159439087,"691":-4.934662818908691,"692":1.5827168226242065,"693":1.2210664749145508,"694":-1.666685938835144,"695":-5.800442218780518,"696":2.151170492172241,"697":0.054340604692697525,"698":1.7531144618988037,"699":-7.526585578918457,"700":1.5942342281341553,"701":2.9805471897125244,"702":-0.4978559613227844,"703":2.562319755554199,"704":-2.965423583984375,"705":2.0908572673797607,"706":6.534360408782959,"707":-8.218378067016602,"708":1.0643963813781738,"709":-5.730732440948486,"710":5.01313591003418,"711":5.463812828063965,"712":2.5776965618133545,"713":-0.4750048518180847,